<?xml version="1.0"?>
<opencv_storage>
<opencv_ml_svm>
  <format>3</format>
  <svmType>C_SVC</svmType>
  <kernel>
    <type>RBF</type>
    <gamma>3.3750000000000002e-02</gamma></kernel>
  <C>1.0000000000000001e-01</C>
  <term_criteria><epsilon>1.1920928955078125e-07</epsilon>
    <iterations>1000</iterations></term_criteria>
  <var_count>80</var_count>
  <class_count>2</class_count>
  <class_labels type_id="opencv-matrix">
    <rows>2</rows>
    <cols>1</cols>
    <dt>i</dt>
    <data>
      0 1</data></class_labels>
  <sv_total>2000</sv_total>
  <support_vectors>
    <_>
      3.19498863e+01 9.81807175e+01 6.02454033e+01 1.07129166e+02
      3.83754883e+01 9.59302979e+01 6.09364281e+01 9.28562317e+01
      1.41991772e+03 3.94451447e+02 6.46359086e-01 4.02708160e+02
      1.43605945e+03 4.05489075e+02 4.28208113e-01 4.02304016e+02
      7.54687214e+00 8.52402344e+01 2.50588150e+02 8.39479065e+01
      7.02376270e+00 7.99930573e+01 2.39651917e+02 8.08476257e+01
      4.37132111e+02 4.94567841e+02 5.54002991e+02 4.93660919e+02
      4.36049225e+02 4.88720062e+02 5.46369141e+02 4.89423950e+02
      3.40397614e+02 3.48475861e+02 3.56167572e+02 3.48275604e+02
      3.40134308e+02 3.46852570e+02 3.54110168e+02 3.47027649e+02
      4.45214157e+01 7.89375381e+01 6.17811394e+01 8.10090714e+01
      4.70154533e+01 7.70211182e+01 6.21263275e+01 7.68815460e+01
      3.01367615e+02 1.58832047e+02 5.37831783e+00 1.60370255e+02
      3.03036957e+02 1.60913269e+02 4.44921589e+00 1.60341476e+02
      2.15985699e+01 7.38051224e+01 1.26613319e+02 7.32404480e+01
      2.09417782e+01 7.14823608e+01 1.23804123e+02 7.18200455e+01
      1.67253433e+02 1.77905167e+02 1.88292725e+02 1.77742645e+02
      1.67049225e+02 1.76850525e+02 1.86989380e+02 1.76974609e+02
      1.47596939e+02 1.49338181e+02 1.50977264e+02 1.49295319e+02
      1.47540176e+02 1.48990051e+02 1.50540527e+02 1.49027313e+02</_>
    <_>
      6.03715706e+01 1.69877945e+02 1.04007126e+02 1.68528976e+02
      5.71462288e+01 1.63227951e+02 1.02303017e+02 1.65356247e+02
      2.45644775e+03 6.80889954e+02 2.41720748e+00 6.82411682e+02
      2.44692554e+03 6.97265015e+02 2.08342886e+00 6.99108948e+02
      1.27607594e+01 1.46709473e+02 4.33260101e+02 1.47879791e+02
      1.40058813e+01 1.40125900e+02 4.13780823e+02 1.39054611e+02
      7.52896851e+02 8.51780090e+02 9.54754944e+02 8.51869812e+02
      7.53087280e+02 8.43506897e+02 9.42092224e+02 8.43344788e+02
      5.86311218e+02 6.00183777e+02 6.13542297e+02 6.00167664e+02
      5.86297058e+02 5.97857239e+02 6.10226074e+02 5.97862671e+02
      6.14580078e+01 1.04064926e+02 8.12491455e+01 1.03342201e+02
      5.81606560e+01 1.01201866e+02 8.05095825e+01 1.02668076e+02
      3.96436890e+02 2.08706802e+02 9.66185665e+00 2.08411667e+02
      3.95340302e+02 2.10612595e+02 9.80811882e+00 2.11378387e+02
      2.82006397e+01 9.67835388e+01 1.66350540e+02 9.68200684e+01
      2.83738155e+01 9.43202438e+01 1.62583359e+02 9.41644058e+01
      2.19478867e+02 2.33447083e+02 2.47148987e+02 2.33441666e+02
      2.19488937e+02 2.32305756e+02 2.45514481e+02 2.32290298e+02
      1.93693268e+02 1.95970627e+02 1.98138580e+02 1.95966492e+02
      1.93689728e+02 1.95591660e+02 1.97605301e+02 1.95592743e+02</_>
    <_>
      6.05791931e+01 1.67783524e+02 1.10692085e+02 1.76078018e+02
      7.05872269e+01 1.76158142e+02 1.12098793e+02 1.73150787e+02
      2.45953296e+03 6.85723206e+02 1.15543425e+00 6.89686829e+02
      2.46280640e+03 6.94231750e+02 1.05022836e+00 6.96626709e+02
      1.28969288e+01 1.43716766e+02 4.25387207e+02 1.44283920e+02
      1.41011829e+01 1.42055573e+02 4.19441284e+02 1.41047714e+02
      7.51914917e+02 8.47756226e+02 9.49180359e+02 8.47907227e+02
      7.52258728e+02 8.45719666e+02 9.45764771e+02 8.45385193e+02
      5.85803711e+02 5.98827454e+02 6.11839111e+02 5.98862671e+02
      5.85868652e+02 5.98282898e+02 6.10994568e+02 5.98226196e+02
      6.12823677e+01 1.02706192e+02 8.19460144e+01 1.04196732e+02
      6.23321838e+01 1.02407532e+02 8.11556549e+01 1.04220634e+02
      3.96611023e+02 2.09335251e+02 7.11972952e+00 2.09705765e+02
      3.96622864e+02 2.10374924e+02 6.70828867e+00 2.10950699e+02
      2.79626026e+01 9.57126923e+01 1.64888718e+02 9.56796036e+01
      2.80224400e+01 9.49824982e+01 1.63764053e+02 9.48442307e+01
      2.19309296e+02 2.32870895e+02 2.46410477e+02 2.32877731e+02
      2.19335785e+02 2.32584869e+02 2.45977005e+02 2.32552658e+02
      1.93594559e+02 1.95734360e+02 1.97849274e+02 1.95738647e+02
      1.93602921e+02 1.95645828e+02 1.97715561e+02 1.95638123e+02</_>
    <_>
      5.99334564e+01 1.67062424e+02 1.04996300e+02 1.68958923e+02
      6.23802872e+01 1.77740417e+02 1.05921303e+02 1.74078705e+02
      2.50018359e+03 7.08187317e+02 1.30688989e+00 7.14753906e+02
      2.51946240e+03 7.02096558e+02 1.54467201e+00 6.92519775e+02
      1.50299416e+01 1.46212738e+02 4.27411469e+02 1.43776718e+02
      1.34141645e+01 1.51234802e+02 4.46941559e+02 1.53927826e+02
      7.76930847e+02 8.69421753e+02 9.69729614e+02 8.67414246e+02
      7.74159363e+02 8.76009583e+02 9.82808289e+02 8.78143555e+02
      6.03378967e+02 6.15112061e+02 6.27541199e+02 6.14602051e+02
      6.02654114e+02 6.17014221e+02 6.31007446e+02 6.17539978e+02
      6.13733292e+01 1.03255386e+02 8.15059814e+01 1.03546127e+02
      6.20704041e+01 1.06260788e+02 8.20462341e+01 1.05300522e+02
      3.99878601e+02 2.12712769e+02 7.96018076e+00 2.13684189e+02
      4.01446320e+02 2.11803497e+02 8.66518593e+00 2.10393021e+02
      2.97333221e+01 9.63673706e+01 1.65237137e+02 9.57338257e+01
      2.87762146e+01 9.82324829e+01 1.69020691e+02 9.89741287e+01
      2.22915710e+02 2.35823044e+02 2.49075500e+02 2.35577728e+02
      2.22556931e+02 2.36745346e+02 2.50755402e+02 2.37009232e+02
      1.96482941e+02 1.98385696e+02 2.00383652e+02 1.98309952e+02
      1.96374084e+02 1.98699158e+02 2.00937088e+02 1.98777573e+02</_>
    <_>
      2.89801636e+01 7.89278641e+01 4.94120483e+01 7.91838913e+01
      2.76535740e+01 7.72567902e+01 4.97562523e+01 7.96281662e+01
      1.16430493e+03 3.28619110e+02 3.61429870e-01 3.26025299e+02
      1.15468591e+03 3.21753937e+02 3.56550246e-01 3.26824707e+02
      5.52498055e+00 6.52318344e+01 1.96105698e+02 6.58366089e+01
      5.68845129e+00 6.68632431e+01 1.98344910e+02 6.60357895e+01
      3.51572632e+02 3.95747925e+02 4.43240509e+02 3.96403442e+02
      3.52508667e+02 3.97330322e+02 4.44555359e+02 3.96575409e+02
      2.74593384e+02 2.80496979e+02 2.86585754e+02 2.80669098e+02
      2.74842499e+02 2.80904877e+02 2.86914154e+02 2.80720459e+02
      4.20630798e+01 7.07888870e+01 5.59473038e+01 7.08643417e+01
      4.15659523e+01 7.00294724e+01 5.63136024e+01 7.11594238e+01
      2.72889343e+02 1.44906509e+02 3.95783687e+00 1.44393997e+02
      2.71810791e+02 1.43459351e+02 4.10169744e+00 1.44535782e+02
      1.84282627e+01 6.45418396e+01 1.12014168e+02 6.48946152e+01
      1.90147686e+01 6.53967590e+01 1.12638588e+02 6.49134827e+01
      1.49988556e+02 1.59138550e+02 1.68421677e+02 1.59275803e+02
      1.50197800e+02 1.59459137e+02 1.68665955e+02 1.59299881e+02
      1.32562088e+02 1.33980515e+02 1.35427795e+02 1.34022842e+02
      1.32624161e+02 1.34078171e+02 1.35503830e+02 1.34032623e+02</_>
    <_>
      5.62133713e+01 1.63888718e+02 1.04484955e+02 1.75022446e+02
      5.78976555e+01 1.68472488e+02 1.06357216e+02 1.72599121e+02
      2.48913623e+03 6.99610046e+02 1.13119638e+00 7.14705505e+02
      2.51300610e+03 6.98333008e+02 1.64496768e+00 6.94437195e+02
      1.69921532e+01 1.51044342e+02 4.34383057e+02 1.46197617e+02
      1.37473269e+01 1.51164520e+02 4.45602325e+02 1.54869812e+02
      7.81227661e+02 8.75807495e+02 9.76673401e+02 8.72595337e+02
      7.77209351e+02 8.77564453e+02 9.83838867e+02 8.80342834e+02
      6.05656433e+02 6.17940552e+02 6.30506104e+02 6.17183350e+02
      6.04632385e+02 6.18511047e+02 6.32370544e+02 6.19216980e+02
      5.91441269e+01 1.01951439e+02 8.10977020e+01 1.04839500e+02
      5.90326691e+01 1.03106041e+02 8.18183365e+01 1.04692970e+02
      3.98626801e+02 2.11059235e+02 6.44868040e+00 2.13685196e+02
      4.00923920e+02 2.11252762e+02 8.03888512e+00 2.10341156e+02
      3.06084175e+01 9.77990341e+01 1.66622070e+02 9.65895386e+01
      2.91769581e+01 9.82413635e+01 1.68773621e+02 9.90873718e+01
      2.23528595e+02 2.36694183e+02 2.49977737e+02 2.36286545e+02
      2.22995483e+02 2.36958344e+02 2.50892838e+02 2.37307220e+02
      1.96858887e+02 1.98847198e+02 2.00861694e+02 1.98729126e+02
      1.96697845e+02 1.98942307e+02 2.01157745e+02 1.99052032e+02</_>
    <_>
      4.65551643e+01 1.31047882e+02 8.27774658e+01 1.33257996e+02
      5.05477715e+01 1.37529602e+02 8.55494690e+01 1.39979553e+02
      1.97589587e+03 5.66839966e+02 1.80835772e+00 5.68911194e+02
      1.97962329e+03 5.45610474e+02 2.41088510e+00 5.48320007e+02
      1.01979961e+01 1.08934921e+02 3.25720673e+02 1.08469559e+02
      9.97184563e+00 1.18040184e+02 3.49659515e+02 1.18340332e+02
      6.02005249e+02 6.72906982e+02 7.51204956e+02 6.72777283e+02
      6.01928772e+02 6.83070801e+02 7.66616394e+02 6.83063416e+02
      4.69619446e+02 4.78437073e+02 4.88165466e+02 4.78425201e+02
      4.69615509e+02 4.81241150e+02 4.92184692e+02 4.81235291e+02
      5.28303337e+01 9.05800858e+01 7.20332565e+01 9.16682358e+01
      5.36697693e+01 9.31197739e+01 7.33718567e+01 9.34172745e+01
      3.55354462e+02 1.90040253e+02 9.46270084e+00 1.90618118e+02
      3.55787842e+02 1.86685272e+02 1.00480204e+01 1.86783463e+02
      2.46478901e+01 8.32558975e+01 1.44253662e+02 8.31165924e+01
      2.45499210e+01 8.67392120e+01 1.49455902e+02 8.67222748e+01
      1.96266739e+02 2.07508041e+02 2.19248779e+02 2.07484146e+02
      1.96250397e+02 2.09060455e+02 2.21476517e+02 2.09058090e+02
      1.73359222e+02 1.74980179e+02 1.76749939e+02 1.74976639e+02
      1.73356812e+02 1.75488663e+02 1.77472626e+02 1.75488403e+02</_>
    <_>
      3.21857414e+01 9.25848007e+01 6.09159050e+01 9.44745178e+01
      3.33017998e+01 9.58293610e+01 6.02805481e+01 9.71380615e+01
      1.41844739e+03 3.97248810e+02 4.20320034e-01 3.99073822e+02
      1.42031641e+03 3.99931976e+02 3.00851345e-01 4.00643707e+02
      6.81466103e+00 8.04547729e+01 2.40783905e+02 8.04762650e+01
      6.95238495e+00 8.07164078e+01 2.41528412e+02 8.05748062e+01
      4.31044006e+02 4.85311523e+02 5.43252380e+02 4.85302185e+02
      4.31078949e+02 4.85898987e+02 5.44121826e+02 4.85836182e+02
      3.36651947e+02 3.43897919e+02 3.51283173e+02 3.43900696e+02
      3.36661865e+02 3.44092834e+02 3.51553101e+02 3.44081055e+02
      4.35733643e+01 7.65134125e+01 6.20154533e+01 7.72498322e+01
      4.41612968e+01 7.80277328e+01 6.17889633e+01 7.83499908e+01
      3.01221466e+02 1.59378571e+02 4.37903595e+00 1.59645294e+02
      3.01348480e+02 1.59886963e+02 3.71369028e+00 1.60037476e+02
      2.05189857e+01 7.16704483e+01 1.24089928e+02 7.16228027e+01
      2.05110722e+01 7.17800293e+01 1.24301163e+02 7.17374649e+01
      1.66067749e+02 1.76214478e+02 1.86439163e+02 1.76210052e+02
      1.66071487e+02 1.76322006e+02 1.86591644e+02 1.76311752e+02
      1.46771820e+02 1.48343109e+02 1.49927658e+02 1.48343475e+02
      1.46773743e+02 1.48385437e+02 1.49985870e+02 1.48383011e+02</_>
    <_>
      5.85393410e+01 1.67386459e+02 1.08488983e+02 1.67928833e+02
      6.93428802e+01 1.77054947e+02 1.10001228e+02 1.73516785e+02
      2.50976270e+03 7.12964722e+02 2.51998329e+00 7.23009460e+02
      2.54009326e+03 7.08005737e+02 2.72492743e+00 6.96124451e+02
      1.37842503e+01 1.43376602e+02 4.22729065e+02 1.39806229e+02
      1.20317554e+01 1.47622711e+02 4.42810913e+02 1.51397949e+02
      7.72386292e+02 8.64702026e+02 9.64558167e+02 8.61780151e+02
      7.68465515e+02 8.70493225e+02 9.77749451e+02 8.73481567e+02
      6.01247803e+02 6.12952820e+02 6.25284546e+02 6.12219238e+02
      6.00217163e+02 6.14636414e+02 6.28751404e+02 6.15377380e+02
      6.06045761e+01 1.02917564e+02 8.21827927e+01 1.03115875e+02
      6.02406006e+01 1.05814583e+02 8.29845810e+01 1.04543381e+02
      4.00585266e+02 2.13212067e+02 1.06693993e+01 2.14951172e+02
      4.03044647e+02 2.12704529e+02 1.09801235e+01 2.10653992e+02
      2.88003883e+01 9.55061264e+01 1.64341034e+02 9.44581680e+01
      2.72991447e+01 9.70611572e+01 1.68224655e+02 9.81669540e+01
      2.22312073e+02 2.35224533e+02 2.48440536e+02 2.34836868e+02
      2.21759384e+02 2.36019943e+02 2.50134277e+02 2.36416351e+02
      1.96157166e+02 1.98057449e+02 2.00040558e+02 1.97940582e+02
      1.95991135e+02 1.98330811e+02 2.00594330e+02 1.98448898e+02</_>
    <_>
      5.74716797e+01 1.71976318e+02 1.08459808e+02 1.70786591e+02
      5.84104462e+01 1.64970276e+02 1.05813286e+02 1.67287277e+02
      2.53261255e+03 7.07422241e+02 9.56088305e-01 6.96569275e+02
      2.50628174e+03 7.10227600e+02 4.05167907e-01 7.21318054e+02
      1.36794968e+01 1.46993286e+02 4.38663177e+02 1.50081253e+02
      1.51258240e+01 1.43874268e+02 4.22360321e+02 1.40631424e+02
      7.65875671e+02 8.66628418e+02 9.72911743e+02 8.69409485e+02
      7.69592896e+02 8.62367004e+02 9.62250183e+02 8.59554810e+02
      5.98208679e+02 6.12343262e+02 6.26292480e+02 6.13051697e+02
      5.99201233e+02 6.11098694e+02 6.23492859e+02 6.10387024e+02
      5.90825958e+01 1.04612244e+02 8.28399582e+01 1.04151901e+02
      5.94580231e+01 1.02366020e+02 8.18514175e+01 1.03170326e+02
      4.02393738e+02 2.12571777e+02 7.00877142e+00 2.10675568e+02
      3.99931549e+02 2.12666412e+02 4.10348606e+00 2.14622009e+02
      2.69125824e+01 9.63542404e+01 1.67315384e+02 9.74923248e+01
      2.84985867e+01 9.53564377e+01 1.64160034e+02 9.42114105e+01
      2.21171677e+02 2.35308640e+02 2.49369980e+02 2.35731766e+02
      2.21768372e+02 2.34774506e+02 2.48004166e+02 2.34350632e+02
      1.95558105e+02 1.97859406e+02 2.00109421e+02 1.97987488e+02
      1.95739120e+02 1.97673340e+02 1.99664261e+02 1.97545166e+02</_>
    <_>
      6.68758926e+01 1.73521301e+02 1.07057320e+02 1.77512802e+02
      6.78685760e+01 1.71356888e+02 1.05829666e+02 1.68174652e+02
      2.48009814e+03 6.94356140e+02 8.57927799e-01 7.08489136e+02
      2.51589844e+03 7.08027405e+02 7.20969617e-01 6.94344604e+02
      1.89389381e+01 1.53951935e+02 4.38483551e+02 1.46973480e+02
      1.29499865e+01 1.45319855e+02 4.34342896e+02 1.52733582e+02
      7.76859985e+02 8.73706482e+02 9.74808960e+02 8.68950562e+02
      7.70397217e+02 8.66803406e+02 9.71596985e+02 8.71643738e+02
      6.01667419e+02 6.14720459e+02 6.27409302e+02 6.13563660e+02
      6.00040344e+02 6.12932983e+02 6.26510925e+02 6.14098877e+02
      6.15983429e+01 1.04761520e+02 8.13699417e+01 1.05974854e+02
      6.20572701e+01 1.04153061e+02 8.13093109e+01 1.02727470e+02
      3.97397736e+02 2.10055725e+02 6.08027029e+00 2.12827469e+02
      4.01187439e+02 2.12799149e+02 5.56163883e+00 2.09798782e+02
      3.07587166e+01 9.85215988e+01 1.67433533e+02 9.69101105e+01
      2.84697342e+01 9.63689499e+01 1.66623886e+02 9.80395279e+01
      2.22871048e+02 2.36396561e+02 2.49743256e+02 2.35801880e+02
      2.22025269e+02 2.35507858e+02 2.49327240e+02 2.36112946e+02
      1.96206390e+02 1.98327103e+02 2.00368866e+02 1.98147614e+02
      1.95951630e+02 1.98044846e+02 2.00224045e+02 1.98225876e+02</_>
    <_>
      6.13539925e+01 1.73690948e+02 1.10755524e+02 1.88786636e+02
      7.01675568e+01 1.72123718e+02 1.11552094e+02 1.79463669e+02
      2.60226221e+03 7.27873840e+02 1.70174098e+00 7.45055481e+02
      2.62506665e+03 7.40190918e+02 1.90554619e+00 7.36907715e+02
      1.72350006e+01 1.55114120e+02 4.50825684e+02 1.53233505e+02
      1.89567261e+01 1.53968536e+02 4.46844299e+02 1.52416992e+02
      7.99440369e+02 9.00795898e+02 1.00730762e+03 8.99081421e+02
      7.97831909e+02 8.97417297e+02 1.00402325e+03 8.98187805e+02
      6.22143921e+02 6.35908142e+02 6.49494690e+02 6.35506592e+02
      6.21658691e+02 6.34916199e+02 6.48570007e+02 6.35210999e+02
      5.99745102e+01 1.04412682e+02 8.30990906e+01 1.08488129e+02
      6.09416237e+01 1.02766815e+02 8.35262299e+01 1.06111320e+02
      4.07113007e+02 2.14812576e+02 8.73213005e+00 2.17476028e+02
      4.08635284e+02 2.16034317e+02 8.96218491e+00 2.16428940e+02
      2.91853771e+01 9.88401489e+01 1.69582260e+02 9.78475189e+01
      2.89700909e+01 9.75588608e+01 1.68626755e+02 9.78811493e+01
      2.25992279e+02 2.39934784e+02 2.53735413e+02 2.39638626e+02
      2.25652222e+02 2.39370834e+02 2.53272446e+02 2.39556839e+02
      1.99436813e+02 2.01635223e+02 2.03774979e+02 2.01554855e+02
      1.99334412e+02 2.01451797e+02 2.03617569e+02 2.01516327e+02</_>
    <_>
      5.75889587e+01 1.67130692e+02 1.07502068e+02 1.66479309e+02
      6.07714272e+01 1.68997955e+02 1.06058418e+02 1.66226166e+02
      2.47176318e+03 6.95204834e+02 9.75550890e-01 6.85729309e+02
      2.45398120e+03 6.90337585e+02 8.83752227e-01 6.96510742e+02
      1.16968241e+01 1.39615143e+02 4.19954712e+02 1.41736023e+02
      1.24011097e+01 1.40893234e+02 4.18219421e+02 1.38962479e+02
      7.46542542e+02 8.41615295e+02 9.43434998e+02 8.43644287e+02
      7.49166870e+02 8.42996033e+02 9.42543518e+02 8.41066040e+02
      5.83216248e+02 5.96091003e+02 6.09237671e+02 5.96608154e+02
      5.83930298e+02 5.96456299e+02 6.09029358e+02 5.95951355e+02
      6.04875526e+01 1.03291695e+02 8.21681137e+01 1.02310402e+02
      6.12600632e+01 1.03484062e+02 8.16061249e+01 1.02964668e+02
      3.97661438e+02 2.10805496e+02 6.64953709e+00 2.09332626e+02
      3.96189148e+02 2.10087143e+02 5.99894571e+00 2.11020966e+02
      2.67678566e+01 9.43643494e+01 1.63890564e+02 9.51690216e+01
      2.78023491e+01 9.48795319e+01 1.63562286e+02 9.41857605e+01
      2.18553879e+02 2.32056992e+02 2.45702927e+02 2.32348862e+02
      2.18951996e+02 2.32260895e+02 2.45591202e+02 2.31986694e+02
      1.93187164e+02 1.95307999e+02 1.97451538e+02 1.95395630e+02
      1.93309021e+02 1.95371460e+02 1.97419220e+02 1.95286423e+02</_>
    <_>
      5.76411362e+01 1.68390671e+02 1.08097801e+02 1.65380951e+02
      5.84206657e+01 1.68053909e+02 1.06865356e+02 1.67427353e+02
      2.49882837e+03 6.98687744e+02 8.45004976e-01 6.89441650e+02
      2.47849341e+03 7.01167297e+02 4.32515472e-01 7.08335022e+02
      1.18556519e+01 1.42017670e+02 4.26661926e+02 1.43609924e+02
      1.20527782e+01 1.39865097e+02 4.17521790e+02 1.38277954e+02
      7.52994995e+02 8.50480713e+02 9.53886658e+02 8.52168518e+02
      7.55207336e+02 8.48498779e+02 9.48398804e+02 8.46836792e+02
      5.88551880e+02 6.01953796e+02 6.15366699e+02 6.02387817e+02
      5.89155457e+02 6.01415466e+02 6.13978088e+02 6.00984619e+02
      6.05455513e+01 1.03682709e+02 8.26716232e+01 1.02527657e+02
      5.99284706e+01 1.03255135e+02 8.20582047e+01 1.03411591e+02
      3.99850372e+02 2.11357620e+02 6.28033113e+00 2.09992172e+02
      3.98212280e+02 2.11748413e+02 4.34677696e+00 2.12856888e+02
      2.66240883e+01 9.50874634e+01 1.65167435e+02 9.58074799e+01
      2.75978374e+01 9.45749359e+01 1.63425568e+02 9.38985214e+01
      2.19466690e+02 2.33250046e+02 2.47042068e+02 2.33508713e+02
      2.19826950e+02 2.33010620e+02 2.46339233e+02 2.32758102e+02
      1.94056229e+02 1.96254333e+02 1.98432358e+02 1.96331665e+02
      1.94164963e+02 1.96174561e+02 1.98210510e+02 1.96098022e+02</_>
    <_>
      6.25877304e+01 1.79252289e+02 1.13150269e+02 1.84163147e+02
      5.95169106e+01 1.73451126e+02 1.12337524e+02 1.74352600e+02
      2.60353271e+03 7.25687012e+02 2.00268197e+00 7.39898438e+02
      2.62803540e+03 7.44274902e+02 1.92406368e+00 7.33621338e+02
      1.48645725e+01 1.55818115e+02 4.54979828e+02 1.51839188e+02
      1.32917643e+01 1.48308624e+02 4.44409668e+02 1.51484299e+02
      8.03273865e+02 9.05976685e+02 1.01280609e+03 9.02432312e+02
      7.98722839e+02 8.97676697e+02 1.00542987e+03 9.00993652e+02
      6.24697083e+02 6.38761658e+02 6.52316650e+02 6.37858948e+02
      6.23453491e+02 6.36489319e+02 6.50335327e+02 6.37366333e+02
      6.29207611e+01 1.06943085e+02 8.35985947e+01 1.07675804e+02
      6.02944908e+01 1.04486320e+02 8.37843933e+01 1.05297394e+02
      4.08104279e+02 2.15372375e+02 9.07573318e+00 2.17327576e+02
      4.09921692e+02 2.17877686e+02 8.91716194e+00 2.16530273e+02
      2.95908184e+01 9.95616455e+01 1.70526077e+02 9.83714066e+01
      2.80565300e+01 9.70466537e+01 1.68444763e+02 9.81052551e+01
      2.26624496e+02 2.40700790e+02 2.54522385e+02 2.40252075e+02
      2.26009644e+02 2.39599747e+02 2.53574417e+02 2.40026947e+02
      1.99896729e+02 2.02138382e+02 2.04276810e+02 2.02001572e+02
      1.99705673e+02 2.01780777e+02 2.03961609e+02 2.01914536e+02</_>
    <_>
      6.81658859e+01 1.99696365e+02 1.27864952e+02 2.02521988e+02
      6.94132919e+01 1.98112183e+02 1.25083740e+02 2.01242783e+02
      2.96975317e+03 8.29089905e+02 9.81914461e-01 8.28093872e+02
      2.96364648e+03 8.34815063e+02 5.23626924e-01 8.39504944e+02
      1.49111385e+01 1.72826157e+02 5.13834717e+02 1.73260605e+02
      1.49663916e+01 1.69988312e+02 5.05046143e+02 1.69149277e+02
      9.07312988e+02 1.02368018e+03 1.14678687e+03 1.02432043e+03
      9.08243408e+02 1.02071362e+03 1.14125049e+03 1.01994012e+03
      7.07471802e+02 7.23386658e+02 7.39251099e+02 7.23565002e+02
      7.07731018e+02 7.22571594e+02 7.37818115e+02 7.22378235e+02
      6.51077194e+01 1.12627800e+02 8.97446060e+01 1.13583015e+02
      6.59397964e+01 1.12353058e+02 8.90983963e+01 1.13011078e+02
      4.35858154e+02 2.30265076e+02 6.73860264e+00 2.30176788e+02
      4.35477142e+02 2.31098404e+02 4.69783211e+00 2.31679977e+02
      3.04790001e+01 1.05087296e+02 1.81323151e+02 1.05278214e+02
      3.08053169e+01 1.04265663e+02 1.79772552e+02 1.03982567e+02
      2.40961731e+02 2.55949921e+02 2.70907196e+02 2.56034912e+02
      2.41091034e+02 2.55583374e+02 2.70253906e+02 2.55484467e+02
      2.12782928e+02 2.15162979e+02 2.17510040e+02 2.15190353e+02
      2.12822861e+02 2.15042679e+02 2.17299423e+02 2.15013367e+02</_>
    <_>
      7.53386917e+01 2.09614624e+02 1.37127457e+02 2.13449936e+02
      7.17991714e+01 2.17364014e+02 1.39864212e+02 2.22624954e+02
      3.20876709e+03 9.07066223e+02 1.48550963e+00 9.07688782e+02
      3.19881567e+03 8.90060974e+02 3.12348247e+00 8.96744263e+02
      1.61066132e+01 1.80540375e+02 5.38697388e+02 1.79757553e+02
      1.59665861e+01 1.87827713e+02 5.57391174e+02 1.87166840e+02
      9.76899170e+02 1.09639978e+03 1.22569653e+03 1.09616455e+03
      9.76905273e+02 1.10438428e+03 1.23776819e+03 1.10417188e+03
      7.62211853e+02 7.77710022e+02 7.94003662e+02 7.77668518e+02
      7.62191589e+02 7.79901855e+02 7.97165039e+02 7.79890991e+02
      6.78414536e+01 1.15313873e+02 9.28445511e+01 1.16125870e+02
      6.58087387e+01 1.17114372e+02 9.34246063e+01 1.18775574e+02
      4.53008148e+02 2.40641495e+02 7.67915154e+00 2.40950851e+02
      4.52361572e+02 2.38449738e+02 1.16118946e+01 2.39290115e+02
      3.12848301e+01 1.07246140e+02 1.85594193e+02 1.07158516e+02
      3.13756580e+01 1.09426895e+02 1.88748978e+02 1.09251335e+02
      2.50003998e+02 2.64858032e+02 2.80047882e+02 2.64834747e+02
      2.50004517e+02 2.65817352e+02 2.81418060e+02 2.65796509e+02
      2.20847046e+02 2.23081345e+02 2.25406647e+02 2.23075333e+02
      2.20843124e+02 2.23393967e+02 2.25853638e+02 2.23393631e+02</_>
    <_>
      6.51019058e+01 1.84203766e+02 1.12975754e+02 1.80525711e+02
      7.13784637e+01 1.85691452e+02 1.13998840e+02 1.79725067e+02
      2.65881836e+03 7.56261780e+02 1.80718887e+00 7.41688477e+02
      2.64219775e+03 7.40902954e+02 1.62504530e+00 7.43686218e+02
      1.47824917e+01 1.52470413e+02 4.53285248e+02 1.54339447e+02
      1.44057293e+01 1.55772141e+02 4.58590485e+02 1.54784515e+02
      8.10463745e+02 9.11501343e+02 1.02065234e+03 9.13720947e+02
      8.13084106e+02 9.15785217e+02 1.02410986e+03 9.14006592e+02
      6.31706604e+02 6.45187927e+02 6.59203064e+02 6.45755432e+02
      6.32459961e+02 6.46354492e+02 6.60100586e+02 6.45842224e+02
      6.25804024e+01 1.07822540e+02 8.40514832e+01 1.06253082e+02
      6.50487595e+01 1.08677742e+02 8.43373260e+01 1.06634529e+02
      4.12189545e+02 2.19507217e+02 8.95212650e+00 2.17587311e+02
      4.11045959e+02 2.17606750e+02 8.66714382e+00 2.17843491e+02
      2.87388687e+01 9.82403488e+01 1.70151810e+02 9.91913605e+01
      2.97722530e+01 9.97498779e+01 1.71249100e+02 9.91836395e+01
      2.27648682e+02 2.41434128e+02 2.55508728e+02 2.41763367e+02
      2.28065414e+02 2.42051529e+02 2.55964935e+02 2.41786789e+02
      2.01027435e+02 2.03161499e+02 2.05360107e+02 2.03258072e+02
      2.01157135e+02 2.03356323e+02 2.05505920e+02 2.03269058e+02</_>
    <_>
      6.83113022e+01 2.06237289e+02 1.25895477e+02 2.00863068e+02
      6.93732834e+01 1.92933884e+02 1.27097511e+02 2.00162720e+02
      2.97660986e+03 8.46768860e+02 2.92568254e+00 8.19896484e+02
      2.91469238e+03 8.13108032e+02 2.68218136e+00 8.41093262e+02
      1.49472675e+01 1.65831543e+02 5.01749969e+02 1.71813812e+02
      1.69203129e+01 1.72339188e+02 5.03501770e+02 1.67296829e+02
      8.92620300e+02 1.00636426e+03 1.12953918e+03 1.01196637e+03
      8.99946472e+02 1.01216351e+03 1.12994958e+03 1.00677344e+03
      6.98122070e+02 7.13584717e+02 7.29672729e+02 7.14999695e+02
      7.00084229e+02 7.15011047e+02 7.29704163e+02 7.13620667e+02
      6.55931015e+01 1.13502357e+02 8.86315231e+01 1.12664871e+02
      6.46928101e+01 1.10437920e+02 8.96273041e+01 1.12406342e+02
      4.36041382e+02 2.32054550e+02 1.14944439e+01 2.28768600e+02
      4.31690521e+02 2.27955734e+02 1.12707491e+01 2.31219437e+02
      2.86394291e+01 1.02563599e+02 1.79017914e+02 1.04457359e+02
      3.12509270e+01 1.04601608e+02 1.79218765e+02 1.02756332e+02
      2.38906815e+02 2.53701523e+02 2.68789886e+02 2.54391418e+02
      2.39871750e+02 2.54400726e+02 2.68807739e+02 2.53722031e+02
      2.11324219e+02 2.13655640e+02 2.16050690e+02 2.13862335e+02
      2.11614990e+02 2.13859207e+02 2.16047272e+02 2.13654282e+02</_>
    <_>
      6.84384079e+01 2.01273087e+02 1.24760330e+02 2.02379120e+02
      7.08959961e+01 2.04689041e+02 1.25242584e+02 1.98474060e+02
      2.95423828e+03 8.29305115e+02 7.67479122e-01 8.42273560e+02
      2.99314575e+03 8.42290649e+02 7.36259043e-01 8.25233704e+02
      1.72519283e+01 1.75772186e+02 5.13387268e+02 1.71741272e+02
      1.49287138e+01 1.72184128e+02 5.15335571e+02 1.76898529e+02
      9.17226746e+02 1.03106091e+03 1.15150452e+03 1.02760291e+03
      9.12463745e+02 1.02830737e+03 1.15273230e+03 1.03198792e+03
      7.12724426e+02 7.27863708e+02 7.42998535e+02 7.26989807e+02
      7.11483093e+02 7.27199036e+02 7.43316589e+02 7.28099060e+02
      6.58651962e+01 1.13280830e+02 8.90452042e+01 1.13692421e+02
      6.68784637e+01 1.14311974e+02 8.93309326e+01 1.12527206e+02
      4.34738892e+02 2.30271027e+02 5.79572392e+00 2.32049225e+02
      4.37563263e+02 2.32088531e+02 5.93690491e+00 2.29689682e+02
      3.21041527e+01 1.05812042e+02 1.81190613e+02 1.04732651e+02
      3.04929943e+01 1.04890274e+02 1.81524796e+02 1.06110199e+02
      2.42205002e+02 2.56815552e+02 2.71424774e+02 2.56412506e+02
      2.41619568e+02 2.56499237e+02 2.71565033e+02 2.56925659e+02
      2.13540695e+02 2.15799850e+02 2.18036667e+02 2.15677689e+02
      2.13365646e+02 2.15707977e+02 2.18081970e+02 2.15833542e+02</_>
    <_>
      6.29685516e+01 1.88016769e+02 1.15518044e+02 1.84284744e+02
      6.43029022e+01 1.86056778e+02 1.15500999e+02 1.81987823e+02
      2.73794849e+03 7.68017944e+02 7.91886806e-01 7.61821289e+02
      2.73121924e+03 7.70114136e+02 5.17599821e-01 7.70229492e+02
      1.36789036e+01 1.59320526e+02 4.74283112e+02 1.60656479e+02
      1.41817827e+01 1.57803116e+02 4.67758606e+02 1.57073425e+02
      8.38020142e+02 9.45079468e+02 1.05875842e+03 9.46138733e+02
      8.39268921e+02 9.43174744e+02 1.05446680e+03 9.42354797e+02
      6.53160522e+02 6.67776672e+02 6.82426819e+02 6.68032654e+02
      6.53498352e+02 6.67229614e+02 6.81297302e+02 6.67002380e+02
      6.30282135e+01 1.09393593e+02 8.58015518e+01 1.08454872e+02
      6.38498726e+01 1.08962250e+02 8.57527237e+01 1.07716507e+02
      4.18579865e+02 2.21654266e+02 6.09982347e+00 2.20754639e+02
      4.18041809e+02 2.21961807e+02 4.77399349e+00 2.21974091e+02
      2.94764557e+01 1.00954842e+02 1.74215149e+02 1.01366539e+02
      2.99113731e+01 1.00443840e+02 1.73001129e+02 1.00224915e+02
      2.31582657e+02 2.45932755e+02 2.60305054e+02 2.46070404e+02
      2.31754181e+02 2.45682098e+02 2.59774017e+02 2.45575974e+02
      2.04453308e+02 2.06728668e+02 2.08984222e+02 2.06768326e+02
      2.04506302e+02 2.06643509e+02 2.08810501e+02 2.06608215e+02</_>
    <_>
      1.45532646e+01 1.58223095e+01 8.13018799e+00 1.08044062e+01
      5.14646673e+00 1.14543676e+01 9.41626167e+00 1.48327818e+01
      1.67137268e+02 4.89170876e+01 4.96564478e-01 4.25712090e+01
      1.53626511e+02 4.34485817e+01 6.21152699e-01 4.72268867e+01
      1.25135732e+00 8.85527325e+00 2.69380093e+01 9.71582317e+00
      1.32329381e+00 9.46359444e+00 2.66198215e+01 8.86368942e+00
      4.71544571e+01 5.33186569e+01 6.01329880e+01 5.40969124e+01
      4.81165810e+01 5.38680420e+01 5.98647728e+01 5.31973076e+01
      3.69816170e+01 3.78466568e+01 3.87668076e+01 3.80328445e+01
      3.72329178e+01 3.79724236e+01 3.86893539e+01 3.77992554e+01
      2.54580021e+01 2.92519913e+01 2.07041740e+01 2.53083591e+01
      1.64335384e+01 2.61253777e+01 2.13823376e+01 2.67623177e+01
      1.02267189e+02 5.49346275e+01 4.61458158e+00 5.17575493e+01
      9.87638550e+01 5.23369446e+01 5.33717346e+00 5.39739532e+01
      6.69357157e+00 2.33019085e+01 4.14343987e+01 2.46336594e+01
      7.93935061e+00 2.43098736e+01 4.11738930e+01 2.33074074e+01
      5.48973160e+01 5.83949203e+01 6.20258293e+01 5.88195038e+01
      5.54607849e+01 5.86922798e+01 6.18806610e+01 5.83211441e+01
      4.86436501e+01 4.92106972e+01 4.98055077e+01 4.93301125e+01
      4.88072243e+01 4.92899933e+01 4.97539139e+01 4.91781769e+01</_>
    <_>
      4.36461163e+00 1.17947302e+01 9.17434311e+00 1.39079924e+01
      7.06410933e+00 1.12594404e+01 9.05956078e+00 1.05166979e+01
      1.56871643e+02 4.30241432e+01 6.90116465e-01 4.40360985e+01
      1.59194275e+02 4.70362396e+01 6.18313193e-01 4.63680382e+01
      1.57539034e+00 9.73967361e+00 2.76713009e+01 9.37580585e+00
      1.08836794e+00 7.59904480e+00 2.33145370e+01 7.97014666e+00
      4.57139893e+01 5.24243622e+01 5.90205650e+01 5.22695847e+01
      4.54918137e+01 5.04088287e+01 5.62186546e+01 5.05642700e+01
      3.57825966e+01 3.68172760e+01 3.77079468e+01 3.67874527e+01
      3.57400627e+01 3.62767258e+01 3.69768524e+01 3.63067055e+01
      1.55260448e+01 2.67931080e+01 2.20162201e+01 2.75235996e+01
      1.85358448e+01 2.48654327e+01 2.14340115e+01 2.45999870e+01
      9.99605713e+01 5.20998383e+01 4.78527117e+00 5.21463089e+01
      1.00133499e+02 5.40580826e+01 4.69725275e+00 5.41036415e+01
      7.70273876e+00 2.36957169e+01 4.16199074e+01 2.38164310e+01
      6.68513012e+00 2.16023331e+01 3.83439751e+01 2.14742031e+01
      5.37280235e+01 5.76033287e+01 6.12301521e+01 5.76675110e+01
      5.38170967e+01 5.66684227e+01 5.98048286e+01 5.66041031e+01
      4.77027016e+01 4.83959007e+01 4.90005951e+01 4.84178581e+01
      4.77335968e+01 4.80895996e+01 4.85355072e+01 4.80676918e+01</_>
    <_>
      5.58173561e+00 1.58415318e+01 1.24460993e+01 1.47069025e+01
      6.50612736e+00 1.54679489e+01 1.35038052e+01 1.54825201e+01
      2.11955872e+02 5.96949463e+01 9.55358326e-01 6.43861008e+01
      2.24638901e+02 6.54302521e+01 1.23326421e+00 6.07178726e+01
      1.54109859e+00 1.20553713e+01 3.49315147e+01 1.17192602e+01
      2.50890636e+00 1.15361652e+01 3.44516754e+01 1.19180269e+01
      6.27697639e+01 7.07341003e+01 7.88860855e+01 6.99156113e+01
      6.17262611e+01 6.97019119e+01 7.85643311e+01 7.05188980e+01
      4.90967522e+01 5.01608849e+01 5.11527481e+01 4.99343796e+01
      4.87823219e+01 4.98775482e+01 5.10710106e+01 5.01033249e+01
      1.76598415e+01 2.94430752e+01 2.50630989e+01 3.00328732e+01
      1.80846214e+01 3.03348961e+01 2.51936913e+01 2.92045498e+01
      1.15774017e+02 6.08069725e+01 6.42675018e+00 6.30148621e+01
      1.18521271e+02 6.34352188e+01 7.45188379e+00 6.12801094e+01
      8.46494770e+00 2.72800083e+01 4.70416679e+01 2.59754753e+01
      1.10067177e+01 2.56922817e+01 4.66158600e+01 2.69598637e+01
      6.33269272e+01 6.72402191e+01 7.09954605e+01 6.67586823e+01
      6.26546135e+01 6.66456146e+01 7.08299255e+01 6.71191254e+01
      5.60325623e+01 5.66373596e+01 5.71892929e+01 5.64921684e+01
      5.58283424e+01 5.64567070e+01 5.71382408e+01 5.66006241e+01</_>
    <_>
      4.37023640e+00 1.06841860e+01 6.59641266e+00 1.32211523e+01
      5.67608595e+00 1.17487459e+01 6.96438742e+00 1.01426744e+01
      1.39665833e+02 3.91067581e+01 2.69814163e-01 4.24117355e+01
      1.46434036e+02 4.14454613e+01 2.30865970e-01 3.90255241e+01
      1.21441066e+00 8.96139050e+00 2.48456821e+01 8.12278271e+00
      8.25196862e-01 7.93782711e+00 2.43742828e+01 8.81367016e+00
      4.41759872e+01 4.96761780e+01 5.52092438e+01 4.89232979e+01
      4.31892166e+01 4.86540451e+01 5.47846794e+01 4.93894348e+01
      3.41236229e+01 3.48666878e+01 3.55358734e+01 3.46763039e+01
      3.38594894e+01 3.45910416e+01 3.54115334e+01 3.47786903e+01
      1.49242611e+01 2.52164974e+01 1.95025368e+01 2.54569664e+01
      1.55014267e+01 2.42248726e+01 2.00021896e+01 2.37760620e+01
      9.42546921e+01 4.96787834e+01 3.46134758e+00 5.15803108e+01
      9.65103607e+01 5.12008743e+01 3.11061788e+00 4.95129471e+01
      7.54449749e+00 2.36827183e+01 3.98076515e+01 2.25394344e+01
      6.04239607e+00 2.23169365e+01 3.93896217e+01 2.33885193e+01
      5.31186142e+01 5.63462906e+01 5.94151917e+01 5.59232216e+01
      5.25324707e+01 5.57635498e+01 5.91750488e+01 5.61730118e+01
      4.67133636e+01 4.72215004e+01 4.76744423e+01 4.70938835e+01
      4.65345192e+01 4.70340652e+01 4.75880280e+01 4.71596107e+01</_>
    <_>
      5.37406540e+00 1.59650536e+01 1.03462601e+01 1.61541233e+01
      5.70602942e+00 1.36085758e+01 9.50385475e+00 1.22402220e+01
      1.84764908e+02 4.86555710e+01 1.16269934e+00 5.11918182e+01
      1.92461060e+02 5.93802643e+01 1.56289625e+00 5.57881203e+01
      2.26207495e+00 1.41936531e+01 3.83367043e+01 1.36659155e+01
      2.00393081e+00 1.04069328e+01 3.00063725e+01 1.12663994e+01
      5.98082504e+01 6.88588715e+01 7.73135986e+01 6.82724838e+01
      5.89624634e+01 6.45066071e+01 7.16936722e+01 6.51912766e+01
      4.59532433e+01 4.74193115e+01 4.85606461e+01 4.72651749e+01
      4.57295799e+01 4.62225075e+01 4.70752525e+01 4.63881874e+01
      1.60142212e+01 3.03455372e+01 2.25998726e+01 3.02970428e+01
      1.67101231e+01 2.77842064e+01 2.16056786e+01 2.59609680e+01
      1.08157585e+02 5.54452629e+01 7.24061728e+00 5.63621674e+01
      1.10190605e+02 6.08205872e+01 8.28026199e+00 5.87193909e+01
      9.58998871e+00 2.96008987e+01 4.92889977e+01 2.89330769e+01
      8.62696362e+00 2.46434135e+01 4.31833191e+01 2.56040783e+01
      6.16832771e+01 6.62375717e+01 7.02186356e+01 6.59713211e+01
      6.12719040e+01 6.40890961e+01 6.75705338e+01 6.44058685e+01
      5.41541710e+01 5.50162582e+01 5.56796684e+01 5.49331894e+01
      5.40315208e+01 5.43200302e+01 5.48161011e+01 5.44104881e+01</_>
    <_>
      1.01304922e+01 1.56946507e+01 1.24350309e+01 1.76198730e+01
      1.00123444e+01 1.96009808e+01 1.20520620e+01 1.60539856e+01
      2.24225998e+02 6.49243698e+01 8.21285069e-01 7.37877579e+01
      2.50240021e+02 7.20493698e+01 7.30869651e-01 6.10422058e+01
      1.46440220e+00 1.26326494e+01 3.67585297e+01 1.26112471e+01
      3.34819269e+00 1.41309395e+01 4.04401779e+01 1.41636772e+01
      6.97446823e+01 7.75603180e+01 8.60310669e+01 7.66296616e+01
      6.85231247e+01 7.81782455e+01 8.83926697e+01 7.91532974e+01
      5.42978134e+01 5.52132568e+01 5.61889534e+01 5.49548645e+01
      5.39338417e+01 5.53814507e+01 5.68036995e+01 5.56457176e+01
      2.05804329e+01 2.94977207e+01 2.55599136e+01 3.13733978e+01
      2.16766376e+01 3.35789833e+01 2.55599976e+01 2.97102051e+01
      1.19377365e+02 6.40515671e+01 6.42396545e+00 6.68054733e+01
      1.24135513e+02 6.56681671e+01 5.76787376e+00 6.20652122e+01
      8.77707863e+00 2.82039566e+01 4.83133469e+01 2.68185101e+01
      1.21907129e+01 2.83235798e+01 5.06606979e+01 2.98953552e+01
      6.67668991e+01 7.04141159e+01 7.41595612e+01 6.99361496e+01
      6.60670624e+01 7.06296692e+01 7.51697845e+01 7.11382294e+01
      5.89254417e+01 5.94207954e+01 5.99453239e+01 5.92812347e+01
      5.87248001e+01 5.95107498e+01 6.02735748e+01 5.96546745e+01</_>
    <_>
      8.93978596e+00 1.44773407e+01 1.05741158e+01 1.43506565e+01
      1.07176762e+01 1.73866215e+01 1.17583828e+01 1.80022488e+01
      2.02160263e+02 5.99328270e+01 7.68177688e-01 6.11732903e+01
      2.05707489e+02 5.57106361e+01 1.36750889e+00 5.47374229e+01
      1.18312800e+00 1.02002029e+01 3.04564342e+01 1.01577425e+01
      1.53934741e+00 1.31675634e+01 3.80607719e+01 1.30907135e+01
      6.06590309e+01 6.66552963e+01 7.39010696e+01 6.64938660e+01
      6.04765396e+01 6.98441544e+01 7.89386444e+01 6.99729385e+01
      4.72942238e+01 4.78542442e+01 4.86759338e+01 4.78104668e+01
      4.72360191e+01 4.87422295e+01 5.00079880e+01 4.87822304e+01
      1.99612865e+01 2.77744503e+01 2.36588421e+01 2.79592457e+01
      2.18255138e+01 3.17368584e+01 2.42622643e+01 3.17985668e+01
      1.13322784e+02 6.12903023e+01 5.45384455e+00 6.19100380e+01
      1.13964531e+02 5.89486961e+01 7.10646105e+00 5.86074181e+01
      7.77716160e+00 2.51926765e+01 4.38951378e+01 2.48775902e+01
      8.11568546e+00 2.84430332e+01 4.91334457e+01 2.86865082e+01
      6.22602425e+01 6.52523041e+01 6.86946945e+01 6.51437607e+01
      6.21159439e+01 6.67783051e+01 7.10194168e+01 6.68742905e+01
      5.49871635e+01 5.53076515e+01 5.57763100e+01 5.52760048e+01
      5.49437294e+01 5.58170013e+01 5.65417404e+01 5.58467979e+01</_>
    <_>
      3.01611748e+01 2.68154411e+01 1.67135258e+01 2.20019188e+01
      9.35488605e+00 2.21503448e+01 1.77226582e+01 3.48617821e+01
      2.89396790e+02 8.06691513e+01 1.07901275e+00 8.81419067e+01
      2.93794189e+02 8.03733597e+01 2.74075460e+00 8.50993805e+01
      5.06149006e+00 1.87072582e+01 4.80131645e+01 1.60034523e+01
      2.40995312e+00 1.94297714e+01 5.60339584e+01 2.23616123e+01
      9.15312729e+01 1.00662971e+02 1.10666069e+02 9.87707672e+01
      8.91285858e+01 1.02289360e+02 1.15790413e+02 1.03956970e+02
      6.99207764e+01 7.08565063e+01 7.19321289e+01 7.04049149e+01
      6.93105545e+01 7.13663788e+01 7.32857513e+01 7.17858353e+01
      3.59826355e+01 3.48132973e+01 2.81319065e+01 3.58251877e+01
      2.19838619e+01 3.56483612e+01 2.84042492e+01 4.11488152e+01
      1.34898804e+02 7.08256302e+01 6.69758034e+00 7.40141525e+01
      1.36087448e+02 7.04732361e+01 1.09772491e+01 7.10283432e+01
      1.60936260e+01 3.27308769e+01 5.48615570e+01 3.12432480e+01
      1.02608099e+01 3.43529396e+01 5.88928185e+01 3.49993706e+01
      7.58643646e+01 7.97344513e+01 8.37963104e+01 7.92292938e+01
      7.52547684e+01 8.05879593e+01 8.56392670e+01 8.09533997e+01
      6.66070786e+01 6.70794983e+01 6.76285858e+01 6.69324875e+01
      6.64137955e+01 6.73757935e+01 6.82428360e+01 6.75027161e+01</_>
    <_>
      1.48306799e+01 2.95267792e+01 1.85938396e+01 2.33239422e+01
      1.66872540e+01 2.14876137e+01 1.74002533e+01 2.24385052e+01
      2.92909241e+02 7.90922394e+01 4.57383823e+00 7.49115067e+01
      2.89147888e+02 9.13298416e+01 2.29774499e+00 8.85197067e+01
      1.89310622e+00 1.97844391e+01 5.72467384e+01 2.01614532e+01
      2.05826449e+00 1.32927561e+01 4.00764542e+01 1.28174362e+01
      8.48413162e+01 9.93453674e+01 1.12935829e+02 9.96065979e+01
      8.50879593e+01 9.23368454e+01 1.02077713e+02 9.22105103e+01
      6.64977112e+01 6.89576035e+01 7.08964920e+01 6.90089340e+01
      6.65556030e+01 6.70232925e+01 6.80668335e+01 6.69910355e+01
      2.58696651e+01 3.92688217e+01 2.99235611e+01 3.61276245e+01
      2.66565113e+01 3.34949417e+01 2.91792431e+01 3.31671257e+01
      1.36248795e+02 6.95841599e+01 1.37832317e+01 6.79183121e+01
      1.35164215e+02 7.51665573e+01 1.01154547e+01 7.48309326e+01
      8.82181931e+00 3.44350433e+01 5.97692909e+01 3.49264984e+01
      9.06551933e+00 2.81804810e+01 5.01920433e+01 2.81556206e+01
      7.35948868e+01 7.96146622e+01 8.48862839e+01 7.97321014e+01
      7.37064209e+01 7.67865753e+01 8.07435150e+01 7.67479324e+01
      6.52045975e+01 6.63951187e+01 6.73207397e+01 6.64221191e+01
      6.52347641e+01 6.54639816e+01 6.59713593e+01 6.54484100e+01</_>
    <_>
      2.43127422e+01 5.01434059e+01 3.08600903e+01 4.93095245e+01
      1.88262577e+01 4.24978180e+01 3.34316101e+01 4.34886284e+01
      6.11596558e+02 1.72550812e+02 2.20949912e+00 1.57176086e+02
      5.82548950e+02 1.72274689e+02 2.95630479e+00 1.83596390e+02
      6.15427732e+00 3.74798546e+01 1.10601547e+02 4.29643784e+01
      9.68665791e+00 3.56614838e+01 9.22043610e+01 3.09190617e+01
      1.75855835e+02 2.02882416e+02 2.30837753e+02 2.07113785e+02
      1.81357544e+02 1.98675262e+02 2.18250229e+02 1.94687561e+02
      1.38007233e+02 1.42378128e+02 1.46446472e+02 1.43428406e+02
      1.39456879e+02 1.41070480e+02 1.43088348e+02 1.40048920e+02
      3.07365875e+01 5.43029709e+01 4.06789551e+01 5.26605339e+01
      3.14504128e+01 4.76905022e+01 4.04377708e+01 4.69861641e+01
      1.95861160e+02 1.02996750e+02 9.23673153e+00 9.84741364e+01
      1.91401260e+02 1.03141838e+02 1.07568502e+01 1.06161324e+02
      1.64573669e+01 4.68732529e+01 8.31456528e+01 4.95336571e+01
      2.33384686e+01 4.40757904e+01 7.52798462e+01 4.17733192e+01
      1.05382790e+02 1.13325821e+02 1.20915123e+02 1.14312828e+02
      1.06727303e+02 1.11817467e+02 1.17393677e+02 1.10891365e+02
      9.35896530e+01 9.50776520e+01 9.64187775e+01 9.53763885e+01
      9.40052261e+01 9.45509186e+01 9.52549744e+01 9.42610321e+01</_>
    <_>
      5.23028088e+00 1.24505739e+01 8.84439373e+00 1.18559999e+01
      4.01636839e+00 1.14889174e+01 7.54275942e+00 1.29020967e+01
      1.67607071e+02 4.69795952e+01 7.06888676e-01 4.36005516e+01
      1.58222595e+02 4.56832199e+01 3.02614838e-01 4.99184799e+01
      1.47178614e+00 9.56317234e+00 2.83675060e+01 1.02545309e+01
      1.42520022e+00 9.27450275e+00 2.60281353e+01 8.48883438e+00
      4.79438210e+01 5.46401443e+01 6.17795334e+01 5.54332008e+01
      4.90060959e+01 5.45662651e+01 6.04571762e+01 5.37361374e+01
      3.77215958e+01 3.87049408e+01 3.96948891e+01 3.89147606e+01
      3.80173378e+01 3.86877441e+01 3.93672295e+01 3.84734573e+01
      1.49977255e+01 2.59769936e+01 2.13626595e+01 2.54575634e+01
      1.48525372e+01 2.56134300e+01 2.06127357e+01 2.67037964e+01
      1.02740021e+02 5.39775772e+01 5.25013590e+00 5.19614525e+01
      1.00024788e+02 5.34303093e+01 3.56648540e+00 5.57458191e+01
      7.78604937e+00 2.37898102e+01 4.23161926e+01 2.50417595e+01
      8.13508511e+00 2.39531746e+01 4.07075157e+01 2.26312084e+01
      5.52655602e+01 5.90202599e+01 6.27992706e+01 5.94936295e+01
      5.59402008e+01 5.90506744e+01 6.21626511e+01 5.85654984e+01
      4.90950203e+01 4.97309723e+01 5.03683090e+01 4.98753929e+01
      4.93002281e+01 4.97355652e+01 5.01691933e+01 4.95894394e+01</_>
    <_>
      6.94559669e+00 1.47822380e+01 9.27428818e+00 1.19782724e+01
      8.43641663e+00 1.72528267e+01 9.84961033e+00 1.66636391e+01
      1.68183243e+02 5.22822990e+01 8.21995795e-01 5.45632706e+01
      1.80024963e+02 5.07074585e+01 1.18776512e+00 4.29996529e+01
      1.23653579e+00 8.00193977e+00 2.39396000e+01 8.01977348e+00
      2.24786019e+00 1.13848848e+01 3.21936569e+01 1.14666262e+01
      5.00398636e+01 5.45533142e+01 6.01977005e+01 5.40259209e+01
      4.92821198e+01 5.74065285e+01 6.53791733e+01 5.80622559e+01
      3.90506668e+01 3.94034576e+01 3.99908752e+01 3.92447433e+01
      3.88181534e+01 4.01739349e+01 4.13328362e+01 4.03493195e+01
      1.83079090e+01 2.67069359e+01 2.15441875e+01 2.48253689e+01
      1.98119545e+01 3.02070580e+01 2.29124718e+01 2.68635750e+01
      1.03271866e+02 5.71536407e+01 5.80529118e+00 5.76736336e+01
      1.05377007e+02 5.46192741e+01 6.99391651e+00 5.18347549e+01
      7.81796074e+00 2.20782928e+01 3.88464661e+01 2.13998508e+01
      9.99936581e+00 2.53105888e+01 4.49421692e+01 2.64779701e+01
      5.65012131e+01 5.90013885e+01 6.19886627e+01 5.87043915e+01
      5.60268250e+01 6.05001526e+01 6.46043701e+01 6.08769150e+01
      4.99568214e+01 5.01802902e+01 5.05552444e+01 5.00847054e+01
      4.98137360e+01 5.06784325e+01 5.14044189e+01 5.07853966e+01</_>
    <_>
      2.42493935e+01 1.93417931e+01 1.36854496e+01 1.92377796e+01
      9.16811657e+00 2.68658943e+01 1.39297256e+01 2.45103931e+01
      2.49683273e+02 7.35477829e+01 6.71439767e-01 7.77761841e+01
      2.66907501e+02 7.68396149e+01 1.06113517e+00 6.75756607e+01
      2.38911200e+00 1.42027321e+01 4.01604118e+01 1.30825453e+01
      1.93433440e+00 1.55836983e+01 4.69735603e+01 1.72579727e+01
      7.83578186e+01 8.64005051e+01 9.55212784e+01 8.52945862e+01
      7.67334137e+01 8.81329956e+01 9.99789886e+01 8.94728928e+01
      6.07448387e+01 6.15862503e+01 6.26002731e+01 6.12991142e+01
      6.03232384e+01 6.21052513e+01 6.37753944e+01 6.24211349e+01
      3.14383698e+01 3.12403622e+01 2.56760807e+01 3.10745201e+01
      2.04058571e+01 3.68251915e+01 2.64185810e+01 3.20060387e+01
      1.24742363e+02 6.76194839e+01 5.47104263e+00 6.99026260e+01
      1.30045105e+02 6.89981079e+01 6.21163082e+00 6.41010895e+01
      1.02613630e+01 2.96337376e+01 5.05084381e+01 2.82134056e+01
      9.41083813e+00 3.06230030e+01 5.45411453e+01 3.26595154e+01
      7.07475433e+01 7.42997665e+01 7.81129074e+01 7.37640381e+01
      6.99143677e+01 7.49565659e+01 7.98900223e+01 7.55967941e+01
      6.23155861e+01 6.27455101e+01 6.32538795e+01 6.25823555e+01
      6.20739937e+01 6.29863358e+01 6.38371239e+01 6.31646385e+01</_>
    <_>
      6.80455780e+00 1.92162514e+01 1.32813101e+01 1.84012356e+01
      8.03003788e+00 1.92682724e+01 1.28173075e+01 1.61132088e+01
      2.47254303e+02 6.83615036e+01 1.11712253e+00 6.42627716e+01
      2.38849762e+02 7.18723450e+01 9.34293628e-01 7.23621063e+01
      1.44323528e+00 1.48443184e+01 4.44267731e+01 1.58032484e+01
      1.79048765e+00 1.31231680e+01 3.80831566e+01 1.24011288e+01
      7.26909637e+01 8.33590927e+01 9.42512741e+01 8.40661926e+01
      7.35529709e+01 8.13428421e+01 9.02403717e+01 8.07514343e+01
      5.69818001e+01 5.86189423e+01 6.01200638e+01 5.87857285e+01
      5.72051201e+01 5.80533218e+01 5.90818405e+01 5.79006729e+01
      1.94023781e+01 3.43212433e+01 2.63379612e+01 3.12380486e+01
      1.89204235e+01 3.15020866e+01 2.58058071e+01 3.07716560e+01
      1.25633560e+02 6.58384933e+01 5.96937180e+00 6.33389359e+01
      1.23119995e+02 6.68263931e+01 5.44498825e+00 6.78093109e+01
      7.71858263e+00 3.01601887e+01 5.29415512e+01 3.12129574e+01
      9.07693768e+00 2.84342556e+01 4.91141815e+01 2.77065067e+01
      6.80798569e+01 7.29062042e+01 7.75439453e+01 7.32432632e+01
      6.85195465e+01 7.20746536e+01 7.59171600e+01 7.17903519e+01
      6.03355980e+01 6.11941566e+01 6.19757996e+01 6.12892303e+01
      6.04647675e+01 6.09144058e+01 6.14501724e+01 6.08268394e+01</_>
    <_>
      2.05216026e+01 3.40776711e+01 2.33225193e+01 3.37445259e+01
      2.03578167e+01 3.73939934e+01 2.11157093e+01 3.00892220e+01
      4.49427795e+02 1.26844093e+02 1.77168679e+00 1.17755829e+02
      4.32340515e+02 1.29922211e+02 1.64088976e+00 1.30334686e+02
      3.74600697e+00 2.41504822e+01 7.30186157e+01 2.54128304e+01
      3.17717028e+00 2.23592682e+01 6.67536697e+01 2.20143032e+01
      1.24827133e+02 1.42204437e+02 1.60590744e+02 1.43385025e+02
      1.26115280e+02 1.40759903e+02 1.56936523e+02 1.39955353e+02
      9.84931259e+01 1.01030792e+02 1.03514954e+02 1.01312920e+02
      9.88544617e+01 1.00651863e+02 1.02602142e+02 1.00415428e+02
      2.92793064e+01 4.46912155e+01 3.64071579e+01 4.16207123e+01
      2.99509678e+01 4.41051941e+01 3.44783897e+01 4.25040474e+01
      1.68287827e+02 8.89059219e+01 7.88220310e+00 8.52960892e+01
      1.65176086e+02 8.94112778e+01 7.99582100e+00 9.03172379e+01
      1.46795435e+01 3.77475777e+01 6.78605728e+01 3.92873039e+01
      1.10783901e+01 3.70012283e+01 6.50173264e+01 3.60876350e+01
      8.90951157e+01 9.51669159e+01 1.01220306e+02 9.56591797e+01
      8.97159195e+01 9.48097000e+01 1.00088753e+02 9.44228897e+01
      7.92978287e+01 8.03215256e+01 8.13189926e+01 8.04599838e+01
      7.94827652e+01 8.02013931e+01 8.09637527e+01 8.00781937e+01</_>
    <_>
      1.15533276e+01 2.17808323e+01 1.47286444e+01 2.40400467e+01
      1.14539089e+01 2.33880634e+01 1.48531971e+01 2.16625443e+01
      3.04883728e+02 8.32987671e+01 6.74122334e-01 9.39492874e+01
      3.28280090e+02 9.62212982e+01 7.58892298e-01 8.66768188e+01
      3.60949945e+00 2.03381519e+01 5.46134186e+01 1.80874271e+01
      2.79121184e+00 1.71150665e+01 5.21303024e+01 1.95470009e+01
      9.62179871e+01 1.08241364e+02 1.20016251e+02 1.05974564e+02
      9.32010880e+01 1.04858299e+02 1.18334755e+02 1.07134483e+02
      7.40922546e+01 7.57269440e+01 7.71178894e+01 7.51449585e+01
      7.32785645e+01 7.48350296e+01 7.66740112e+01 7.54171143e+01
      2.37341633e+01 3.67427444e+01 2.95046177e+01 3.79459686e+01
      2.30198479e+01 3.73105698e+01 2.92704678e+01 3.64940491e+01
      1.39306564e+02 7.26343384e+01 5.05414534e+00 7.61054688e+01
      1.43535629e+02 7.70864792e+01 5.73478031e+00 7.38795700e+01
      1.34870205e+01 3.50117149e+01 5.87825623e+01 3.29639854e+01
      1.04628115e+01 3.19299641e+01 5.72203445e+01 3.39084244e+01
      7.80719757e+01 8.29196625e+01 8.74290314e+01 8.21609268e+01
      7.70122070e+01 8.16966629e+01 8.67591248e+01 8.24431381e+01
      6.86871185e+01 6.94601135e+01 7.01212997e+01 6.92307434e+01
      6.83643723e+01 6.90781860e+01 6.99038696e+01 6.93057098e+01</_>
    <_>
      7.34937239e+00 1.59211521e+01 1.30087557e+01 1.50806141e+01
      7.27674055e+00 2.48008556e+01 1.32758579e+01 2.03518600e+01
      2.47385452e+02 7.62188568e+01 1.56036651e+00 7.84137497e+01
      2.58900391e+02 7.05270767e+01 2.03699279e+00 6.25493584e+01
      1.92661631e+00 1.28578768e+01 3.67518005e+01 1.18239508e+01
      1.90853584e+00 1.79846992e+01 5.18136368e+01 1.87316513e+01
      7.75883255e+01 8.39024734e+01 9.21475525e+01 8.29364471e+01
      7.62792435e+01 8.94336700e+01 1.01987946e+02 9.04567337e+01
      6.00834961e+01 6.04368477e+01 6.12452812e+01 6.01829720e+01
      5.97225304e+01 6.19834747e+01 6.38303223e+01 6.22467117e+01
      1.96801720e+01 3.07858562e+01 2.60205898e+01 2.91754017e+01
      1.88733997e+01 3.74350891e+01 2.68666229e+01 3.44040909e+01
      1.25712234e+02 6.94248276e+01 8.08749771e+00 7.04170151e+01
      1.28124634e+02 6.59266891e+01 9.21663094e+00 6.30590973e+01
      9.72502327e+00 2.77455120e+01 4.79048080e+01 2.67969742e+01
      9.09635735e+00 3.27983322e+01 5.70585709e+01 3.41482697e+01
      7.03630295e+01 7.31458054e+01 7.66648407e+01 7.27511520e+01
      6.97614899e+01 7.55311203e+01 8.06766205e+01 7.59909897e+01
      6.19696655e+01 6.21468735e+01 6.25618858e+01 6.20221863e+01
      6.17869186e+01 6.29445267e+01 6.38753662e+01 6.30784912e+01</_>
    <_>
      5.86787271e+00 1.57644129e+01 1.34303312e+01 1.62272491e+01
      1.73137951e+01 2.06341820e+01 1.40944443e+01 1.80873108e+01
      2.34056351e+02 6.98613510e+01 2.28989530e+00 7.10006714e+01
      2.36385040e+02 6.53133011e+01 2.01741815e+00 6.32704659e+01
      1.89748216e+00 1.31843185e+01 3.78152390e+01 1.27894049e+01
      1.77602446e+00 1.54642334e+01 4.46249809e+01 1.57844248e+01
      7.30616302e+01 8.06117783e+01 8.93394089e+01 8.01717987e+01
      7.24789124e+01 8.31454086e+01 9.38229980e+01 8.35839157e+01
      5.66886940e+01 5.74800415e+01 5.84833412e+01 5.73612556e+01
      5.65226097e+01 5.81811295e+01 5.96574516e+01 5.83000946e+01
      1.68337440e+01 3.06074123e+01 2.47743187e+01 2.95422592e+01
      2.70205593e+01 3.23088303e+01 2.61304893e+01 3.21133690e+01
      1.21894547e+02 6.61968765e+01 1.05443716e+01 6.66489868e+01
      1.22419235e+02 6.37138824e+01 1.01639748e+01 6.29581528e+01
      9.65617943e+00 2.84172649e+01 4.88059120e+01 2.79466457e+01
      9.96913052e+00 3.09644108e+01 5.32763977e+01 3.14866161e+01
      6.83304977e+01 7.17673492e+01 7.55543900e+01 7.15683060e+01
      6.80465546e+01 7.29022064e+01 7.74607925e+01 7.31086960e+01
      6.02155571e+01 6.06319504e+01 6.11579399e+01 6.05686340e+01
      6.01255074e+01 6.10038071e+01 6.17751579e+01 6.10681076e+01</_>
    <_>
      7.85312223e+00 1.90986824e+01 1.17561483e+01 1.84114952e+01
      9.86046696e+00 2.40026188e+01 1.28422832e+01 2.07182140e+01
      2.75475739e+02 8.18641434e+01 9.16185975e-01 8.23438721e+01
      2.81738525e+02 7.70226440e+01 1.49144292e+00 7.28616714e+01
      2.70244026e+00 1.63762913e+01 4.58105736e+01 1.58145065e+01
      2.27559781e+00 1.95658607e+01 5.54129715e+01 2.02369537e+01
      8.82220230e+01 9.69436798e+01 1.07292015e+02 9.65514526e+01
      8.76217880e+01 1.00638161e+02 1.13536331e+02 1.01134163e+02
      6.79908142e+01 6.88533020e+01 7.00335541e+01 6.87548523e+01
      6.78432159e+01 6.98927689e+01 7.16729050e+01 7.00047607e+01
      2.08694382e+01 3.37746429e+01 2.66586781e+01 3.31906548e+01
      2.16918640e+01 3.76094894e+01 2.77267590e+01 3.55918083e+01
      1.32535202e+02 7.19127731e+01 5.86174202e+00 7.22142944e+01
      1.33967590e+02 6.95436249e+01 7.39975214e+00 6.79147797e+01
      1.09384422e+01 3.14101620e+01 5.36283226e+01 3.11047840e+01
      1.02916346e+01 3.46537895e+01 5.91005096e+01 3.52733917e+01
      7.49255219e+01 7.85558243e+01 8.26728210e+01 7.84270859e+01
      7.47049866e+01 8.00762558e+01 8.50635300e+01 8.02584076e+01
      6.58670883e+01 6.62841415e+01 6.68537598e+01 6.62432404e+01
      6.58037186e+01 6.67913284e+01 6.76359253e+01 6.68399963e+01</_>
    <_>
      1.19422636e+01 3.14253464e+01 2.01303082e+01 3.98558350e+01
      1.59755468e+01 3.06921291e+01 2.20059433e+01 3.21977310e+01
      4.23844025e+02 1.16335609e+02 1.59903049e+00 1.26232208e+02
      4.32397827e+02 1.21747856e+02 2.56788516e+00 1.23477402e+02
      3.27308416e+00 2.73452721e+01 7.76601257e+01 2.75937710e+01
      4.10391426e+00 2.52834778e+01 7.23554306e+01 2.51968632e+01
      1.32016205e+02 1.49700500e+02 1.67633209e+02 1.49319016e+02
      1.31668716e+02 1.46944138e+02 1.63895905e+02 1.47115555e+02
      1.02312515e+02 1.04861588e+02 1.07198250e+02 1.04766464e+02
      1.02200859e+02 1.04078133e+02 1.06191307e+02 1.04143768e+02
      2.58951855e+01 4.28417740e+01 3.36976433e+01 4.70231285e+01
      2.77014427e+01 4.05079422e+01 3.39664383e+01 4.29223137e+01
      1.64132721e+02 8.56663742e+01 8.62425232e+00 8.81076813e+01
      1.65466293e+02 8.73161697e+01 1.05703392e+01 8.78211136e+01
      1.26184311e+01 4.13787613e+01 7.00720139e+01 4.05662689e+01
      1.38653069e+01 3.92870026e+01 6.76397934e+01 3.94485092e+01
      9.18242188e+01 9.77822800e+01 1.03441330e+02 9.75593872e+01
      9.15850677e+01 9.68167114e+01 1.02300865e+02 9.69323654e+01
      8.08667908e+01 8.18642960e+01 8.27619476e+01 8.18069382e+01
      8.07965469e+01 8.15440140e+01 8.23782043e+01 8.15860062e+01</_>
    <_>
      8.40231133e+00 1.59775620e+01 1.11712799e+01 1.53526735e+01
      5.54725552e+00 1.61098557e+01 1.20724716e+01 1.74180603e+01
      2.28061005e+02 6.56060944e+01 8.39775801e-01 6.54209671e+01
      2.28773727e+02 6.47381134e+01 5.39727151e-01 6.43531342e+01
      3.31133246e+00 1.45993471e+01 3.84535027e+01 1.26162958e+01
      1.31476736e+00 1.30831318e+01 3.93102379e+01 1.44510088e+01
      6.94008255e+01 7.76401062e+01 8.62618408e+01 7.67924805e+01
      6.83160706e+01 7.73667145e+01 8.70554504e+01 7.80990906e+01
      5.37047768e+01 5.47537270e+01 5.58021965e+01 5.45691719e+01
      5.34539223e+01 5.47331619e+01 5.60289917e+01 5.49056740e+01
      2.09273052e+01 3.05829029e+01 2.49980545e+01 3.07194366e+01
      1.76866283e+01 3.16250782e+01 2.48502064e+01 3.16458969e+01
      1.19402893e+02 6.31157150e+01 6.06931353e+00 6.42157669e+01
      1.20522064e+02 6.38412971e+01 5.05466413e+00 6.30240021e+01
      1.04213915e+01 2.87362175e+01 4.91609573e+01 2.80721149e+01
      7.93856859e+00 2.86674366e+01 4.99882240e+01 2.92478180e+01
      6.63743210e+01 7.02481918e+01 7.41449432e+01 7.00024490e+01
      6.60397186e+01 7.02872696e+01 7.45409088e+01 7.05175629e+01
      5.85310745e+01 5.91023521e+01 5.96793823e+01 5.90282440e+01
      5.84280777e+01 5.91239738e+01 5.98134117e+01 5.91957359e+01</_>
    <_>
      7.62595749e+00 1.30870543e+01 9.00028896e+00 1.59857349e+01
      5.98239470e+00 1.13328056e+01 7.34013081e+00 1.13103046e+01
      1.58040390e+02 4.27914734e+01 2.17701626e+00 4.16547699e+01
      1.54060974e+02 4.67164268e+01 1.47309184e+00 4.97915306e+01
      1.95862496e+00 1.20055771e+01 3.30119972e+01 1.27615633e+01
      2.75908804e+00 1.02696609e+01 2.57205391e+01 9.36590576e+00
      4.98052368e+01 5.76972771e+01 6.53622589e+01 5.83053932e+01
      5.06785431e+01 5.50548592e+01 6.03789597e+01 5.43824692e+01
      3.84633904e+01 3.97814331e+01 4.08897705e+01 3.99364662e+01
      3.86865120e+01 3.90121307e+01 3.95592079e+01 3.88493576e+01
      1.70540600e+01 2.71101246e+01 2.02914982e+01 2.84457645e+01
      1.67577305e+01 2.28548431e+01 1.92361221e+01 2.40240746e+01
      9.91991272e+01 5.08942795e+01 8.94429970e+00 5.05115662e+01
      9.80851669e+01 5.29016037e+01 7.26777554e+00 5.44970398e+01
      9.04109669e+00 2.70460529e+01 4.55525551e+01 2.75801144e+01
      1.05529270e+01 2.38409023e+01 3.97990685e+01 2.30404778e+01
      5.63532486e+01 6.06783752e+01 6.45633698e+01 6.09158516e+01
      5.67174492e+01 5.91406975e+01 6.19972610e+01 5.88594398e+01
      4.95696144e+01 5.04114304e+01 5.11002998e+01 5.04883842e+01
      4.96826782e+01 4.98941422e+01 5.02536392e+01 4.98109283e+01</_>
    <_>
      1.77679329e+01 1.52742863e+01 9.35221195e+00 1.20645189e+01
      4.72217321e+00 1.54282446e+01 1.07719393e+01 1.63642025e+01
      1.74591095e+02 5.23895264e+01 3.32342684e-01 4.76274757e+01
      1.65048981e+02 4.63955612e+01 6.04781806e-01 4.85747795e+01
      3.72355461e+00 1.03844042e+01 2.65597897e+01 8.94020367e+00
      1.02228951e+00 1.02204285e+01 3.03875885e+01 1.19186563e+01
      5.06250534e+01 5.59015007e+01 6.19746780e+01 5.55957756e+01
      5.00903435e+01 5.72750130e+01 6.46014709e+01 5.76887054e+01
      3.91525841e+01 3.97361984e+01 4.04584236e+01 3.96824341e+01
      3.90661774e+01 4.01658821e+01 4.11607208e+01 4.02327995e+01
      2.77885361e+01 2.70376225e+01 2.20843487e+01 2.43086071e+01
      1.50599527e+01 2.86753502e+01 2.23301487e+01 2.82914906e+01
      1.02536690e+02 5.53920517e+01 3.61988473e+00 5.46015854e+01
      1.02444077e+02 5.40478020e+01 4.71988153e+00 5.32076035e+01
      1.15141649e+01 2.34857502e+01 4.08804016e+01 2.35579338e+01
      7.02746201e+00 2.53144283e+01 4.37792625e+01 2.56259975e+01
      5.65821609e+01 5.95606041e+01 6.28333435e+01 5.95344315e+01
      5.65005188e+01 6.04137802e+01 6.41355133e+01 6.05048485e+01
      4.99495087e+01 5.03314590e+01 5.08014488e+01 5.03165131e+01
      4.99218178e+01 5.06154709e+01 5.12318535e+01 5.06398392e+01</_>
    <_>
      1.24124289e+01 2.51588078e+01 1.86104145e+01 2.82626514e+01
      9.84319401e+00 2.35417461e+01 1.85180607e+01 2.11127930e+01
      3.20849335e+02 8.44554901e+01 1.84478521e+00 9.16281815e+01
      3.35044037e+02 1.02395905e+02 2.35224271e+00 9.77346649e+01
      3.15159273e+00 2.23171120e+01 6.17853928e+01 2.09426765e+01
      2.46457338e+00 1.54602108e+01 4.80745583e+01 1.72213821e+01
      9.78778000e+01 1.12945427e+02 1.26897865e+02 1.11577408e+02
      9.60510788e+01 1.05566154e+02 1.17834541e+02 1.06948624e+02
      7.59954987e+01 7.84152679e+01 8.02780151e+01 7.80675430e+01
      7.55098495e+01 7.64043579e+01 7.78955612e+01 7.67514648e+01
      2.40788155e+01 3.86219368e+01 3.08094120e+01 4.04871979e+01
      2.25523071e+01 3.56109238e+01 2.95651245e+01 3.48610344e+01
      1.42519348e+02 7.27065201e+01 9.02821636e+00 7.54473114e+01
      1.45707962e+02 8.00488281e+01 9.91415405e+00 7.78675842e+01
      1.24003620e+01 3.68724632e+01 6.23999825e+01 3.54075241e+01
      1.12999182e+01 3.02118320e+01 5.46362648e+01 3.15428886e+01
      7.88609695e+01 8.47984085e+01 8.99210358e+01 8.42735519e+01
      7.81376648e+01 8.19207458e+01 8.65487518e+01 8.24226913e+01
      6.96068420e+01 7.07214813e+01 7.15635529e+01 7.05650558e+01
      6.93881683e+01 6.97898941e+01 7.04628143e+01 6.99429779e+01</_>
    <_>
      1.03218908e+01 1.66592197e+01 1.06672230e+01 1.81652737e+01
      6.58764696e+00 1.71276550e+01 1.11315632e+01 1.72397232e+01
      2.45554932e+02 6.87291489e+01 2.43151218e-01 7.40725250e+01
      2.57018646e+02 7.26981201e+01 3.49551529e-01 6.83233109e+01
      2.25888848e+00 1.56621199e+01 4.32081947e+01 1.40193958e+01
      1.33650327e+00 1.44510918e+01 4.39665260e+01 1.58689804e+01
      7.82572632e+01 8.76068802e+01 9.72171783e+01 8.63249207e+01
      7.65867615e+01 8.66546860e+01 9.76626282e+01 8.78713608e+01
      6.04471664e+01 6.16508141e+01 6.27950897e+01 6.13348732e+01
      6.00102654e+01 6.14172897e+01 6.29076042e+01 6.17257233e+01
      2.14161549e+01 3.19073277e+01 2.55586414e+01 3.35083733e+01
      1.79946842e+01 3.25381165e+01 2.59598675e+01 3.22583809e+01
      1.25059326e+02 6.59848022e+01 3.38597560e+00 6.85796509e+01
      1.28008560e+02 6.78317719e+01 3.77168441e+00 6.58510056e+01
      1.01114454e+01 3.11567802e+01 5.24631500e+01 2.97485905e+01
      8.14670086e+00 3.01221943e+01 5.29001389e+01 3.13885307e+01
      7.06526184e+01 7.47841644e+01 7.88168182e+01 7.42771683e+01
      6.99552536e+01 7.44131241e+01 7.89930496e+01 7.48962173e+01
      6.21531792e+01 6.27727280e+01 6.33590050e+01 6.26213303e+01
      6.19417114e+01 6.26625557e+01 6.34149246e+01 6.28104935e+01</_>
    <_>
      3.49426007e+00 9.68283558e+00 7.94909763e+00 1.13978024e+01
      5.77032232e+00 1.30144968e+01 7.09753990e+00 1.09436769e+01
      1.31753891e+02 3.93650703e+01 4.68349785e-01 3.93011284e+01
      1.32736557e+02 3.61437225e+01 5.48107922e-01 3.54021378e+01
      1.45672011e+00 7.71733999e+00 2.13500443e+01 7.41613770e+00
      1.06142461e+00 9.10291576e+00 2.58375759e+01 9.33876324e+00
      4.13734856e+01 4.54697418e+01 5.03714333e+01 4.54073906e+01
      4.12763481e+01 4.74135399e+01 5.34153214e+01 4.74828072e+01
      3.19704323e+01 3.23723869e+01 3.29411011e+01 3.23643990e+01
      3.19578972e+01 3.29289932e+01 3.37511711e+01 3.29383736e+01
      1.33787317e+01 2.26777973e+01 1.85757484e+01 2.34355240e+01
      1.62249775e+01 2.60555687e+01 1.87890358e+01 2.49059029e+01
      9.11384583e+01 4.94159012e+01 4.17241192e+00 4.96630020e+01
      9.18922043e+01 4.77274055e+01 4.64809561e+00 4.70688210e+01
      8.12931538e+00 2.14117298e+01 3.66810989e+01 2.13123322e+01
      7.23217726e+00 2.38718643e+01 4.05530205e+01 2.40726357e+01
      5.13798294e+01 5.38627319e+01 5.67040634e+01 5.38310699e+01
      5.13217087e+01 5.50246925e+01 5.84206543e+01 5.50738602e+01
      4.52075500e+01 4.54886551e+01 4.58849220e+01 4.54797134e+01
      4.51930199e+01 4.58772392e+01 4.64501152e+01 4.58887367e+01</_>
    <_>
      9.02014446e+00 2.11503487e+01 1.93546085e+01 2.61446629e+01
      1.79079494e+01 3.12338219e+01 1.76862907e+01 2.00904064e+01
      2.92364929e+02 8.05948639e+01 2.45592999e+00 8.10032425e+01
      2.94856659e+02 9.28518677e+01 3.83274603e+00 8.72326660e+01
      3.96885014e+00 1.88599167e+01 5.30461235e+01 1.92872162e+01
      3.30237603e+00 1.67925682e+01 4.77494507e+01 1.76633358e+01
      8.84085846e+01 1.00443718e+02 1.12818634e+02 1.00472366e+02
      8.81522827e+01 9.80410385e+01 1.09433327e+02 9.83947449e+01
      6.87230530e+01 7.04987030e+01 7.21340561e+01 7.04884109e+01
      6.86758728e+01 6.98613815e+01 7.12678299e+01 6.99160080e+01
      1.93109951e+01 3.46478157e+01 3.02073593e+01 3.43961296e+01
      2.43065929e+01 3.67347145e+01 2.76343117e+01 3.42063942e+01
      1.35724518e+02 7.08547058e+01 1.01985750e+01 6.91872406e+01
      1.34991592e+02 7.36431732e+01 1.29666119e+01 7.32155075e+01
      1.15873184e+01 3.31770515e+01 5.76839142e+01 3.37938309e+01
      1.18385611e+01 3.11402912e+01 5.42339020e+01 3.10467434e+01
      7.47145767e+01 7.98016434e+01 8.47191391e+01 7.99797592e+01
      7.49009171e+01 7.89684753e+01 8.33469849e+01 7.88811035e+01
      6.61102829e+01 6.69856262e+01 6.77915039e+01 6.70327225e+01
      6.61673737e+01 6.67214737e+01 6.73602753e+01 6.66876984e+01</_>
    <_>
      1.05807199e+01 1.86220207e+01 1.32113886e+01 1.72643471e+01
      5.78154373e+00 1.76716251e+01 1.40013943e+01 1.88955956e+01
      2.47238525e+02 6.98695984e+01 8.26519191e-01 6.90669861e+01
      2.45256653e+02 7.02568665e+01 9.13619161e-01 6.97819901e+01
      1.43528163e+00 1.40291605e+01 4.15940399e+01 1.38542652e+01
      1.19752049e+00 1.35199890e+01 4.10021210e+01 1.39050360e+01
      7.40098572e+01 8.34252777e+01 9.33443909e+01 8.32162247e+01
      7.36832123e+01 8.29144516e+01 9.29462738e+01 8.31994171e+01
      5.77375603e+01 5.90161095e+01 6.02732430e+01 5.89534073e+01
      5.76436653e+01 5.88752632e+01 6.01678886e+01 5.89471054e+01
      2.19246178e+01 3.35188332e+01 2.60796986e+01 3.20884705e+01
      1.81563053e+01 3.26275215e+01 2.60989933e+01 3.25586700e+01
      1.25447655e+02 6.65923920e+01 6.22813082e+00 6.62331314e+01
      1.25161072e+02 6.68169022e+01 6.61610317e+00 6.63488617e+01
      8.48722935e+00 2.97461071e+01 5.15061836e+01 2.96407070e+01
      8.23886204e+00 2.93142776e+01 5.11610527e+01 2.96150360e+01
      6.87925644e+01 7.30419235e+01 7.72694397e+01 7.29587479e+01
      6.86547470e+01 7.28344040e+01 7.71150436e+01 7.29505692e+01
      6.07778549e+01 6.14466858e+01 6.20983200e+01 6.14155922e+01
      6.07307281e+01 6.13770981e+01 6.20471230e+01 6.14129715e+01</_>
    <_>
      4.58125257e+00 1.09662199e+01 6.82476234e+00 1.10213051e+01
      4.07729864e+00 1.00808382e+01 6.33517933e+00 1.09956217e+01
      1.46726578e+02 4.24340782e+01 5.32204211e-01 4.10491219e+01
      1.43779984e+02 3.96424713e+01 5.05212843e-01 4.18342857e+01
      1.85599720e+00 9.65163517e+00 2.63546276e+01 9.73551750e+00
      1.75093186e+00 1.01057196e+01 2.72151985e+01 9.91293716e+00
      4.64055748e+01 5.19577446e+01 5.80461159e+01 5.22289886e+01
      4.67874908e+01 5.26178970e+01 5.86077080e+01 5.23110847e+01
      3.57854118e+01 3.65124283e+01 3.72994957e+01 3.65894737e+01
      3.58959007e+01 3.66943626e+01 3.74468384e+01 3.66132202e+01
      1.38153133e+01 2.45612774e+01 1.88997383e+01 2.57275066e+01
      1.50892210e+01 2.47728004e+01 1.92415352e+01 2.52766953e+01
      9.58846588e+01 5.09072914e+01 4.99376965e+00 5.09504662e+01
      9.56851044e+01 5.00545807e+01 5.04800034e+00 5.06373863e+01
      9.13754749e+00 2.40094566e+01 4.07444687e+01 2.41954403e+01
      8.20289040e+00 2.47505474e+01 4.14599571e+01 2.44353962e+01
      5.43832970e+01 5.75579453e+01 6.08327942e+01 5.76526375e+01
      5.45301628e+01 5.78751373e+01 6.11349983e+01 5.77599258e+01
      4.78090744e+01 4.82900696e+01 4.88002205e+01 4.83219528e+01
      4.78560867e+01 4.83923912e+01 4.88979683e+01 4.83576241e+01</_>
    <_>
      2.96246986e+01 3.47228470e+01 2.70788193e+01 3.60648613e+01
      2.25132980e+01 4.07585793e+01 2.59043732e+01 3.57006073e+01
      4.19672760e+02 1.21111328e+02 4.21662664e+00 1.21834946e+02
      4.28270660e+02 1.25614098e+02 2.79342651e+00 1.19502457e+02
      2.92904329e+00 2.35368710e+01 6.92325439e+01 2.41304340e+01
      4.00347233e+00 2.32561493e+01 6.98114548e+01 2.44018764e+01
      1.23826546e+02 1.38942841e+02 1.55207275e+02 1.38441696e+02
      1.22906799e+02 1.38873306e+02 1.56235519e+02 1.39842346e+02
      9.66098480e+01 9.85535965e+01 1.00549042e+02 9.83701324e+01
      9.63186340e+01 9.85703354e+01 1.00874908e+02 9.88069077e+01
      3.67527962e+01 4.37823868e+01 3.67059860e+01 4.16644669e+01
      3.15854149e+01 4.62032661e+01 3.59014435e+01 4.25112648e+01
      1.62612732e+02 8.64024353e+01 1.26030788e+01 8.67661743e+01
      1.64821411e+02 8.85881424e+01 1.03855000e+01 8.52821274e+01
      1.17085972e+01 3.79268456e+01 6.56938477e+01 3.70588799e+01
      1.27589636e+01 3.72076416e+01 6.64510727e+01 3.87267761e+01
      8.88914642e+01 9.41209412e+01 9.93810120e+01 9.37191391e+01
      8.82505188e+01 9.39586716e+01 9.98035736e+01 9.44680099e+01
      7.85352249e+01 7.93064499e+01 8.00763702e+01 7.91747437e+01
      7.83383026e+01 7.92733231e+01 8.02272568e+01 7.94204254e+01</_>
    <_>
      2.15238400e+01 2.88307514e+01 2.15454731e+01 2.82566681e+01
      1.19696207e+01 3.82880096e+01 2.29988384e+01 4.48631935e+01
      4.59427582e+02 1.38806076e+02 3.68543100e+00 1.51350342e+02
      4.83381256e+02 1.29750854e+02 4.74421883e+00 1.21515953e+02
      2.96428323e+00 2.21920261e+01 6.58544846e+01 2.21207962e+01
      5.40255404e+00 3.35893784e+01 9.41945496e+01 3.31631470e+01
      1.39993576e+02 1.51457199e+02 1.66595718e+02 1.50062698e+02
      1.38313950e+02 1.62577759e+02 1.85344040e+02 1.63791138e+02
      1.09120407e+02 1.09724678e+02 1.11214066e+02 1.09335609e+02
      1.08593124e+02 1.12802521e+02 1.16163925e+02 1.13170151e+02
      3.06795235e+01 3.85451965e+01 3.57033157e+01 4.08226776e+01
      2.51278896e+01 4.84991608e+01 3.68231392e+01 4.93827438e+01
      1.70972549e+02 9.33317871e+01 1.19788322e+01 9.69590607e+01
      1.74769775e+02 8.92949753e+01 1.33864298e+01 8.70705566e+01
      1.18305168e+01 3.66017990e+01 6.36814880e+01 3.47312584e+01
      1.62043018e+01 4.35138626e+01 7.64800110e+01 4.50849342e+01
      9.44570084e+01 9.81941757e+01 1.02888985e+02 9.75304947e+01
      9.35559769e+01 1.01532654e+02 1.08567245e+02 1.02147804e+02
      8.34459763e+01 8.36603165e+01 8.42000122e+01 8.34634705e+01
      8.31726761e+01 8.47858200e+01 8.60691376e+01 8.49757996e+01</_>
    <_>
      2.44216080e+01 2.84960766e+01 1.80256310e+01 2.24825134e+01
      9.93383408e+00 3.03300076e+01 2.02543793e+01 2.93763371e+01
      3.24642334e+02 9.65833282e+01 1.64282680e+00 9.98550186e+01
      3.41756439e+02 9.54479675e+01 2.90427637e+00 8.63749847e+01
      4.81195593e+00 2.14929333e+01 5.55757217e+01 1.82139359e+01
      2.23946905e+00 2.19608727e+01 6.52601929e+01 2.53613987e+01
      1.06563210e+02 1.17059105e+02 1.28736038e+02 1.14902115e+02
      1.03584129e+02 1.18957581e+02 1.34958755e+02 1.21244209e+02
      8.14932709e+01 8.25512466e+01 8.38004990e+01 8.20223694e+01
      8.07413177e+01 8.31533890e+01 8.54324036e+01 8.36988373e+01
      3.20424347e+01 3.67305527e+01 3.04696293e+01 3.63396530e+01
      2.19055862e+01 4.09253197e+01 3.16054115e+01 3.69495506e+01
      1.42821762e+02 7.68936081e+01 8.31250954e+00 7.95628357e+01
      1.47432205e+02 7.72581711e+01 1.12066746e+01 7.28706894e+01
      1.28947430e+01 3.54692574e+01 5.91585388e+01 3.36853561e+01
      1.05708227e+01 3.68951035e+01 6.41580734e+01 3.90438347e+01
      8.22990036e+01 8.63040466e+01 9.05932770e+01 8.56198502e+01
      8.12928543e+01 8.71180649e+01 9.27720490e+01 8.78612976e+01
      7.21139450e+01 7.25855942e+01 7.31462631e+01 7.23759689e+01
      7.18117752e+01 7.28744812e+01 7.38585739e+01 7.30925064e+01</_>
    <_>
      1.48851690e+01 2.55777321e+01 1.42795773e+01 2.07970734e+01
      7.60504866e+00 1.98132019e+01 1.46031170e+01 2.31345768e+01
      3.04397461e+02 8.79725189e+01 1.33086801e+00 8.23373337e+01
      2.93376709e+02 8.25333176e+01 7.40016341e-01 8.51871185e+01
      2.19478416e+00 1.84134789e+01 5.31505241e+01 1.88467598e+01
      2.46090651e+00 1.84918823e+01 5.20963097e+01 1.77282238e+01
      9.23563843e+01 1.04212311e+02 1.16861435e+02 1.04719048e+02
      9.30487213e+01 1.04258530e+02 1.16160667e+02 1.03741898e+02
      7.17679138e+01 7.34061584e+01 7.50612717e+01 7.35271530e+01
      7.19374237e+01 7.33932724e+01 7.48698502e+01 7.32727661e+01
      2.68500519e+01 3.83101082e+01 2.77902508e+01 3.58882294e+01
      1.98784428e+01 3.48747330e+01 2.83632107e+01 3.55161514e+01
      1.39007401e+02 7.39720154e+01 7.48648882e+00 7.21408997e+01
      1.36525726e+02 7.20967026e+01 5.10271454e+00 7.33977280e+01
      1.03266497e+01 3.36048889e+01 5.80440025e+01 3.43352509e+01
      1.09691181e+01 3.40423012e+01 5.76429977e+01 3.34081039e+01
      7.68021088e+01 8.15803299e+01 8.64109879e+01 8.18060074e+01
      7.71134949e+01 8.16441269e+01 8.61874390e+01 8.14326401e+01
      6.77412415e+01 6.85081787e+01 6.92787323e+01 6.85705566e+01
      6.78282471e+01 6.85137177e+01 6.91993866e+01 6.84532547e+01</_>
    <_>
      4.76933002e+00 1.26066790e+01 8.87327957e+00 1.24093981e+01
      5.26878452e+00 1.17820749e+01 8.55870533e+00 1.14104443e+01
      1.56029800e+02 4.55163422e+01 9.33006763e-01 4.54608688e+01
      1.57966690e+02 4.39953766e+01 9.17379439e-01 4.29464073e+01
      1.92689800e+00 1.03945656e+01 2.77869301e+01 9.58934784e+00
      1.29990733e+00 1.01473036e+01 2.88350639e+01 1.05449209e+01
      4.96152954e+01 5.54558449e+01 6.16618385e+01 5.51217079e+01
      4.91984978e+01 5.55527725e+01 6.22720528e+01 5.58303833e+01
      3.81733360e+01 3.89232254e+01 3.96896210e+01 3.88512039e+01
      3.80758629e+01 3.89596596e+01 3.98412743e+01 3.90265083e+01
      1.59100027e+01 2.63446236e+01 2.05244961e+01 2.68303795e+01
      1.65079117e+01 2.61384029e+01 2.10124016e+01 2.59803810e+01
      9.95491867e+01 5.30550423e+01 6.33788013e+00 5.35526543e+01
      1.00262062e+02 5.25082512e+01 6.58972836e+00 5.20313339e+01
      9.27074337e+00 2.45524178e+01 4.17063103e+01 2.43002892e+01
      7.68778706e+00 2.49358654e+01 4.26109467e+01 2.51920528e+01
      5.60424805e+01 5.92813492e+01 6.25842018e+01 5.91923218e+01
      5.59155464e+01 5.94350510e+01 6.29286766e+01 5.95253639e+01
      4.92845268e+01 4.97687988e+01 5.02679672e+01 4.97424011e+01
      4.92470360e+01 4.98170204e+01 5.03736649e+01 4.98436317e+01</_>
    <_>
      1.16481066e+01 2.62295246e+01 1.44185772e+01 2.28346043e+01
      8.53990459e+00 2.22581825e+01 1.46274281e+01 2.33469086e+01
      3.25920959e+02 9.10525284e+01 2.55456418e-01 8.97161255e+01
      3.20906952e+02 9.08283081e+01 1.77160367e-01 9.23931351e+01
      1.66181898e+00 1.93122253e+01 5.71732178e+01 1.95211887e+01
      1.85737669e+00 1.86884193e+01 5.47851486e+01 1.83347492e+01
      9.94684296e+01 1.12562439e+02 1.26227448e+02 1.12693192e+02
      9.96872482e+01 1.11630959e+02 1.24576752e+02 1.11444550e+02
      7.74928589e+01 7.93356934e+01 8.11172256e+01 7.93645020e+01
      7.75385284e+01 7.90591888e+01 8.06745300e+01 7.90232468e+01
      2.37885475e+01 3.90515671e+01 2.90759716e+01 3.74634666e+01
      2.06533108e+01 3.61372414e+01 2.92710361e+01 3.68192520e+01
      1.44399109e+02 7.62873077e+01 3.42543030e+00 7.56891556e+01
      1.43164078e+02 7.60310745e+01 2.86735821e+00 7.68405151e+01
      1.01769657e+01 3.51148834e+01 6.04674339e+01 3.52919312e+01
      1.05224953e+01 3.44875641e+01 5.91823235e+01 3.42109184e+01
      7.97835770e+01 8.48729248e+01 8.98773117e+01 8.49215393e+01
      7.98687668e+01 8.45186462e+01 8.92862930e+01 8.44496002e+01
      7.04230576e+01 7.12555161e+01 7.20510483e+01 7.12683563e+01
      7.04436035e+01 7.11308823e+01 7.18538666e+01 7.11148605e+01</_>
    <_>
      5.05562353e+00 1.19599104e+01 8.12709522e+00 1.13212309e+01
      5.08094025e+00 1.37447729e+01 8.57099628e+00 1.37548380e+01
      1.75967651e+02 5.20151520e+01 2.44149595e-01 5.44041557e+01
      1.84187546e+02 5.08749695e+01 4.45412040e-01 4.70529175e+01
      1.34738469e+00 9.31277943e+00 2.70157661e+01 8.66086578e+00
      1.28733063e+00 1.08079214e+01 3.22971497e+01 1.13517218e+01
      5.33430710e+01 5.88549232e+01 6.51693802e+01 5.82515831e+01
      5.25387001e+01 6.05050201e+01 6.85755463e+01 6.11191330e+01
      4.15773087e+01 4.21452637e+01 4.28551483e+01 4.19914093e+01
      4.13608322e+01 4.26115074e+01 4.37446518e+01 4.27675171e+01
      1.57636967e+01 2.60517693e+01 2.21754799e+01 2.63855972e+01
      1.63653793e+01 2.93255730e+01 2.28693428e+01 2.77234440e+01
      1.05773964e+02 5.72642708e+01 3.40556407e+00 5.86097374e+01
      1.08038605e+02 5.64421005e+01 4.61313391e+00 5.44431496e+01
      7.19312143e+00 2.37979774e+01 4.13629036e+01 2.29815655e+01
      8.12500286e+00 2.55089397e+01 4.51943130e+01 2.64788246e+01
      5.82891808e+01 6.12470512e+01 6.44764328e+01 6.09423866e+01
      5.78407211e+01 6.20860596e+01 6.61253891e+01 6.24166946e+01
      5.15189514e+01 5.18724022e+01 5.23111000e+01 5.17800903e+01
      5.13857765e+01 5.21563263e+01 5.28468323e+01 5.22524185e+01</_>
    <_>
      7.23381615e+00 1.68679428e+01 9.29269695e+00 1.21087523e+01
      5.81838322e+00 1.18032494e+01 9.52812386e+00 1.27465878e+01
      1.67800171e+02 4.92131042e+01 1.75848222e+00 4.76789131e+01
      1.70359451e+02 4.90681305e+01 9.87360120e-01 4.80060081e+01
      1.37330782e+00 1.03341742e+01 2.94450912e+01 9.86147976e+00
      9.66307640e-01 8.99214649e+00 2.75551414e+01 9.58081913e+00
      5.06011391e+01 5.73513603e+01 6.42800140e+01 5.71361885e+01
      5.02646599e+01 5.62977219e+01 6.30714531e+01 5.65859184e+01
      3.94766541e+01 4.04385033e+01 4.13350716e+01 4.03867912e+01
      3.93978500e+01 4.01586456e+01 4.10149002e+01 4.02195244e+01
      1.84063740e+01 2.75067616e+01 2.15011101e+01 2.72549915e+01
      1.61257458e+01 2.64127884e+01 2.19608498e+01 2.50395813e+01
      1.02720825e+02 5.41824875e+01 8.80204582e+00 5.48051147e+01
      1.04185387e+02 5.56957779e+01 6.42603683e+00 5.43788071e+01
      7.97499275e+00 2.50155258e+01 4.31039162e+01 2.46490192e+01
      6.88426828e+00 2.36877556e+01 4.17931976e+01 2.42192841e+01
      5.68679390e+01 6.05455093e+01 6.40936584e+01 6.04106674e+01
      5.66565437e+01 5.99782181e+01 6.34958992e+01 6.01411552e+01
      5.02514610e+01 5.08588829e+01 5.14158020e+01 5.08183098e+01
      5.01911316e+01 5.06760788e+01 5.12170982e+01 5.07207489e+01</_>
    <_>
      8.16633224e+00 2.00112362e+01 1.34793358e+01 2.02491989e+01
      7.12560892e+00 2.09533672e+01 1.42027626e+01 2.35113430e+01
      2.93068024e+02 8.34605103e+01 4.67374116e-01 8.68226089e+01
      2.97354706e+02 8.19035034e+01 8.98223400e-01 8.10429459e+01
      2.16093659e+00 1.71277027e+01 4.89590149e+01 1.62997055e+01
      1.79154110e+00 1.85592918e+01 5.41366348e+01 1.89240093e+01
      9.15272903e+01 1.01761726e+02 1.13039696e+02 1.01149208e+02
      9.07994461e+01 1.03462090e+02 1.16427071e+02 1.03935257e+02
      7.09516068e+01 7.21497803e+01 7.34933777e+01 7.20032120e+01
      7.07576141e+01 7.26333466e+01 7.43844833e+01 7.27639008e+01
      2.07547760e+01 3.35500832e+01 2.77888737e+01 3.54270287e+01
      2.03096771e+01 3.58960037e+01 2.82635193e+01 3.73977203e+01
      1.36624268e+02 7.26521606e+01 4.66681433e+00 7.42010574e+01
      1.37715073e+02 7.19312439e+01 5.98776865e+00 7.17062836e+01
      1.04437780e+01 3.27701302e+01 5.58744202e+01 3.20729218e+01
      9.84500790e+00 3.41354065e+01 5.87217751e+01 3.45511894e+01
      7.65029373e+01 8.06771927e+01 8.50422440e+01 8.04429779e+01
      7.62055283e+01 8.13418884e+01 8.62927170e+01 8.15305710e+01
      6.73775558e+01 6.79458694e+01 6.85771637e+01 6.78779678e+01
      6.72862091e+01 6.81703720e+01 6.89869385e+01 6.82318115e+01</_>
    <_>
      9.67827702e+00 2.36270275e+01 1.72335815e+01 2.79457912e+01
      9.19209576e+00 2.51967945e+01 1.86682243e+01 2.68812122e+01
      3.42955109e+02 9.86753616e+01 1.94511330e+00 9.90478287e+01
      3.40583038e+02 9.51747513e+01 2.12787819e+00 9.95645218e+01
      2.64919806e+00 1.93542461e+01 5.61707535e+01 1.93045578e+01
      3.28352427e+00 2.01699657e+01 5.77320747e+01 1.96975803e+01
      1.00917229e+02 1.13490112e+02 1.27011833e+02 1.13560631e+02
      1.01197235e+02 1.14353973e+02 1.28048370e+02 1.14071281e+02
      7.89959488e+01 8.06438065e+01 8.23643036e+01 8.06679611e+01
      7.90499191e+01 8.08723450e+01 8.26384277e+01 8.08223038e+01
      2.28073044e+01 3.69832611e+01 3.06746426e+01 3.88158951e+01
      2.13260288e+01 3.66240349e+01 3.09155178e+01 3.85471535e+01
      1.46948395e+02 7.76730042e+01 9.26396561e+00 7.89777069e+01
      1.47168579e+02 7.72221375e+01 9.59004211e+00 7.78936310e+01
      1.10336580e+01 3.41177521e+01 5.93335686e+01 3.36191368e+01
      1.00222836e+01 3.44822121e+01 6.02449684e+01 3.45111122e+01
      8.02042084e+01 8.50386810e+01 8.99054794e+01 8.48885269e+01
      8.00505753e+01 8.52001724e+01 9.02918701e+01 8.52702637e+01
      7.09974823e+01 7.17248535e+01 7.24628372e+01 7.16839371e+01
      7.09480591e+01 7.17781296e+01 7.25879669e+01 7.18073730e+01</_>
    <_>
      1.22418356e+01 2.33697910e+01 2.25176506e+01 3.09118099e+01
      1.37991505e+01 3.55197067e+01 2.16584740e+01 2.89265308e+01
      3.78335114e+02 1.15183601e+02 3.17170668e+00 1.16857742e+02
      3.84158844e+02 1.06779472e+02 2.53912187e+00 1.03264900e+02
      5.67098188e+00 2.04600353e+01 5.69315758e+01 2.01692543e+01
      5.38560057e+00 2.69099808e+01 7.31039734e+01 2.76994820e+01
      1.14329796e+02 1.25035065e+02 1.38309341e+02 1.24656784e+02
      1.13737106e+02 1.31418655e+02 1.48547958e+02 1.31925613e+02
      8.87451935e+01 8.97146912e+01 9.12099915e+01 8.96135864e+01
      8.85936890e+01 9.14604950e+01 9.38625336e+01 9.15757294e+01
      2.15468655e+01 3.73950386e+01 3.19684086e+01 3.71492615e+01
      2.38471603e+01 4.32939987e+01 3.31087608e+01 4.01558189e+01
      1.53829071e+02 8.41406250e+01 1.19306784e+01 8.44982758e+01
      1.55548996e+02 8.09410400e+01 1.02672052e+01 7.89930878e+01
      1.37381325e+01 3.38152924e+01 5.94066467e+01 3.33937836e+01
      1.35997086e+01 3.80371323e+01 6.64899673e+01 3.87691498e+01
      8.46417923e+01 8.87481232e+01 9.34663544e+01 8.85741806e+01
      8.43610229e+01 9.07002563e+01 9.65331955e+01 9.09222183e+01
      7.48976440e+01 7.53485718e+01 7.59925537e+01 7.52942810e+01
      7.48160782e+01 7.59958649e+01 7.69914093e+01 7.60568237e+01</_>
    <_>
      6.66406584e+00 1.67730103e+01 1.70871887e+01 2.28489819e+01
      1.14468813e+01 2.98755074e+01 1.65259380e+01 2.24604645e+01
      2.71661743e+02 8.16374130e+01 2.41666698e+00 8.15970078e+01
      2.71530670e+02 7.46318817e+01 1.52526772e+00 7.33940430e+01
      1.78257549e+00 1.37354565e+01 4.15259247e+01 1.51314774e+01
      3.00996232e+00 1.82732182e+01 5.16730843e+01 1.77854977e+01
      8.16453552e+01 8.96292419e+01 9.96805649e+01 9.01693573e+01
      8.22599487e+01 9.48431473e+01 1.06921234e+02 9.45051651e+01
      6.37855721e+01 6.45116959e+01 6.56800613e+01 6.46209259e+01
      6.39243469e+01 6.59704132e+01 6.76298218e+01 6.58829727e+01
      1.92419395e+01 3.15275154e+01 2.83272438e+01 3.26045456e+01
      2.17912540e+01 3.86017036e+01 2.93845329e+01 3.62904854e+01
      1.31516739e+02 7.15699387e+01 9.57747173e+00 7.00550613e+01
      1.30732880e+02 6.83202057e+01 8.09967136e+00 6.80187988e+01
      9.01399231e+00 2.87801075e+01 5.08603706e+01 2.93163605e+01
      1.07563992e+01 3.33379745e+01 5.71531982e+01 3.31881142e+01
      7.21134415e+01 7.55591354e+01 7.96697998e+01 7.57158661e+01
      7.22901764e+01 7.76887207e+01 8.25335464e+01 7.75945740e+01
      6.37953529e+01 6.41577988e+01 6.47321701e+01 6.41999664e+01
      6.38486328e+01 6.48667526e+01 6.56836243e+01 6.48334732e+01</_>
    <_>
      9.09069443e+00 1.49749088e+01 8.90630627e+00 1.00668688e+01
      3.79444957e+00 1.07491627e+01 7.01846886e+00 1.59028339e+01
      1.41494904e+02 3.98826942e+01 8.40763450e-01 4.01120148e+01
      1.42475571e+02 4.10672417e+01 4.64640468e-01 4.11308708e+01
      1.23274517e+00 8.76868534e+00 2.44333057e+01 8.14766312e+00
      8.18909049e-01 8.33668613e+00 2.47211666e+01 8.73185253e+00
      4.37647171e+01 4.90190506e+01 5.45294380e+01 4.85991974e+01
      4.32353706e+01 4.88808022e+01 5.49232864e+01 4.92458801e+01
      3.38605995e+01 3.45285492e+01 3.51967087e+01 3.44251442e+01
      3.37199821e+01 3.45155640e+01 3.53223801e+01 3.46128273e+01
      1.96445599e+01 2.51350536e+01 2.05020409e+01 2.42333775e+01
      1.44728117e+01 2.54483089e+01 1.89207020e+01 2.69689808e+01
      9.45592422e+01 4.93346977e+01 6.15326023e+00 5.03915443e+01
      9.53123703e+01 5.09083900e+01 4.52895594e+00 5.06274414e+01
      7.64891243e+00 2.32686977e+01 3.94185257e+01 2.26743965e+01
      6.66530132e+00 2.28595200e+01 3.96373100e+01 2.32736874e+01
      5.28499184e+01 5.59495354e+01 5.90299950e+01 5.57331619e+01
      5.25672379e+01 5.58921967e+01 5.92409592e+01 5.60781937e+01
      4.65235443e+01 4.69818077e+01 4.74373169e+01 4.69169006e+01
      4.64349823e+01 4.69788704e+01 4.75224037e+01 4.70393944e+01</_>
    <_>
      8.76554680e+00 1.38982563e+01 8.44178295e+00 1.11846199e+01
      4.77147627e+00 1.30176296e+01 9.81138897e+00 1.43295126e+01
      1.63222748e+02 4.95159912e+01 5.03143489e-01 4.78947487e+01
      1.61579865e+02 4.33650551e+01 6.94797039e-01 4.33480492e+01
      1.12205112e+00 8.15591240e+00 2.46060410e+01 8.20640945e+00
      9.74192679e-01 1.02207603e+01 2.99639702e+01 1.03732510e+01
      4.83283234e+01 5.33307838e+01 5.93429298e+01 5.34047356e+01
      4.83772812e+01 5.56213493e+01 6.27355957e+01 5.56182861e+01
      3.77713280e+01 3.82913132e+01 3.90035782e+01 3.83073921e+01
      3.77879448e+01 3.89172211e+01 3.98825607e+01 3.89094276e+01
      1.96755142e+01 2.72196560e+01 2.10880356e+01 2.51562119e+01
      1.58114624e+01 2.73650436e+01 2.23142834e+01 2.66427078e+01
      1.01749588e+02 5.58950539e+01 4.84114027e+00 5.50480385e+01
      1.01479782e+02 5.24256287e+01 5.94639015e+00 5.19476967e+01
      7.19005537e+00 2.23261337e+01 3.94536285e+01 2.25441685e+01
      6.68202877e+00 2.52342625e+01 4.35666618e+01 2.52922344e+01
      5.55234947e+01 5.83393745e+01 6.15535927e+01 5.83880272e+01
      5.55609894e+01 5.95777702e+01 6.32778931e+01 5.95733948e+01
      4.91261749e+01 4.94651642e+01 4.99244461e+01 4.94759445e+01
      4.91369858e+01 4.98641815e+01 5.04787331e+01 4.98596725e+01</_>
    <_>
      1.33530378e+01 3.42106667e+01 2.00450134e+01 3.30825844e+01
      2.18660088e+01 3.20457954e+01 2.08286743e+01 2.87676086e+01
      4.32282928e+02 1.26479271e+02 7.97632933e-01 1.18922714e+02
      4.18012909e+02 1.14692490e+02 5.38803816e-01 1.21712952e+02
      2.88746786e+00 2.26939049e+01 6.96652069e+01 2.42821693e+01
      2.86389828e+00 2.43527508e+01 7.03947678e+01 2.33182278e+01
      1.24147873e+02 1.40213303e+02 1.57970123e+02 1.41900314e+02
      1.26291115e+02 1.41908051e+02 1.58048599e+02 1.40338043e+02
      9.76030579e+01 9.98325272e+01 1.02221054e+02 1.00272034e+02
      9.82078629e+01 1.00249466e+02 1.02196495e+02 9.98224411e+01
      2.65058880e+01 4.47758789e+01 3.39882736e+01 4.41375694e+01
      3.03461475e+01 4.14746971e+01 3.50715485e+01 4.13557701e+01
      1.65618576e+02 8.90919647e+01 5.27481556e+00 8.65499954e+01
      1.62967651e+02 8.53143234e+01 4.24991131e+00 8.74056015e+01
      1.17078142e+01 3.72887039e+01 6.65371246e+01 3.88560524e+01
      1.14606705e+01 3.90558395e+01 6.68161926e+01 3.75973053e+01
      8.89353256e+01 9.45715942e+01 1.00424484e+02 9.51628494e+01
      8.97528458e+01 9.51556931e+01 1.00420692e+02 9.45830307e+01
      7.89484863e+01 7.98525391e+01 8.08081818e+01 8.00327759e+01
      7.92011185e+01 8.00189056e+01 8.07900238e+01 7.98413773e+01</_>
    <_>
      2.75474434e+01 3.29277611e+01 2.13813972e+01 3.51746712e+01
      1.79496250e+01 4.12321739e+01 2.64940147e+01 4.42621613e+01
      4.58476532e+02 1.40584274e+02 3.37732649e+00 1.43211884e+02
      4.71311920e+02 1.26308441e+02 6.31311035e+00 1.24173927e+02
      6.05321646e+00 2.74232883e+01 7.14742889e+01 2.29829731e+01
      2.82022858e+00 3.20299034e+01 9.32348633e+01 3.46493187e+01
      1.43565384e+02 1.56452026e+02 1.72051712e+02 1.54501709e+02
      1.41178162e+02 1.64183609e+02 1.86443268e+02 1.65780136e+02
      1.10748871e+02 1.11745659e+02 1.13385902e+02 1.11325432e+02
      1.10185890e+02 1.14000839e+02 1.17193359e+02 1.14384476e+02
      3.18928604e+01 4.09484329e+01 3.45918045e+01 4.39040833e+01
      2.90795918e+01 4.81933517e+01 3.61694870e+01 4.85691757e+01
      1.69373352e+02 9.16529160e+01 1.21410046e+01 9.52016449e+01
      1.73318451e+02 8.89167557e+01 1.60922356e+01 8.66954422e+01
      1.59633121e+01 3.92281380e+01 6.67116394e+01 3.76306419e+01
      1.16394501e+01 4.43612823e+01 7.64877090e+01 4.57046700e+01
      9.56829681e+01 9.98791199e+01 1.04798386e+02 9.93442688e+01
      9.49552765e+01 1.02374748e+02 1.09095482e+02 1.02870598e+02
      8.41459503e+01 8.45232391e+01 8.51442490e+01 8.43686066e+01
      8.39311523e+01 8.53657303e+01 8.65534821e+01 8.55149689e+01</_>
    <_>
      1.51890507e+01 3.25604782e+01 2.20576744e+01 2.75325794e+01
      9.62129498e+00 2.57011490e+01 2.00983562e+01 3.01689568e+01
      3.54720123e+02 1.03123703e+02 2.33035445e+00 1.02338356e+02
      3.55954956e+02 1.00262047e+02 2.17155957e+00 9.89194870e+01
      6.94411945e+00 2.66324196e+01 6.70600052e+01 2.46387329e+01
      4.74769306e+00 2.55005760e+01 6.88376312e+01 2.72391376e+01
      1.17636444e+02 1.31163300e+02 1.45447784e+02 1.30225967e+02
      1.16352264e+02 1.30850189e+02 1.46378159e+02 1.31782135e+02
      8.95105133e+01 9.12656403e+01 9.30240097e+01 9.10522842e+01
      8.92101059e+01 9.12065201e+01 9.32450409e+01 9.14206543e+01
      2.53527660e+01 4.01003952e+01 3.14754333e+01 3.96554947e+01
      2.13899002e+01 3.88449898e+01 3.18769569e+01 3.83155594e+01
      1.48662094e+02 7.89407959e+01 9.49061108e+00 7.99006958e+01
      1.50110443e+02 7.88452682e+01 9.27857113e+00 7.73236389e+01
      1.59441967e+01 3.91464844e+01 6.48712616e+01 3.84274750e+01
      1.31486368e+01 3.90165977e+01 6.57811356e+01 3.98723679e+01
      8.63520966e+01 9.12650986e+01 9.61961975e+01 9.09792862e+01
      8.59336472e+01 9.11928711e+01 9.65131683e+01 9.15021667e+01
      7.55274811e+01 7.62698441e+01 7.70076141e+01 7.61809464e+01
      7.53994751e+01 7.62447586e+01 7.71001434e+01 7.63370972e+01</_>
    <_>
      7.70814037e+00 1.99891052e+01 1.37777987e+01 1.90134201e+01
      7.87379313e+00 2.16791553e+01 1.42826824e+01 2.28580074e+01
      2.67411926e+02 7.99385071e+01 2.86836720e+00 8.28235016e+01
      2.70663940e+02 7.39390335e+01 2.04488754e+00 7.25211029e+01
      2.86193657e+00 1.61551418e+01 4.44972191e+01 1.58465033e+01
      2.61389256e+00 1.86989727e+01 5.24847260e+01 1.89664650e+01
      8.48974686e+01 9.34651794e+01 1.03448608e+02 9.30694427e+01
      8.43905334e+01 9.67352142e+01 1.08959488e+02 9.70773544e+01
      6.54754868e+01 6.63478241e+01 6.74945297e+01 6.62483978e+01
      6.53408051e+01 6.72735443e+01 6.89581070e+01 6.73656464e+01
      2.00656052e+01 3.24921303e+01 2.60245495e+01 3.29279518e+01
      1.99629059e+01 3.57929649e+01 2.71105671e+01 3.56870537e+01
      1.29885178e+02 7.02168961e+01 1.12960205e+01 7.14238129e+01
      1.31131683e+02 6.79049377e+01 9.63949585e+00 6.72500610e+01
      1.15099888e+01 3.10114727e+01 5.26072311e+01 3.03791695e+01
      1.13453465e+01 3.39734955e+01 5.77932777e+01 3.44481163e+01
      7.35947571e+01 7.71887436e+01 8.11849747e+01 7.69688873e+01
      7.33049011e+01 7.85623856e+01 8.34373856e+01 7.87535858e+01
      6.46795044e+01 6.50979156e+01 6.56480331e+01 6.50335770e+01
      6.45916061e+01 6.55544510e+01 6.63830719e+01 6.56144867e+01</_>
    <_>
      7.99167538e+00 2.74844704e+01 2.37368565e+01 2.73358898e+01
      1.00035801e+01 2.07075100e+01 1.72719059e+01 2.05564690e+01
      3.08356262e+02 8.34260178e+01 5.09628010e+00 8.49365997e+01
      3.14164490e+02 9.60587845e+01 3.33545089e+00 9.28590012e+01
      2.98029184e+00 2.28437500e+01 6.25827026e+01 2.19675179e+01
      2.60286546e+00 1.57777948e+01 4.73506393e+01 1.66450691e+01
      9.58101959e+01 1.10914230e+02 1.24971313e+02 1.10147453e+02
      9.47619858e+01 1.03660507e+02 1.15229858e+02 1.04476631e+02
      7.42578430e+01 7.67201004e+01 7.86381989e+01 7.65187378e+01
      7.39715500e+01 7.47354431e+01 7.60896301e+01 7.49438705e+01
      2.09317741e+01 3.83830070e+01 3.22723122e+01 3.84798660e+01
      1.92455025e+01 3.35739250e+01 2.89662685e+01 3.36255074e+01
      1.39879791e+02 7.15885696e+01 1.31846733e+01 7.25959854e+01
      1.41313614e+02 7.75790634e+01 1.06167841e+01 7.60525513e+01
      1.10470819e+01 3.67841682e+01 6.22348938e+01 3.60139122e+01
      1.01308775e+01 3.06000805e+01 5.43428688e+01 3.15286140e+01
      7.80497513e+01 8.39559860e+01 8.91119995e+01 8.36413269e+01
      7.75872955e+01 8.12078552e+01 8.56602173e+01 8.15516968e+01
      6.88153992e+01 6.99366913e+01 7.07989120e+01 6.98373947e+01
      6.86720505e+01 6.90377121e+01 6.96688004e+01 6.91414337e+01</_>
    <_>
      1.76458397e+01 1.57593794e+01 1.16981707e+01 1.44230022e+01
      6.33474064e+00 1.68280010e+01 1.10324268e+01 1.83157291e+01
      2.20354965e+02 6.33383446e+01 5.80082774e-01 6.01385422e+01
      2.08468109e+02 5.89544563e+01 8.64710271e-01 6.24756393e+01
      1.71976900e+00 1.05116959e+01 3.24840050e+01 1.11105433e+01
      1.64247656e+00 1.20606871e+01 3.50667114e+01 1.16907387e+01
      6.03516617e+01 6.76415863e+01 7.59008484e+01 6.81099472e+01
      6.09446945e+01 6.92070389e+01 7.75866547e+01 6.87788391e+01
      4.76174889e+01 4.85353432e+01 4.95889702e+01 4.86449814e+01
      4.77680092e+01 4.89544830e+01 5.00352058e+01 4.88489189e+01
      2.89420013e+01 3.02179508e+01 2.47311420e+01 2.84319153e+01
      1.72309055e+01 3.01744938e+01 2.46634254e+01 3.12743797e+01
      1.17160507e+02 6.27720146e+01 4.93775749e+00 6.10994415e+01
      1.14694649e+02 6.03388634e+01 6.18629503e+00 6.17998352e+01
      9.49338150e+00 2.52445507e+01 4.54024086e+01 2.59635143e+01
      8.66691017e+00 2.71166172e+01 4.71462936e+01 2.64386711e+01
      6.20686340e+01 6.57360535e+01 6.96503983e+01 6.59656143e+01
      6.23909111e+01 6.65122299e+01 7.04355087e+01 6.62890472e+01
      5.51849709e+01 5.57139969e+01 5.63163872e+01 5.57784424e+01
      5.52755928e+01 5.59614410e+01 5.65763626e+01 5.58978996e+01</_>
    <_>
      1.20335922e+01 3.19668636e+01 2.02306995e+01 3.39492760e+01
      1.43288813e+01 3.00337582e+01 1.91214123e+01 2.80529118e+01
      4.31503845e+02 1.18665298e+02 1.31583548e+00 1.18676323e+02
      4.31412689e+02 1.25910675e+02 1.15059912e+00 1.26785378e+02
      4.70864820e+00 2.83325787e+01 7.91804047e+01 2.70296555e+01
      2.62628984e+00 2.36278381e+01 6.98780823e+01 2.48182640e+01
      1.31999619e+02 1.50523117e+02 1.69021118e+02 1.50205200e+02
      1.31562744e+02 1.46095642e+02 1.62752319e+02 1.46349014e+02
      1.02551247e+02 1.05346802e+02 1.07825119e+02 1.05303497e+02
      1.02494377e+02 1.04146927e+02 1.06161789e+02 1.04181618e+02
      2.36829243e+01 4.37582550e+01 3.41620216e+01 4.42002563e+01
      2.64754219e+01 4.20136566e+01 3.30701218e+01 4.08536873e+01
      1.65026123e+02 8.61607590e+01 7.52915430e+00 8.66984406e+01
      1.65874237e+02 8.91615067e+01 7.25058270e+00 8.89646988e+01
      1.34431210e+01 4.13106918e+01 7.07991028e+01 4.11904259e+01
      1.15836811e+01 3.82572937e+01 6.63610535e+01 3.82456627e+01
      9.16270676e+01 9.79153595e+01 1.03832306e+02 9.79050446e+01
      9.16282196e+01 9.65523911e+01 1.01883316e+02 9.65366821e+01
      8.09053192e+01 8.20064926e+01 8.29765549e+01 8.20084076e+01
      8.09106598e+01 8.15592422e+01 8.23372116e+01 8.15533295e+01</_>
    <_>
      3.04983864e+01 4.18416519e+01 2.57923985e+01 3.38756943e+01
      1.55514641e+01 3.42592392e+01 2.64546604e+01 4.23690147e+01
      4.76064545e+02 1.40654709e+02 2.88419795e+00 1.35854630e+02
      4.66849152e+02 1.31165726e+02 2.57489610e+00 1.32970932e+02
      5.14832878e+00 2.98135147e+01 8.30123138e+01 3.32290192e+01
      9.92509270e+00 3.43653450e+01 8.64123154e+01 3.05976391e+01
      1.46719833e+02 1.64121536e+02 1.83500183e+02 1.65641449e+02
      1.48849655e+02 1.67154175e+02 1.85816238e+02 1.65651566e+02
      1.13244934e+02 1.15495926e+02 1.17989555e+02 1.15812248e+02
      1.13688637e+02 1.16231285e+02 1.18593864e+02 1.15919998e+02
      3.52568550e+01 4.72202530e+01 3.36033936e+01 4.47120934e+01
      2.76173515e+01 4.45442886e+01 3.48852081e+01 4.77819443e+01
      1.73618820e+02 9.32707596e+01 1.15268250e+01 8.98899765e+01
      1.68889984e+02 8.82187042e+01 1.10124254e+01 9.12648849e+01
      1.55397377e+01 4.17744751e+01 7.20467758e+01 4.33832283e+01
      2.15249596e+01 4.46855774e+01 7.40172653e+01 4.31957283e+01
      9.65046844e+01 1.02110550e+02 1.08072556e+02 1.02648338e+02
      9.72504501e+01 1.03189140e+02 1.08857582e+02 1.02674454e+02
      8.49618988e+01 8.58069916e+01 8.67504654e+01 8.59613953e+01
      8.51778488e+01 8.61336823e+01 8.69969254e+01 8.59828262e+01</_>
    <_>
      7.37725163e+00 2.08365231e+01 1.41152239e+01 1.97444000e+01
      6.75774813e+00 1.87322235e+01 1.16875362e+01 1.90770073e+01
      2.65039551e+02 7.40803223e+01 1.63730943e+00 7.45518265e+01
      2.67000641e+02 7.64745483e+01 6.45173252e-01 7.65832062e+01
      2.49823356e+00 1.77747517e+01 4.93179665e+01 1.72205334e+01
      2.06335950e+00 1.61671219e+01 4.65152550e+01 1.66031532e+01
      8.41049805e+01 9.50380478e+01 1.06263771e+02 9.47772293e+01
      8.37826538e+01 9.36644592e+01 1.04554115e+02 9.38834381e+01
      6.49761276e+01 6.65147247e+01 6.79639740e+01 6.64585114e+01
      6.49009399e+01 6.61533966e+01 6.75234833e+01 6.62045670e+01
      1.86500797e+01 3.36969795e+01 2.63126850e+01 3.44369202e+01
      1.92453823e+01 3.35025139e+01 2.60481873e+01 3.35414734e+01
      1.29566544e+02 6.76957092e+01 8.30870342e+00 6.84723206e+01
      1.30337204e+02 6.95308838e+01 5.33381319e+00 6.92640457e+01
      1.07600536e+01 3.31686478e+01 5.59888954e+01 3.28560295e+01
      1.02093582e+01 3.17686272e+01 5.43199501e+01 3.19581509e+01
      7.33136292e+01 7.79587097e+01 8.24515915e+01 7.78637390e+01
      7.31938095e+01 7.73849258e+01 8.17556381e+01 7.74589081e+01
      6.44750061e+01 6.52380829e+01 6.59474564e+01 6.52122192e+01
      6.44405594e+01 6.50564041e+01 6.57246399e+01 6.50792007e+01</_>
    <_>
      1.76333904e+01 1.72808228e+01 9.51775265e+00 1.36998224e+01
      7.09181929e+00 1.26077375e+01 9.24995995e+00 1.45017319e+01
      1.99968094e+02 5.58950691e+01 2.60711700e-01 5.19463120e+01
      1.89997635e+02 5.45112152e+01 1.53711915e-01 5.79797287e+01
      1.28007114e+00 1.09606571e+01 3.32232475e+01 1.13294363e+01
      9.78334367e-01 9.95579243e+00 2.98152637e+01 9.63087463e+00
      5.62180786e+01 6.42646866e+01 7.26117477e+01 6.47888718e+01
      5.68930664e+01 6.32891159e+01 7.03606796e+01 6.27812958e+01
      4.42608376e+01 4.54690552e+01 4.66130981e+01 4.56049500e+01
      4.44491463e+01 4.51889954e+01 4.60187263e+01 4.50550194e+01
      2.85232220e+01 3.00195389e+01 2.36846848e+01 2.92966385e+01
      1.83579807e+01 2.80359612e+01 2.31658516e+01 2.84142456e+01
      1.12043419e+02 5.90101204e+01 3.17277336e+00 5.75109062e+01
      1.10152252e+02 5.89595985e+01 2.43191648e+00 6.02281380e+01
      8.10087013e+00 2.59491215e+01 4.59832611e+01 2.67490406e+01
      7.31704473e+00 2.51147137e+01 4.36011391e+01 2.43704548e+01
      5.99209633e+01 6.40797119e+01 6.81334915e+01 6.43628922e+01
      6.03142052e+01 6.36178894e+01 6.70766678e+01 6.33441658e+01
      5.32048187e+01 5.39268112e+01 5.46029892e+01 5.40105515e+01
      5.33222389e+01 5.37642097e+01 5.42548485e+01 5.36818466e+01</_>
    <_>
      8.94190598e+00 2.17376690e+01 1.47070074e+01 2.39102993e+01
      1.34272070e+01 2.22272587e+01 1.50797558e+01 2.06435318e+01
      2.87655548e+02 7.97843628e+01 5.09642661e-01 8.80460510e+01
      3.09861694e+02 9.09627762e+01 6.45615160e-01 8.23890610e+01
      4.58378649e+00 2.01212788e+01 5.23561440e+01 1.73482342e+01
      2.50192904e+00 1.60091858e+01 4.91799622e+01 1.92003975e+01
      9.14987869e+01 1.03016823e+02 1.14252884e+02 1.00876839e+02
      8.85592270e+01 9.93795395e+01 1.12056778e+02 1.01617317e+02
      7.03079071e+01 7.19121246e+01 7.32641373e+01 7.13835754e+01
      6.95600510e+01 7.09691696e+01 7.26779861e+01 7.15085907e+01
      2.03760910e+01 3.53588600e+01 2.80339470e+01 3.75856171e+01
      2.45487347e+01 3.63276711e+01 2.77680607e+01 3.29659271e+01
