<?xml version="1.0"?>
<opencv_storage>
<opencv_ml_svm>
  <format>3</format>
  <svmType>C_SVC</svmType>
  <kernel>
    <type>RBF</type>
    <gamma>1.0000000000000001e-05</gamma></kernel>
  <C>2.5000000000000000e+00</C>
  <term_criteria><epsilon>1.1920928955078125e-07</epsilon>
    <iterations>1000</iterations></term_criteria>
  <var_count>80</var_count>
  <class_count>2</class_count>
  <class_labels type_id="opencv-matrix">
    <rows>2</rows>
    <cols>1</cols>
    <dt>i</dt>
    <data>
      0 1</data></class_labels>
  <sv_total>671</sv_total>
  <support_vectors>
    <_>
      3.68120766e+01 7.51990051e+01 5.05949669e+01 7.31591644e+01
      7.33999252e+01 1.17613678e+02 5.58190117e+01 8.39430466e+01
      1.02639819e+03 3.02368561e+02 6.02878237e+00 2.87739441e+02
      1.00394952e+03 2.90441223e+02 1.55217409e+01 2.89596222e+02
      1.04619417e+01 5.45235786e+01 1.59439682e+02 5.52900276e+01
      9.98075008e+00 7.16287613e+01 1.94266434e+02 6.96105728e+01
      3.05552429e+02 3.37216858e+02 3.75528717e+02 3.38780334e+02
      3.07583466e+02 3.53151886e+02 3.97146057e+02 3.51603149e+02
      2.38109909e+02 2.41397995e+02 2.46000839e+02 2.41803665e+02
      2.38669678e+02 2.45762680e+02 2.51675354e+02 2.45365860e+02
      7.02277603e+01 1.07743332e+02 8.98337860e+01 1.06237671e+02
      8.88261414e+01 1.25263832e+02 9.11830521e+01 1.19175896e+02
      4.36593536e+02 2.34360443e+02 2.82534523e+01 2.31652145e+02
      4.33963379e+02 2.28027496e+02 4.34970360e+01 2.28901917e+02
      3.57748528e+01 9.87060623e+01 1.72768646e+02 9.97641525e+01
      3.30824814e+01 1.08437508e+02 1.86113388e+02 1.07725243e+02
      2.39666962e+02 2.52262039e+02 2.66286896e+02 2.52592209e+02
      2.40097458e+02 2.56906616e+02 2.72499786e+02 2.56628906e+02
      2.11903107e+02 2.13480164e+02 2.15517914e+02 2.13572403e+02
      2.12028458e+02 2.15040024e+02 2.17604111e+02 2.14955109e+02</_>
    <_>
      5.59285011e+01 1.26580605e+02 1.07607826e+02 2.20146393e+02
      1.63097794e+02 2.30924622e+02 9.88619843e+01 1.52120605e+02
      1.70755725e+03 4.99572632e+02 2.07181797e+01 5.58231873e+02
      1.85559448e+03 5.43915955e+02 2.76373386e+01 4.79838348e+02
      2.70956268e+01 1.20825356e+02 3.08932617e+02 1.17318008e+02
      4.27307587e+01 1.43128021e+02 3.53131653e+02 1.35905258e+02
      5.61994751e+02 6.21039185e+02 6.85701294e+02 6.14136353e+02
      5.54633606e+02 6.32759033e+02 7.12063416e+02 6.37624939e+02
      4.29467072e+02 4.35956940e+02 4.43270325e+02 4.34123322e+02
      4.27068481e+02 4.38964691e+02 4.50045319e+02 4.40586853e+02
      8.24181137e+01 1.39973190e+02 1.23847557e+02 1.65635422e+02
      1.32430481e+02 1.71538925e+02 1.18057304e+02 1.51429901e+02
      5.64404297e+02 2.99394165e+02 4.86785355e+01 3.13980988e+02
      5.82402344e+02 3.06915558e+02 5.71299667e+01 2.95103760e+02
      5.01554871e+01 1.40000656e+02 2.34286713e+02 1.32381012e+02
      6.05335007e+01 1.40239883e+02 2.45507919e+02 1.47246613e+02
      3.21658752e+02 3.38780945e+02 3.56191681e+02 3.36086334e+02
      3.17926300e+02 3.39669617e+02 3.61236176e+02 3.42263062e+02
      2.82484436e+02 2.84763947e+02 2.87151764e+02 2.83966309e+02
      2.81367157e+02 2.85151825e+02 2.88821594e+02 2.85934937e+02</_>
    <_>
      2.56634464e+01 5.82298965e+01 4.29266167e+01 6.83140488e+01
      3.04189243e+01 7.60316544e+01 4.33025475e+01 7.06923904e+01
      8.52434998e+02 2.47311264e+02 2.31420970e+00 2.49031418e+02
      8.41207397e+02 2.32692596e+02 3.84379911e+00 2.36086472e+02
      7.63176584e+00 4.56036530e+01 1.33697449e+02 4.56765137e+01
      6.85068083e+00 5.49478607e+01 1.55537003e+02 5.45520668e+01
      2.55643326e+02 2.83257751e+02 3.15304901e+02 2.83438629e+02
      2.55973892e+02 2.92824921e+02 3.29285156e+02 2.92452423e+02
      1.99248627e+02 2.02325409e+02 2.06190140e+02 2.02383026e+02
      1.99344910e+02 2.04949066e+02 2.09846085e+02 2.04867096e+02
      6.34106026e+01 9.99364395e+01 8.28112259e+01 1.03599358e+02
      6.47478561e+01 1.08393242e+02 8.45661011e+01 1.09702133e+02
      4.02695831e+02 2.16396774e+02 1.53701220e+01 2.15705170e+02
      3.99495392e+02 2.07253036e+02 2.11530724e+01 2.10808121e+02
      3.13920135e+01 9.07956085e+01 1.59007507e+02 9.13101120e+01
      3.04475937e+01 9.96426468e+01 1.70808243e+02 9.84370956e+01
      2.20327667e+02 2.32165710e+02 2.45136536e+02 2.32375549e+02
      2.20709717e+02 2.36061584e+02 2.50311234e+02 2.35733643e+02
      1.94906372e+02 1.96444763e+02 1.98347839e+02 1.96511047e+02
      1.95012360e+02 1.97716187e+02 2.00043320e+02 1.97632629e+02</_>
    <_>
      3.22971802e+01 6.72284698e+01 4.08379135e+01 5.90052185e+01
      2.45496235e+01 6.17313385e+01 4.55094261e+01 7.50843506e+01
      8.64067444e+02 2.46808075e+02 2.79549170e+00 2.33318375e+02
      8.19609131e+02 2.29367645e+02 7.62180042e+00 2.57090393e+02
      1.02341537e+01 4.89841690e+01 1.42421844e+02 5.15824852e+01
      8.63795090e+00 5.49625511e+01 1.50189117e+02 5.39806595e+01
      2.54457214e+02 2.85472412e+02 3.20369202e+02 2.88492798e+02
      2.58406494e+02 2.91360931e+02 3.24630737e+02 2.88342957e+02
      1.98504440e+02 2.02591461e+02 2.07186584e+02 2.03392761e+02
      1.99629181e+02 2.04158173e+02 2.08273376e+02 2.03346970e+02
      6.64471207e+01 1.02691666e+02 8.21736984e+01 1.01379265e+02
      6.09971962e+01 1.02016113e+02 8.18878403e+01 1.08688263e+02
      4.03149902e+02 2.13973145e+02 1.83312244e+01 2.09303360e+02
      3.94500641e+02 2.06848129e+02 2.74698238e+01 2.15303284e+02
      3.29816208e+01 9.33647537e+01 1.64032715e+02 9.66837082e+01
      3.23242149e+01 9.90399399e+01 1.66946747e+02 9.48405991e+01
      2.19981583e+02 2.33312149e+02 2.47325150e+02 2.34614029e+02
      2.21922195e+02 2.35664124e+02 2.48723221e+02 2.34213638e+02
      1.94772339e+02 1.96802643e+02 1.99043503e+02 1.97205566e+02
      1.95357132e+02 1.97550720e+02 1.99517609e+02 1.97126297e+02</_>
    <_>
      4.94796982e+01 1.01217850e+02 7.46660080e+01 9.96692734e+01
      4.45474892e+01 9.28174973e+01 6.96009750e+01 1.02782494e+02
      1.28000781e+03 3.61929413e+02 6.93422890e+00 3.51473511e+02
      1.26153589e+03 3.67543030e+02 9.39974308e+00 3.79264130e+02
      1.38143396e+01 7.98329773e+01 2.27946838e+02 8.55976410e+01
      2.00720978e+01 8.23759155e+01 2.14208740e+02 7.49778748e+01
      3.83714752e+02 4.35909912e+02 4.90897614e+02 4.40168549e+02
      3.89700226e+02 4.33526123e+02 4.80512665e+02 4.28922394e+02
      2.98819489e+02 3.06486908e+02 3.13982025e+02 3.07556702e+02
      3.00344147e+02 3.05603668e+02 3.11154724e+02 3.04496826e+02
      7.48824768e+01 1.27734993e+02 1.01574654e+02 1.27663040e+02
      7.96851883e+01 1.24327866e+02 1.00644936e+02 1.24382629e+02
      4.89167633e+02 2.58486603e+02 2.98180790e+01 2.53121368e+02
      4.82975189e+02 2.56834076e+02 3.29008446e+01 2.62480560e+02
      3.82977486e+01 1.16549751e+02 2.04095169e+02 1.20231415e+02
      5.36193161e+01 1.15756966e+02 1.97404556e+02 1.11985901e+02
      2.67301666e+02 2.85065460e+02 3.02750275e+02 2.86507416e+02
      2.69338226e+02 2.84446289e+02 2.99796753e+02 2.82987640e+02
      2.36702118e+02 2.39701691e+02 2.42635223e+02 2.40148376e+02
      2.37334839e+02 2.39464569e+02 2.41664352e+02 2.39015305e+02</_>
    <_>
      1.92116814e+01 3.79665604e+01 2.60553417e+01 3.61394310e+01
      1.85485859e+01 3.82726440e+01 2.44534607e+01 3.56952362e+01
      4.89732880e+02 1.39675995e+02 3.38972640e+00 1.43545563e+02
      4.96124756e+02 1.41367859e+02 1.97102118e+00 1.37076843e+02
      3.73657393e+00 2.89548645e+01 8.34765244e+01 2.88402805e+01
      3.74532151e+00 2.84205151e+01 8.45762711e+01 2.93360348e+01
      1.48625549e+02 1.66807938e+02 1.86229034e+02 1.66129761e+02
      1.47619720e+02 1.66856979e+02 1.87482697e+02 1.67696884e+02
      1.15725845e+02 1.18077354e+02 1.20478249e+02 1.17881538e+02
      1.15440331e+02 1.18128426e+02 1.20845306e+02 1.18341217e+02
      5.04853172e+01 7.84669189e+01 6.39129562e+01 7.68631058e+01
      4.76870461e+01 8.06303329e+01 6.35664787e+01 7.93623962e+01
      3.05522034e+02 1.62429459e+02 2.14951572e+01 1.62977692e+02
      3.06647125e+02 1.62812851e+02 1.64602470e+01 1.61027252e+02
      2.19476929e+01 7.20015182e+01 1.24590111e+02 7.12811127e+01
      2.24282303e+01 7.24601059e+01 1.26563362e+02 7.34534378e+01
      1.68306396e+02 1.78257324e+02 1.88363983e+02 1.77936874e+02
      1.67826172e+02 1.78543732e+02 1.89263840e+02 1.78908997e+02
      1.48701233e+02 1.50186340e+02 1.51706604e+02 1.50082336e+02
      1.48549988e+02 1.50290298e+02 1.52005951e+02 1.50400711e+02</_>
    <_>
      1.29757195e+01 3.12990112e+01 2.47208939e+01 2.89465733e+01
      1.04901047e+01 2.61420212e+01 1.92651939e+01 3.11662884e+01
      4.03961884e+02 1.16616905e+02 2.30174541e+00 1.08797806e+02
      3.82067444e+02 1.06548538e+02 2.45525980e+00 1.16210442e+02
      3.16113663e+00 2.21338425e+01 6.61205063e+01 2.33218422e+01
      3.12313986e+00 2.42981663e+01 6.78412094e+01 2.27244968e+01
      1.16955322e+02 1.31845947e+02 1.48328278e+02 1.33314484e+02
      1.18971863e+02 1.33974884e+02 1.49229568e+02 1.32387238e+02
      9.17327805e+01 9.37449493e+01 9.59365768e+01 9.41300964e+01
      9.22805939e+01 9.42914429e+01 9.61574783e+01 9.38923416e+01
      4.34840736e+01 7.08554764e+01 5.93795547e+01 6.98566360e+01
      3.99675140e+01 6.89529190e+01 5.62791290e+01 7.33136749e+01
      2.76651154e+02 1.47300217e+02 1.59855785e+01 1.43100601e+02
      2.69786133e+02 1.41596741e+02 1.73433380e+01 1.47415802e+02
      2.17421379e+01 6.30041084e+01 1.11648933e+02 6.55558624e+01
      2.06725922e+01 6.64698715e+01 1.12714989e+02 6.35480919e+01
      1.49378555e+02 1.58665894e+02 1.68353790e+02 1.59617401e+02
      1.50766037e+02 1.59968796e+02 1.68809967e+02 1.58955276e+02
      1.32471298e+02 1.33922089e+02 1.35486465e+02 1.34210297e+02
      1.32885040e+02 1.34318878e+02 1.35633804e+02 1.34021698e+02</_>
    <_>
      1.25593233e+01 2.02742748e+01 1.30654545e+01 1.79194183e+01
      6.21687222e+00 1.89306755e+01 1.76352882e+01 1.70815163e+01
      2.15488342e+02 6.26978569e+01 1.88935149e+00 6.17550697e+01
      2.16411087e+02 6.23005333e+01 3.46800327e+00 6.18033409e+01
      2.65868974e+00 1.37843351e+01 3.83809052e+01 1.33502216e+01
      1.84960127e+00 1.34215155e+01 3.82800980e+01 1.42244301e+01
      6.66814728e+01 7.51136551e+01 8.40156708e+01 7.49973755e+01
      6.64447556e+01 7.45826950e+01 8.34362717e+01 7.47992935e+01
      5.16362534e+01 5.28118706e+01 5.39613380e+01 5.27909470e+01
      5.15984306e+01 5.26504974e+01 5.37669792e+01 5.26827698e+01
      3.82804260e+01 5.52936974e+01 4.28885078e+01 5.43616409e+01
      3.09959831e+01 5.34111061e+01 4.84502945e+01 4.99982605e+01
      2.01014435e+02 1.07284630e+02 1.47519093e+01 1.07620956e+02
      2.02864563e+02 1.07252472e+02 1.88170509e+01 1.05378967e+02
      1.91207008e+01 4.97272263e+01 8.51053085e+01 4.95297546e+01
      1.52994566e+01 4.87910347e+01 8.41401901e+01 4.93449249e+01
      1.12779907e+02 1.19802803e+02 1.26750427e+02 1.19731224e+02
      1.12633789e+02 1.19284859e+02 1.26146278e+02 1.19416367e+02
      9.93956299e+01 1.00535919e+02 1.01629051e+02 1.00514626e+02
      9.93592224e+01 1.00353241e+02 1.01405869e+02 1.00383263e+02</_>
    <_>
      3.69491920e+01 9.43827744e+01 6.71487274e+01 1.00428215e+02
      4.90473633e+01 1.15408897e+02 8.36316833e+01 1.01195747e+02
      1.27742322e+03 3.73697723e+02 1.01007557e+01 3.56881226e+02
      1.23917200e+03 3.54057922e+02 1.40259180e+01 3.63866333e+02
      1.19415874e+01 7.44186401e+01 2.14083267e+02 7.83578644e+01
      1.53182964e+01 8.26533051e+01 2.21895813e+02 7.53320389e+01
      3.78063751e+02 4.24915741e+02 4.76847137e+02 4.28884888e+02
      3.83711090e+02 4.32516022e+02 4.81968628e+02 4.28008209e+02
      2.95240204e+02 3.01408417e+02 3.08211731e+02 3.02432404e+02
      2.96709290e+02 3.03406006e+02 3.09570312e+02 3.02329193e+02
      7.50940704e+01 1.26570900e+02 1.01805580e+02 1.25869614e+02
      8.05731964e+01 1.32404572e+02 1.07252586e+02 1.29102646e+02
      4.91512878e+02 2.63114990e+02 3.55507698e+01 2.56326080e+02
      4.82498718e+02 2.53036682e+02 4.17396317e+01 2.59885101e+02
      3.73205338e+01 1.13367897e+02 1.99286240e+02 1.17180946e+02
      4.50635605e+01 1.20603340e+02 2.04278442e+02 1.16750435e+02
      2.68467499e+02 2.84468353e+02 3.01400909e+02 2.85860138e+02
      2.70436188e+02 2.87374878e+02 3.03553131e+02 2.85974518e+02
      2.37599823e+02 2.40009384e+02 2.42688507e+02 2.40427521e+02
      2.38191727e+02 2.40921799e+02 2.43387726e+02 2.40502289e+02</_>
    <_>
      4.52224159e+01 1.37761597e+02 1.17566368e+02 1.99027512e+02
      1.25819023e+02 1.50723923e+02 9.69356003e+01 1.15820328e+02
      1.57738342e+03 4.55886353e+02 3.37134438e+01 4.58832764e+02
      1.55918518e+03 4.55330505e+02 1.66292820e+01 4.59757080e+02
      1.52729235e+01 1.03138657e+02 2.93638153e+02 1.16125763e+02
      2.40649776e+01 9.55012283e+01 2.60357971e+02 8.89912338e+01
      4.71103973e+02 5.37246094e+02 6.06690430e+02 5.43525879e+02
      4.78706787e+02 5.30999146e+02 5.89034973e+02 5.25972717e+02
      3.67353241e+02 3.77130005e+02 3.86598999e+02 3.78554169e+02
      3.69254730e+02 3.75417175e+02 3.82212830e+02 3.74125397e+02
      8.26777267e+01 1.45931152e+02 1.24738373e+02 1.61127884e+02
      1.25065041e+02 1.46447693e+02 1.18602707e+02 1.37184921e+02
      5.46880127e+02 2.89010834e+02 6.13080330e+01 2.82668884e+02
      5.41374878e+02 2.88611511e+02 4.76638870e+01 2.92037079e+02
      4.41119270e+01 1.31477158e+02 2.29395294e+02 1.35650833e+02
      5.65047798e+01 1.29160660e+02 2.21033813e+02 1.26216530e+02
      2.99633118e+02 3.19540527e+02 3.39261383e+02 3.20910858e+02
      3.01458679e+02 3.18243317e+02 3.35556671e+02 3.17014526e+02
      2.65052063e+02 2.68426483e+02 2.71682800e+02 2.68838165e+02
      2.65618408e+02 2.67968811e+02 2.70465637e+02 2.67578247e+02</_>
    <_>
      3.39582901e+01 6.76770554e+01 3.91810341e+01 5.84951744e+01
      2.09146175e+01 5.16571884e+01 3.93987122e+01 5.68519897e+01
      8.29588562e+02 2.37119186e+02 2.64832997e+00 2.17630280e+02
      7.90354675e+02 2.26046082e+02 2.20038056e+00 2.39296188e+02
      6.61051369e+00 4.84941978e+01 1.43428421e+02 5.08300896e+01
      6.36437702e+00 4.62320938e+01 1.30883881e+02 4.33496819e+01
      2.41352249e+02 2.75371246e+02 3.11075531e+02 2.78423248e+02
      2.45347885e+02 2.72687378e+02 3.02411957e+02 2.69662354e+02
      1.89253128e+02 1.94355270e+02 1.99288956e+02 1.95150375e+02
      1.90358154e+02 1.93519623e+02 1.96957016e+02 1.92731674e+02
      6.71385422e+01 1.07294098e+02 8.09929047e+01 1.03189590e+02
      5.82061729e+01 9.69218216e+01 8.10234985e+01 9.72839584e+01
      3.96228424e+02 2.10283203e+02 1.79663677e+01 2.03199493e+02
      3.88179230e+02 2.06467438e+02 1.70799389e+01 2.11688354e+02
      2.97517281e+01 9.35067596e+01 1.64890793e+02 9.72988434e+01
      2.93989391e+01 9.23747559e+01 1.57786789e+02 8.90190506e+01
      2.14843140e+02 2.29513367e+02 2.44022125e+02 2.30865051e+02
      2.16696808e+02 2.28510239e+02 2.40704147e+02 2.27232330e+02
      1.90452530e+02 1.92994095e+02 1.95431030e+02 1.93395569e+02
      1.91012283e+02 1.92603516e+02 1.94315506e+02 1.92212769e+02</_>
    <_>
      4.32755127e+01 6.85161438e+01 3.10092182e+01 3.77517967e+01
      1.79039230e+01 3.98901863e+01 2.93248997e+01 4.35134888e+01
      5.19929810e+02 1.59755981e+02 7.05019474e+00 1.45846558e+02
      5.13388428e+02 1.46881638e+02 3.53126359e+00 1.46676651e+02
      5.44451904e+00 3.19507122e+01 8.80590134e+01 3.00577106e+01
      3.48455977e+00 2.98222790e+01 8.78496323e+01 3.08514233e+01
      1.55188171e+02 1.74490692e+02 1.95076096e+02 1.74271942e+02
      1.54809387e+02 1.74435791e+02 1.95425217e+02 1.74745499e+02
      1.20735718e+02 1.23306458e+02 1.25927727e+02 1.23275597e+02
      1.20679230e+02 1.23344284e+02 1.26039703e+02 1.23392487e+02
      7.29338303e+01 9.25083008e+01 6.69547653e+01 8.03304596e+01
      5.09091492e+01 8.28866196e+01 6.51450424e+01 8.19007568e+01
      3.11589996e+02 1.65128448e+02 3.16517487e+01 1.65322739e+02
      3.12707581e+02 1.66342529e+02 2.20165520e+01 1.65075302e+02
      2.73162518e+01 7.46544037e+01 1.28786209e+02 7.44850082e+01
      2.25038872e+01 7.45704956e+01 1.29176559e+02 7.50496445e+01
      1.72390472e+02 1.82809402e+02 1.93330246e+02 1.82730377e+02
      1.72238144e+02 1.82870285e+02 1.93572647e+02 1.83006149e+02
      1.52183472e+02 1.53788300e+02 1.55408463e+02 1.53761658e+02
      1.52139816e+02 1.53819473e+02 1.55496658e+02 1.53854660e+02</_>
    <_>
      6.81580353e+01 7.71043777e+01 4.38229828e+01 4.36998062e+01
      1.69539814e+01 4.49950523e+01 4.22189789e+01 8.55135651e+01
      6.94745789e+02 2.20493439e+02 8.51904869e+00 1.67233841e+02
      5.85094299e+02 1.64388748e+02 9.95427704e+00 2.19797836e+02
      2.10174370e+01 3.87868805e+01 9.67212677e+01 3.38068771e+01
      4.79417515e+00 3.63777466e+01 1.03169510e+02 4.29132881e+01
      1.74213333e+02 1.95444168e+02 2.20065002e+02 1.98398972e+02
      1.77581360e+02 2.00583786e+02 2.23505630e+02 1.97900879e+02
      1.37012222e+02 1.39910782e+02 1.43322388e+02 1.40870239e+02
      1.38320236e+02 1.41450821e+02 1.44171158e+02 1.40518799e+02
      8.74635086e+01 9.78209229e+01 7.66425323e+01 8.40971375e+01
      4.99587326e+01 8.55935211e+01 7.70204010e+01 1.05327934e+02
      3.44360931e+02 1.84703949e+02 3.35452728e+01 1.77008026e+02
      3.33758667e+02 1.74900375e+02 3.34941711e+01 1.85082352e+02
      4.98778610e+01 7.82488632e+01 1.34181778e+02 7.80021744e+01
      2.38981819e+01 8.02348328e+01 1.37407776e+02 8.03671417e+01
      1.81487350e+02 1.92758865e+02 2.04842636e+02 1.94360352e+02
      1.83761185e+02 1.95366348e+02 2.06264847e+02 1.93745178e+02
      1.61761139e+02 1.63480347e+02 1.65437775e+02 1.63960632e+02
      1.62442139e+02 1.64291977e+02 1.65905289e+02 1.63808823e+02</_>
    <_>
      3.99734573e+01 8.25287399e+01 5.96485519e+01 8.54464188e+01
      4.99435272e+01 8.31876678e+01 6.06521606e+01 1.00407059e+02
      1.13419470e+03 3.34132965e+02 6.89245224e+00 3.14432129e+02
      1.08182092e+03 2.98119415e+02 7.21717978e+00 3.27321564e+02
      1.02844076e+01 6.38453445e+01 1.88424728e+02 7.50722656e+01
      2.06702881e+01 8.06960907e+01 2.02572357e+02 6.85388107e+01
      3.35683685e+02 3.76075592e+02 4.23187347e+02 3.83960022e+02
      3.46595490e+02 3.90489929e+02 4.32804169e+02 3.82242615e+02
      2.62371124e+02 2.67544067e+02 2.73856079e+02 2.69484833e+02
      2.65122314e+02 2.71290314e+02 2.76412292e+02 2.69306305e+02
      7.33225708e+01 1.16720963e+02 9.40531693e+01 1.16100815e+02
      7.69868393e+01 1.17852890e+02 9.38047714e+01 1.26105949e+02
      4.61980499e+02 2.47968262e+02 2.74084702e+01 2.38780273e+02
      4.48471649e+02 2.33113617e+02 2.95053959e+01 2.44932587e+02
      3.66389008e+01 1.06090004e+02 1.87224915e+02 1.11981316e+02
      4.59329834e+01 1.17180840e+02 1.94455734e+02 1.10687141e+02
      2.52654907e+02 2.67454346e+02 2.83598328e+02 2.69692444e+02
      2.55879959e+02 2.71955719e+02 2.86754700e+02 2.69616852e+02
      2.23604477e+02 2.25791702e+02 2.28389740e+02 2.26475037e+02
      2.24580292e+02 2.27210526e+02 2.29421585e+02 2.26512497e+02</_>
    <_>
      5.87984924e+01 1.28022369e+02 6.86868820e+01 1.14402054e+02
      5.25651665e+01 9.63579254e+01 7.72024002e+01 1.14802292e+02
      1.41886487e+03 4.04871521e+02 1.05458488e+01 3.86763794e+02
      1.39119104e+03 4.01620605e+02 1.31814451e+01 4.19879608e+02
      1.25020037e+01 9.01202927e+01 2.58173187e+02 9.06877365e+01
      1.19706612e+01 8.25679398e+01 2.32648895e+02 8.15509796e+01
      4.27943665e+02 4.88478821e+02 5.50087097e+02 4.90487030e+02
      4.30714081e+02 4.77737152e+02 5.30580444e+02 4.75621399e+02
      3.33038513e+02 3.42250183e+02 3.50646393e+02 3.42798126e+02
      3.33815002e+02 3.39049347e+02 3.45260193e+02 3.38489014e+02
      8.97204971e+01 1.44736038e+02 1.04532051e+02 1.42027954e+02
      8.36161499e+01 1.26815491e+02 1.07952774e+02 1.30420685e+02
      5.18346741e+02 2.73363434e+02 3.79974899e+01 2.69739594e+02
      5.13820679e+02 2.73581238e+02 3.99848175e+01 2.77104095e+02
      4.14130821e+01 1.27972435e+02 2.21068237e+02 1.30080063e+02
      4.08591232e+01 1.21305824e+02 2.07768051e+02 1.19161751e+02
      2.85510834e+02 3.05301666e+02 3.24168610e+02 3.06086578e+02
      2.86623779e+02 3.01699951e+02 3.17879913e+02 3.00904602e+02
      2.52216293e+02 2.55734497e+02 2.58889648e+02 2.55972748e+02
      2.52554169e+02 2.54476105e+02 2.56765961e+02 2.54235931e+02</_>
    <_>
      1.08926498e+02 1.30070801e+02 7.48925629e+01 1.07289795e+02
      3.82476349e+01 1.18507828e+02 8.08157043e+01 1.81021515e+02
      1.60207922e+03 4.64809814e+02 7.79938269e+00 4.55013062e+02
      1.57724023e+03 4.36382599e+02 1.21068525e+01 4.67975769e+02
      2.26322632e+01 9.70263214e+01 2.64576141e+02 8.87841415e+01
      9.26146221e+00 9.98678436e+01 2.93662598e+02 1.11691734e+02
      4.89699371e+02 5.43755615e+02 6.04049744e+02 5.40862000e+02
      4.85448578e+02 5.52957520e+02 6.22457764e+02 5.56151978e+02
      3.78647858e+02 3.85011322e+02 3.92264923e+02 3.84421082e+02
      3.77801849e+02 3.87785736e+02 3.97095520e+02 3.88395294e+02
      1.14377739e+02 1.38917114e+02 1.11690628e+02 1.38674362e+02
      8.13908463e+01 1.46438629e+02 1.12877548e+02 1.59447845e+02
      5.47283691e+02 2.91022858e+02 3.01392689e+01 2.94332764e+02
      5.49295715e+02 2.88266418e+02 4.05730782e+01 2.87931885e+02
      5.34865952e+01 1.30382568e+02 2.23274078e+02 1.28779312e+02
      3.92566032e+01 1.36547882e+02 2.34399872e+02 1.37448853e+02
      3.05374878e+02 3.22076569e+02 3.39690704e+02 3.21528931e+02
      3.04689667e+02 3.25154266e+02 3.44790375e+02 3.25582764e+02
      2.69110077e+02 2.71378143e+02 2.73946503e+02 2.71218781e+02
      2.68897186e+02 2.72427948e+02 2.75648468e+02 2.72570007e+02</_>
    <_>
      1.49536194e+02 1.47610153e+02 8.71481934e+01 1.59891022e+02
      1.05647522e+02 1.21633438e+02 1.02271782e+02 1.65835541e+02
      1.67518958e+03 4.70538025e+02 1.59113045e+01 4.92782288e+02
      1.63582532e+03 4.72374207e+02 2.35183735e+01 5.12459656e+02
      2.70092220e+01 1.07028786e+02 2.91506683e+02 1.12939819e+02
      3.02559967e+01 1.02609047e+02 2.69985565e+02 1.01171982e+02
      4.85311371e+02 5.51470093e+02 6.19290283e+02 5.52829041e+02
      4.87541382e+02 5.42450439e+02 6.03183960e+02 5.40569397e+02
      3.76942017e+02 3.86723145e+02 3.95776367e+02 3.86991150e+02
      3.77391022e+02 3.83969849e+02 3.91374847e+02 3.83601379e+02
      1.39637497e+02 1.48612595e+02 1.14845207e+02 1.56148804e+02
      1.15165367e+02 1.35999649e+02 1.18787407e+02 1.56705002e+02
      5.55196045e+02 2.89204773e+02 4.39058228e+01 2.90592621e+02
      5.48149841e+02 2.90003906e+02 5.21021347e+01 2.99783264e+02
      5.92304077e+01 1.35431183e+02 2.33161743e+02 1.36265564e+02
      5.87355347e+01 1.30214676e+02 2.22494034e+02 1.26960213e+02
      3.03996338e+02 3.24501495e+02 3.44036346e+02 3.24698486e+02
      3.04602112e+02 3.21539459e+02 3.39202087e+02 3.20894196e+02
      2.68601227e+02 2.72110077e+02 2.75291473e+02 2.72186157e+02
      2.68755859e+02 2.71085785e+02 2.73685486e+02 2.70944489e+02</_>
    <_>
      5.37966347e+01 1.34415543e+02 1.01581573e+02 1.52794678e+02
      7.09781494e+01 1.90725433e+02 1.36218185e+02 1.12561172e+02
      1.49091418e+03 4.36090759e+02 1.62164326e+01 4.21672577e+02
      1.48301379e+03 4.72219635e+02 4.71956329e+01 4.44876038e+02
      1.78097286e+01 9.14090500e+01 2.59717682e+02 9.99035950e+01
      2.90867538e+01 9.99241638e+01 2.49188446e+02 8.74385071e+01
      4.34535400e+02 4.94135864e+02 5.57176392e+02 4.99214081e+02
      4.41487152e+02 4.91748322e+02 5.45800598e+02 4.86612946e+02
      3.39747437e+02 3.48512848e+02 3.57093872e+02 3.49699982e+02
      3.41403137e+02 3.47455078e+02 3.53887360e+02 3.46282501e+02
      8.29360809e+01 1.42095276e+02 1.16689827e+02 1.43570557e+02
      9.42035980e+01 1.58415802e+02 1.33171585e+02 1.29823212e+02
      5.27119751e+02 2.79484161e+02 4.28692741e+01 2.73439453e+02
      5.22223511e+02 2.81032257e+02 6.97779999e+01 2.81221039e+02
      4.63093567e+01 1.24225418e+02 2.18355087e+02 1.27211609e+02
      5.30871735e+01 1.21472466e+02 2.10321381e+02 1.19294128e+02
      2.86508240e+02 3.05665863e+02 3.24557312e+02 3.06704468e+02
      2.87866547e+02 3.04098389e+02 3.20935974e+02 3.03205109e+02
      2.53944992e+02 2.57191132e+02 2.60291107e+02 2.57496796e+02
      2.54362183e+02 2.56639526e+02 2.59090546e+02 2.56354431e+02</_>
    <_>
      4.46156082e+01 4.33702087e+01 3.45118790e+01 3.84261665e+01
      1.55697050e+01 3.72494774e+01 2.78665905e+01 4.91466637e+01
      5.05326080e+02 1.41772995e+02 4.02913475e+00 1.38314575e+02
      4.89225861e+02 1.40272903e+02 3.17962646e+00 1.47910889e+02
      3.67059684e+00 2.93314056e+01 8.61070862e+01 2.97336884e+01
      3.07737803e+00 2.80321674e+01 8.30597153e+01 2.86034412e+01
      1.49277634e+02 1.68743118e+02 1.89242157e+02 1.68916656e+02
      1.49419662e+02 1.67629089e+02 1.87408737e+02 1.67587097e+02
      1.16444923e+02 1.19145523e+02 1.21795921e+02 1.19169945e+02
      1.16470673e+02 1.18839081e+02 1.21331474e+02 1.18827026e+02
      7.45969696e+01 8.17148590e+01 6.81753998e+01 7.80512390e+01
      4.57940788e+01 7.82480621e+01 6.42736435e+01 8.47020264e+01
      3.08219177e+02 1.62746765e+02 2.19752083e+01 1.61061874e+02
      3.05242126e+02 1.62574600e+02 2.07177753e+01 1.63976532e+02
      2.11601048e+01 7.31684494e+01 1.26951607e+02 7.35513153e+01
      2.14663067e+01 7.23970947e+01 1.25312241e+02 7.20701447e+01
      1.68616974e+02 1.79219162e+02 1.89758148e+02 1.79277313e+02
      1.68699951e+02 1.78800140e+02 1.89085709e+02 1.78750977e+02
      1.49043945e+02 1.50735977e+02 1.52387909e+02 1.50742279e+02
      1.49052475e+02 1.50590454e+02 1.52173828e+02 1.50585464e+02</_>
    <_>
      5.59820518e+01 1.17540283e+02 7.75093079e+01 1.09643051e+02
      4.85966263e+01 1.07744392e+02 6.91594925e+01 1.01893326e+02
      1.39265271e+03 4.07757690e+02 1.54761953e+01 3.86798340e+02
      1.34778040e+03 3.82586212e+02 7.03256130e+00 3.93162109e+02
      1.26524086e+01 8.08776703e+01 2.34814377e+02 8.23640976e+01
      9.03102016e+00 7.98247910e+01 2.32403137e+02 7.99649506e+01
      4.09314514e+02 4.61616211e+02 5.18311096e+02 4.64201874e+02
      4.12246918e+02 4.63416901e+02 5.17558411e+02 4.61385925e+02
      3.19746490e+02 3.26899048e+02 3.34327240e+02 3.27573151e+02
      3.20637695e+02 3.27408508e+02 3.34138428e+02 3.26800171e+02
      8.66696701e+01 1.37442123e+02 1.07336479e+02 1.30695328e+02
      8.30676346e+01 1.34386536e+02 1.05327942e+02 1.30937469e+02
      5.12669434e+02 2.73749817e+02 4.27850609e+01 2.67814819e+02
      5.07569214e+02 2.68945465e+02 2.99670486e+01 2.70645752e+02
      4.13031807e+01 1.19820442e+02 2.09820297e+02 1.22461113e+02
      3.72846832e+01 1.22137917e+02 2.09936768e+02 1.20418983e+02
      2.79925812e+02 2.97277252e+02 3.15025879e+02 2.98147064e+02
      2.81046875e+02 2.98039062e+02 3.14972778e+02 2.97319885e+02
      2.47650986e+02 2.50390991e+02 2.53208633e+02 2.50639938e+02
      2.47987762e+02 2.50606430e+02 2.53175827e+02 2.50378998e+02</_>
    <_>
      4.70731354e+01 8.10057220e+01 5.43170624e+01 7.79755707e+01
      3.03293667e+01 8.65046997e+01 5.53973732e+01 1.08691544e+02
      1.16113989e+03 3.44592316e+02 8.86347485e+00 3.41733368e+02
      1.14582019e+03 3.10940430e+02 5.55748892e+00 3.23969086e+02
      1.53202248e+01 6.84366531e+01 1.85226257e+02 6.42082367e+01
      1.05249043e+01 7.68362427e+01 2.16864182e+02 7.87633972e+01
      3.51289703e+02 3.87706085e+02 4.30021210e+02 3.86556396e+02
      3.50114716e+02 4.01667847e+02 4.52391571e+02 4.02146057e+02
      2.72283386e+02 2.76069855e+02 2.81032532e+02 2.75877563e+02
      2.72065033e+02 2.80106110e+02 2.87036407e+02 2.80221252e+02
      8.02586746e+01 1.13292801e+02 9.56099243e+01 1.17263641e+02
      7.02832794e+01 1.24835815e+02 9.71572571e+01 1.30953857e+02
      4.67062531e+02 2.50411621e+02 3.17505341e+01 2.52977921e+02
      4.67015503e+02 2.42021332e+02 2.56071606e+01 2.44173660e+02
      4.32091599e+01 1.07144066e+02 1.85276505e+02 1.06250969e+02
      3.67797546e+01 1.18033524e+02 2.01977219e+02 1.17847878e+02
      2.58514557e+02 2.71692871e+02 2.86317200e+02 2.71440918e+02
      2.58288818e+02 2.76770905e+02 2.93799255e+02 2.76842438e+02
      2.28125153e+02 2.29710999e+02 2.31780014e+02 2.29645111e+02
      2.28050323e+02 2.31403168e+02 2.34253174e+02 2.31443130e+02</_>
    <_>
      1.18006294e+02 1.56935669e+02 7.99419479e+01 1.07785622e+02
      3.94467583e+01 9.92711411e+01 7.33339996e+01 1.19288193e+02
      1.47558313e+03 4.28798584e+02 1.58517246e+01 3.81160889e+02
      1.39512183e+03 4.09079742e+02 8.55581474e+00 4.33177979e+02
      1.51795931e+01 9.48275299e+01 2.66059875e+02 9.66878891e+01
      1.26664238e+01 7.97878799e+01 2.27557358e+02 7.70147095e+01
      4.27434875e+02 4.90012054e+02 5.53807556e+02 4.94265747e+02
      4.32843719e+02 4.78607025e+02 5.30524536e+02 4.74613617e+02
      3.33994049e+02 3.43591644e+02 3.52431183e+02 3.44695465e+02
      3.35506866e+02 3.40480255e+02 3.46428375e+02 3.39416443e+02
      1.19175415e+02 1.44856018e+02 1.11242691e+02 1.35447495e+02
      7.88983078e+01 1.31562927e+02 1.08193596e+02 1.31889282e+02
      5.23848755e+02 2.75045349e+02 4.23479805e+01 2.67810394e+02
      5.16085205e+02 2.77852356e+02 3.05295410e+01 2.81802216e+02
      4.52726517e+01 1.26454735e+02 2.20763153e+02 1.29842880e+02
      3.97158241e+01 1.20251671e+02 2.07152527e+02 1.17616211e+02
      2.85296844e+02 3.05119690e+02 3.24224213e+02 3.06257599e+02
      2.86815491e+02 3.02033356e+02 3.18287567e+02 3.01021454e+02
      2.52543015e+02 2.56028046e+02 2.59219788e+02 2.56356445e+02
      2.52994553e+02 2.54977234e+02 2.57278290e+02 2.54666855e+02</_>
    <_>
      5.61059608e+01 1.32234085e+02 1.07645020e+02 1.08875214e+02
      5.04187889e+01 9.87893982e+01 8.57580414e+01 1.14416473e+02
      1.41073181e+03 4.14916107e+02 3.45656357e+01 4.11438904e+02
      1.39730151e+03 4.01671600e+02 1.44307480e+01 4.08682526e+02
      1.06202536e+01 8.74169312e+01 2.54885239e+02 1.01565498e+02
      2.76266708e+01 9.25493927e+01 2.38641861e+02 8.01925583e+01
      4.21038666e+02 4.77836639e+02 5.38641846e+02 4.83659729e+02
      4.28952423e+02 4.78106201e+02 5.30507751e+02 4.72551453e+02
      3.28696960e+02 3.36797699e+02 3.44951782e+02 3.38034119e+02
      3.30421387e+02 3.36587036e+02 3.42898132e+02 3.35376160e+02
      8.77536011e+01 1.39533691e+02 1.16914810e+02 1.34278351e+02
      7.99734955e+01 1.26339302e+02 1.11388573e+02 1.34116425e+02
      5.18210632e+02 2.74837830e+02 6.43825760e+01 2.67011841e+02
      5.06558624e+02 2.67284607e+02 3.88166656e+01 2.76223663e+02
      3.64591789e+01 1.23440376e+02 2.15680511e+02 1.28017868e+02
      6.14874268e+01 1.25173615e+02 2.11545273e+02 1.20607117e+02
      2.83672729e+02 3.02053497e+02 3.20584045e+02 3.03617706e+02
      2.85907898e+02 3.02253967e+02 3.18604675e+02 3.00654022e+02
      2.50912109e+02 2.53955048e+02 2.56998810e+02 2.54421600e+02
      2.51575424e+02 2.53951202e+02 2.56328003e+02 2.53479538e+02</_>
    <_>
      9.23439331e+01 1.44559158e+02 9.81546021e+01 1.39637283e+02
      1.07123459e+02 1.40629425e+02 1.29021759e+02 1.78855316e+02
      1.71579492e+03 4.69637421e+02 1.74384861e+01 4.72429443e+02
      1.69633948e+03 5.21069824e+02 5.19815941e+01 5.44467957e+02
      2.14796181e+01 1.09252907e+02 3.08331573e+02 1.08866051e+02
      1.70589695e+01 9.62190857e+01 2.73983612e+02 1.01027527e+02
      5.02345764e+02 5.74914673e+02 6.47315857e+02 5.74404785e+02
      5.01351440e+02 5.56210876e+02 6.20013733e+02 5.57050964e+02
      3.91780518e+02 4.02919098e+02 4.12671234e+02 4.02792755e+02
      3.91587952e+02 3.97634003e+02 4.05293640e+02 3.97778046e+02
      1.08600365e+02 1.51561920e+02 1.21116493e+02 1.51421814e+02
      1.12466942e+02 1.40819519e+02 1.31950394e+02 1.57374435e+02
      5.67128784e+02 2.95377991e+02 4.54304657e+01 2.95591309e+02
      5.64404297e+02 3.03106140e+02 7.74783401e+01 3.06270691e+02
      5.06582718e+01 1.37861160e+02 2.39002899e+02 1.37812668e+02
      4.60937996e+01 1.27014580e+02 2.22410675e+02 1.26425484e+02
      3.09129089e+02 3.30870239e+02 3.51192291e+02 3.30864410e+02
      3.09220551e+02 3.25788635e+02 3.43851410e+02 3.25660583e+02
      2.73691010e+02 2.77533417e+02 2.80876312e+02 2.77533417e+02
      2.73705017e+02 2.75839600e+02 2.78462097e+02 2.75820374e+02</_>
    <_>
      1.02000214e+02 7.05683289e+01 5.06197624e+01 5.98474808e+01
      3.37552986e+01 6.66128922e+01 5.06020393e+01 8.95051422e+01
      8.35061279e+02 2.42237778e+02 4.06004524e+00 2.31305862e+02
      7.99080811e+02 2.25697647e+02 5.50234318e+00 2.40530136e+02
      9.62643909e+00 4.38911285e+01 1.25435875e+02 4.33202896e+01
      7.97445107e+00 4.88074722e+01 1.38378113e+02 4.81894760e+01
      2.33898834e+02 2.60825409e+02 2.91309052e+02 2.61426697e+02
      2.34886063e+02 2.67617920e+02 3.00463074e+02 2.66700714e+02
      1.83317245e+02 1.86518082e+02 1.90300354e+02 1.86692459e+02
      1.83585861e+02 1.88447556e+02 1.92790939e+02 1.88237442e+02
      1.13421471e+02 1.01342278e+02 8.43210678e+01 9.67199936e+01
      6.61618729e+01 1.03875160e+02 8.52354202e+01 1.12446938e+02
      3.92673279e+02 2.08642273e+02 2.32230797e+01 2.07547531e+02
      3.88689819e+02 2.04529144e+02 2.58162766e+01 2.07834717e+02
      3.44683189e+01 8.70837250e+01 1.53725754e+02 8.74777756e+01
      3.12752457e+01 9.27769318e+01 1.61369980e+02 9.18487320e+01
      2.11277863e+02 2.23208664e+02 2.35927979e+02 2.23316956e+02
      2.11503601e+02 2.25906403e+02 2.39572510e+02 2.25706589e+02
      1.87294632e+02 1.88919876e+02 1.90804169e+02 1.88947403e+02
      1.87343475e+02 1.89825012e+02 1.92039536e+02 1.89784225e+02</_>
    <_>
      1.35743805e+02 1.52194305e+02 1.04804771e+02 1.28500748e+02
      5.41120987e+01 1.44004669e+02 1.03481018e+02 1.71625351e+02
      2.01289233e+03 6.06617676e+02 1.21008797e+01 5.54721680e+02
      1.91084045e+03 5.22637024e+02 9.57835007e+00 5.66369873e+02
      3.11282654e+01 1.13590454e+02 3.05129059e+02 1.01744072e+02
      1.11475601e+01 1.18995163e+02 3.46049774e+02 1.22858574e+02
      5.74464355e+02 6.38048157e+02 7.11481384e+02 6.39776550e+02
      5.77274170e+02 6.60121704e+02 7.41317078e+02 6.56881287e+02
      4.49251892e+02 4.56481934e+02 4.65648712e+02 4.57354065e+02
      4.50563843e+02 4.63091003e+02 4.73763367e+02 4.62059967e+02
      1.28730133e+02 1.49078705e+02 1.28374924e+02 1.49256577e+02
      9.23559723e+01 1.61759827e+02 1.28469925e+02 1.66463715e+02
      6.09946899e+02 3.26152191e+02 3.79674110e+01 3.23790802e+02
      6.04093628e+02 3.14893616e+02 3.26318512e+01 3.22266724e+02
      6.69184189e+01 1.35085922e+02 2.39156219e+02 1.37515945e+02
      4.09411507e+01 1.49255692e+02 2.55839508e+02 1.45548355e+02
      3.30723907e+02 3.48830780e+02 3.68821411e+02 3.49886597e+02
      3.32365906e+02 3.55395386e+02 3.76542297e+02 3.54116058e+02
      2.93241119e+02 2.95611328e+02 2.98605255e+02 2.95952271e+02
      2.93745850e+02 2.97793365e+02 3.01192383e+02 2.97419556e+02</_>
    <_>
      4.29756432e+01 1.44977402e+02 7.78202133e+01 6.13021812e+01
      2.11046028e+01 5.74989929e+01 3.93227768e+01 6.29405327e+01
      7.55843689e+02 2.52075897e+02 2.89313087e+01 2.13833099e+02
      7.37165466e+02 2.10870911e+02 6.51069021e+00 2.12206802e+02
      1.09125624e+01 5.06801071e+01 1.29947052e+02 4.38674889e+01
      4.74230003e+00 4.38032990e+01 1.28553116e+02 4.57605133e+01
      2.22800537e+02 2.50400650e+02 2.79737366e+02 2.49610977e+02
      2.21895187e+02 2.50865982e+02 2.81460541e+02 2.51309250e+02
      1.73313263e+02 1.76900421e+02 1.80616699e+02 1.76826141e+02
      1.73219818e+02 1.77231339e+02 1.81186142e+02 1.77286194e+02
      7.33132477e+01 1.34640579e+02 1.01643768e+02 9.57552414e+01
      5.67628555e+01 9.95310974e+01 7.78415680e+01 9.75224991e+01
      3.75044678e+02 2.01083755e+02 5.52470741e+01 1.98280319e+02
      3.75136505e+02 1.99289185e+02 2.82123890e+01 1.98307953e+02
      3.36556091e+01 8.85290222e+01 1.53240952e+02 8.83642578e+01
      2.62113361e+01 8.91804123e+01 1.54843277e+02 8.93336716e+01
      2.06009674e+02 2.18398193e+02 2.31067520e+02 2.18479385e+02
      2.06067581e+02 2.19001541e+02 2.31872192e+02 2.18998962e+02
      1.82168915e+02 1.84050247e+02 1.86000763e+02 1.84070312e+02
      1.82189301e+02 1.84259674e+02 1.86277390e+02 1.84250931e+02</_>
    <_>
      1.85743752e+01 3.67257423e+01 2.37208176e+01 3.70328217e+01
      1.27280617e+01 3.81825790e+01 2.49425888e+01 3.95307007e+01
      5.13105225e+02 1.43780960e+02 1.11814177e+00 1.50378586e+02
      5.27619080e+02 1.50211090e+02 2.03932285e+00 1.44736069e+02
      4.38322210e+00 3.20314445e+01 9.02253418e+01 3.02239189e+01
      3.13269687e+00 3.06338387e+01 9.13214340e+01 3.25355492e+01
      1.61577255e+02 1.81180038e+02 2.01725861e+02 1.79728043e+02
      1.59628601e+02 1.80195801e+02 2.02431198e+02 1.81642242e+02
      1.25065254e+02 1.27626297e+02 1.30150070e+02 1.27269485e+02
      1.24566399e+02 1.27403252e+02 1.30341003e+02 1.27758728e+02
      4.97293549e+01 7.98077240e+01 6.39341393e+01 8.24102020e+01
      4.75619965e+01 8.31918869e+01 6.40937119e+01 8.13670197e+01
      3.12471954e+02 1.64993164e+02 1.10052242e+01 1.68988297e+02
      3.17696136e+02 1.68793060e+02 1.56631336e+01 1.65109100e+02
      2.46513882e+01 7.74500198e+01 1.31218430e+02 7.53523788e+01
      2.22598228e+01 7.57938538e+01 1.31850983e+02 7.78251572e+01
      1.75934830e+02 1.86346146e+02 1.96654816e+02 1.85603607e+02
      1.74893936e+02 1.85825256e+02 1.96965729e+02 1.86557175e+02
      1.54867798e+02 1.56450165e+02 1.57991440e+02 1.56230255e+02
      1.54557922e+02 1.56306091e+02 1.58098083e+02 1.56524490e+02</_>
    <_>
      5.83632317e+01 1.49014236e+02 1.08883934e+02 1.32967545e+02
      5.30822983e+01 1.12628685e+02 9.18593597e+01 1.29100937e+02
      1.69334778e+03 4.90607025e+02 3.17920189e+01 4.76538666e+02
      1.65723694e+03 4.71182770e+02 1.47869701e+01 4.93288574e+02
      1.45263920e+01 1.07810501e+02 3.05086029e+02 1.07653297e+02
      1.26048775e+01 9.78159637e+01 2.81934692e+02 9.61799850e+01
      5.05844299e+02 5.75031982e+02 6.46678528e+02 5.76758606e+02
      5.08463623e+02 5.68320679e+02 6.33556763e+02 5.66018066e+02
      3.94762451e+02 4.04718781e+02 4.14238403e+02 4.05229675e+02
      3.95522339e+02 4.02897736e+02 4.10850464e+02 4.02318634e+02
      9.35780258e+01 1.49712433e+02 1.23428574e+02 1.49752121e+02
      8.58233109e+01 1.39303604e+02 1.16269920e+02 1.45940826e+02
      5.66055969e+02 2.97861206e+02 6.20939903e+01 2.96781219e+02
      5.61600952e+02 2.97705994e+02 4.18224525e+01 3.03387878e+02
      4.29799232e+01 1.36061844e+02 2.36180481e+02 1.37481873e+02
      4.22979431e+01 1.33270706e+02 2.29087708e+02 1.30787292e+02
      3.10520691e+02 3.30920319e+02 3.50902283e+02 3.31547577e+02
      3.11531189e+02 3.29378174e+02 3.47673553e+02 3.28572418e+02
      2.74690552e+02 2.78098328e+02 2.81339020e+02 2.78301056e+02
      2.74995605e+02 2.77555542e+02 2.80263916e+02 2.77326813e+02</_>
    <_>
      1.68828487e+01 4.97855682e+01 3.33766251e+01 5.52983627e+01
      2.00568199e+01 4.20055351e+01 3.01731415e+01 4.07733307e+01
      6.35044373e+02 1.75980164e+02 4.06149006e+00 1.73376740e+02
      6.26732239e+02 1.81915878e+02 2.40822220e+00 1.85274994e+02
      4.59970665e+00 4.03881569e+01 1.16576782e+02 4.05146561e+01
      4.13338709e+00 3.38797035e+01 9.95949020e+01 3.30511398e+01
      1.90091248e+02 2.18054260e+02 2.45968948e+02 2.18729172e+02
      1.91065765e+02 2.11425735e+02 2.34846008e+02 2.10595230e+02
      1.48521210e+02 1.52836456e+02 1.56662476e+02 1.53033249e+02
      1.48807159e+02 1.50991440e+02 1.53726517e+02 1.50777634e+02
      5.11437378e+01 9.40447083e+01 7.26294022e+01 9.35287170e+01
      5.34040451e+01 8.47577515e+01 7.17519531e+01 8.52625351e+01
      3.48304108e+02 1.82255844e+02 2.14378624e+01 1.80185532e+02
      3.45535309e+02 1.85156006e+02 1.69117813e+01 1.87587967e+02
      2.53483391e+01 8.51074753e+01 1.47931076e+02 8.64252930e+01
      2.43966179e+01 7.93952179e+01 1.37381866e+02 7.79652176e+01
      1.90370071e+02 2.03876816e+02 2.16639740e+02 2.04380890e+02
      1.91094116e+02 2.01066666e+02 2.11890686e+02 2.00541656e+02
      1.68512482e+02 1.70931305e+02 1.73073578e+02 1.71085968e+02
      1.68733139e+02 1.69977890e+02 1.71500748e+02 1.69820099e+02</_>
    <_>
      1.62555771e+01 3.46203270e+01 2.17168674e+01 3.15341225e+01
      1.17626982e+01 3.16188374e+01 2.27110023e+01 3.63034210e+01
      4.47667267e+02 1.27950043e+02 1.19000566e+00 1.23999413e+02
      4.40540985e+02 1.25086815e+02 2.96202397e+00 1.27854767e+02
      3.67608166e+00 2.63657551e+01 7.65606537e+01 2.61685715e+01
      2.72398043e+00 2.63360996e+01 7.70025101e+01 2.68910217e+01
      1.35614487e+02 1.52665741e+02 1.70931107e+02 1.52842255e+02
      1.35757065e+02 1.52745743e+02 1.70859085e+02 1.52679672e+02
      1.05584724e+02 1.07895927e+02 1.10246529e+02 1.07945145e+02
      1.05643745e+02 1.07910110e+02 1.10205338e+02 1.07873978e+02
      4.72435493e+01 7.70535507e+01 5.96307030e+01 7.47239532e+01
      4.21640739e+01 7.48025055e+01 5.98394203e+01 7.44865875e+01
      2.91578461e+02 1.55296127e+02 1.19322147e+01 1.53316971e+02
      2.89841675e+02 1.53647064e+02 1.90716362e+01 1.54060333e+02
      2.19538307e+01 6.94762192e+01 1.20549492e+02 7.02601929e+01
      2.10774422e+01 7.00260696e+01 1.20437889e+02 6.96203156e+01
      1.60757019e+02 1.70652802e+02 1.80677460e+02 1.70890778e+02
      1.61047867e+02 1.70791260e+02 1.80578339e+02 1.70618179e+02
      1.42023132e+02 1.43581924e+02 1.45156982e+02 1.43646698e+02
      1.42108170e+02 1.43614273e+02 1.45117508e+02 1.43558899e+02</_>
    <_>
      3.75315056e+01 1.01478256e+02 6.34443779e+01 1.09830505e+02
      4.65989494e+01 9.06221695e+01 6.21754646e+01 9.02737122e+01
      1.32420642e+03 3.72911957e+02 9.39331532e+00 3.72124542e+02
      1.31400647e+03 3.76471375e+02 5.83843184e+00 3.79650574e+02
      8.63100529e+00 8.12723618e+01 2.35692200e+02 8.09699478e+01
      8.13393879e+00 7.26214676e+01 2.14386887e+02 7.12060471e+01
      3.96194580e+02 4.51309540e+02 5.07496643e+02 4.51758331e+02
      3.97016846e+02 4.42779388e+02 4.93685516e+02 4.41940887e+02
      3.09524231e+02 3.17617035e+02 3.25096466e+02 3.17766052e+02
      3.09761139e+02 3.15231873e+02 3.21437561e+02 3.15040619e+02
      7.80138626e+01 1.34433899e+02 1.03516098e+02 1.34094299e+02
      8.17585449e+01 1.24032196e+02 1.04101250e+02 1.26857651e+02
      5.02968872e+02 2.65010345e+02 3.43681641e+01 2.64063293e+02
      5.00596252e+02 2.66059875e+02 2.68374786e+01 2.68553986e+02
      3.42436600e+01 1.21124969e+02 2.10170532e+02 1.21803604e+02
      3.49414520e+01 1.16538177e+02 2.01958466e+02 1.15485817e+02
      2.75360168e+02 2.93734955e+02 3.11496033e+02 2.94006683e+02
      2.75788635e+02 2.91353180e+02 3.07653351e+02 2.91017761e+02
      2.43567886e+02 2.46689728e+02 2.49571304e+02 2.46774734e+02
      2.43694534e+02 2.45867722e+02 2.48278687e+02 2.45773315e+02</_>
    <_>
      6.19751587e+01 1.35572906e+02 9.21987076e+01 1.32163620e+02
      4.40038033e+01 1.08216385e+02 7.55935974e+01 1.22840385e+02
      1.65035168e+03 4.58880554e+02 1.18101110e+01 4.52869476e+02
      1.61642395e+03 4.65253174e+02 7.99911928e+00 4.84645233e+02
      1.34510832e+01 1.03273064e+02 2.95209167e+02 1.02083374e+02
      1.07991047e+01 9.01497116e+01 2.64512970e+02 8.95476303e+01
      4.92761230e+02 5.61883972e+02 6.31895996e+02 5.62550293e+02
      4.94007965e+02 5.49789795e+02 6.12227722e+02 5.48495117e+02
      3.84443115e+02 3.94693573e+02 4.04069946e+02 3.94930695e+02
      3.84824768e+02 3.91372986e+02 3.98923981e+02 3.91061646e+02
      9.07904510e+01 1.47808746e+02 1.18387573e+02 1.47199738e+02
      8.06849442e+01 1.36575226e+02 1.14235626e+02 1.43764267e+02
      5.60284912e+02 2.93790192e+02 3.74921761e+01 2.90670746e+02
      5.53477661e+02 2.94937439e+02 3.00534725e+01 3.01333008e+02
      4.10495834e+01 1.34337708e+02 2.34046173e+02 1.36365814e+02
      3.93965340e+01 1.29499634e+02 2.23301010e+02 1.26724838e+02
      3.05315063e+02 3.26013550e+02 3.46040771e+02 3.26786102e+02
      3.06496490e+02 3.23506226e+02 3.41268372e+02 3.22608490e+02
      2.70304260e+02 2.73851501e+02 2.77141815e+02 2.74087646e+02
      2.70651154e+02 2.72987061e+02 2.75569061e+02 2.72732788e+02</_>
    <_>
      9.99369888e+01 1.60553558e+02 1.04736992e+02 1.47487701e+02
      5.73483582e+01 1.31655869e+02 9.68454056e+01 1.31354935e+02
      1.81915039e+03 5.12896790e+02 1.83506451e+01 5.29464294e+02
      1.87220117e+03 5.39081055e+02 1.01240139e+01 5.20736694e+02
      1.79899788e+01 1.22103882e+02 3.34666168e+02 1.12216125e+02
      1.11343298e+01 1.03621727e+02 3.11824310e+02 1.12702965e+02
      5.71976379e+02 6.46752930e+02 7.21565491e+02 6.40253418e+02
      5.63400085e+02 6.30589661e+02 7.06796936e+02 6.36905518e+02
      4.41793701e+02 4.52379761e+02 4.61828064e+02 4.50814880e+02
      4.39618317e+02 4.48091614e+02 4.57910645e+02 4.49635498e+02
      1.09331734e+02 1.59370819e+02 1.24201897e+02 1.60797302e+02
      9.40508575e+01 1.52353546e+02 1.22890221e+02 1.49499741e+02
      5.88515869e+02 3.08600922e+02 4.57390137e+01 3.15881317e+02
      5.97785461e+02 3.19309967e+02 3.25099144e+01 3.12518768e+02
      4.91665955e+01 1.48829559e+02 2.51371613e+02 1.44662231e+02
      4.09067345e+01 1.39075317e+02 2.42889282e+02 1.43067398e+02
      3.30445099e+02 3.51530792e+02 3.71497528e+02 3.50015259e+02
      3.28331635e+02 3.47335541e+02 3.67643097e+02 3.48817352e+02
      2.90783569e+02 2.94269287e+02 2.97360931e+02 2.93815552e+02
      2.90146027e+02 2.92914581e+02 2.96079987e+02 2.93363129e+02</_>
    <_>
      6.19118576e+01 1.30740463e+02 9.73374100e+01 1.32113068e+02
      5.20579453e+01 1.33307907e+02 8.89423370e+01 1.44511459e+02
      1.85258069e+03 5.34813538e+02 1.39285278e+01 5.17947876e+02
      1.81547119e+03 5.09793762e+02 7.62144184e+00 5.34196106e+02
      2.17244167e+01 1.14835129e+02 3.13966705e+02 1.08118782e+02
      1.31240931e+01 1.10218338e+02 3.18164490e+02 1.11551682e+02
      5.56331543e+02 6.24448547e+02 6.97651428e+02 6.24525757e+02
      5.57080688e+02 6.28902710e+02 7.03525513e+02 6.27579712e+02
      4.32580383e+02 4.41420288e+02 4.50755371e+02 4.41668793e+02
      4.33016663e+02 4.42990784e+02 4.52559509e+02 4.42605469e+02
      9.14927216e+01 1.46118835e+02 1.22728439e+02 1.51672714e+02
      9.10719299e+01 1.54254425e+02 1.19549583e+02 1.60654007e+02
      5.89852356e+02 3.10600433e+02 4.17548332e+01 3.12163177e+02
      5.88424622e+02 3.10590363e+02 3.22338676e+01 3.15051300e+02
      5.49417725e+01 1.40692017e+02 2.42830063e+02 1.41041962e+02
      4.41375275e+01 1.43889572e+02 2.46284988e+02 1.42172989e+02
      3.26080688e+02 3.45484528e+02 3.65372711e+02 3.45777496e+02
      3.26651184e+02 3.47207031e+02 3.67268524e+02 3.46686340e+02
      2.87962891e+02 2.90868469e+02 2.93936432e+02 2.90978241e+02
      2.88140961e+02 2.91468964e+02 2.94609833e+02 2.91326416e+02</_>
    <_>
      9.81094666e+01 1.80570602e+02 9.61556473e+01 1.78194275e+02
      9.44462891e+01 1.20263412e+02 9.77893372e+01 1.26800659e+02
      1.87659424e+03 5.27057495e+02 2.20392132e+01 4.55140137e+02
      1.72540381e+03 5.11885773e+02 1.73341522e+01 5.83452515e+02
      3.81365967e+01 1.47461334e+02 3.84297668e+02 1.48470932e+02
      2.60859146e+01 1.15278137e+02 2.89508514e+02 1.08497269e+02
      5.62702698e+02 6.55621460e+02 7.46229065e+02 6.66951599e+02
      5.78128784e+02 6.24752625e+02 6.81454346e+02 6.12217468e+02
      4.34960297e+02 4.51009857e+02 4.64694000e+02 4.54292999e+02
      4.39623901e+02 4.42268097e+02 4.47370178e+02 4.38854889e+02
      1.06332664e+02 1.62167511e+02 1.19609818e+02 1.64360611e+02
      1.00854874e+02 1.31360748e+02 1.17712791e+02 1.32023575e+02
      5.74810181e+02 2.95921478e+02 4.92626190e+01 2.82486359e+02
      5.56960510e+02 3.02112762e+02 4.50659485e+01 3.19335876e+02
      6.91473618e+01 1.44788391e+02 2.54301712e+02 1.53541168e+02
      4.84823418e+01 1.25061295e+02 2.11234131e+02 1.16104958e+02
      3.08591400e+02 3.35316467e+02 3.59350769e+02 3.39119171e+02
      3.14046417e+02 3.25655701e+02 3.40007477e+02 3.21695557e+02
      2.74345398e+02 2.79839752e+02 2.84361237e+02 2.81020813e+02
      2.76029541e+02 2.76515869e+02 2.77959656e+02 2.75311859e+02</_>
    <_>
      1.41112320e+02 1.91924774e+02 1.17460640e+02 1.49890305e+02
      6.62795868e+01 1.66600922e+02 1.12558952e+02 1.98869781e+02
      2.16886060e+03 6.36299561e+02 1.94347954e+01 6.06858398e+02
      2.12454956e+03 5.97121033e+02 9.93170357e+00 6.16390808e+02
      2.03274689e+01 1.28436935e+02 3.64194092e+02 1.27700562e+02
      1.74853268e+01 1.32951080e+02 3.79202698e+02 1.31303696e+02
      6.51032410e+02 7.29205505e+02 8.15488770e+02 7.31646484e+02
      6.54419495e+02 7.40266479e+02 8.28399231e+02 7.37498474e+02
      5.07164764e+02 5.17072693e+02 5.28032837e+02 5.17786438e+02
      5.08181458e+02 5.20326660e+02 5.31654724e+02 5.19581543e+02
      1.35701172e+02 1.67642639e+02 1.32864517e+02 1.60052689e+02
      9.68447495e+01 1.69202759e+02 1.32162949e+02 1.69048080e+02
      6.39273254e+02 3.40970306e+02 4.84153137e+01 3.37402740e+02
      6.35481628e+02 3.35073029e+02 3.44000435e+01 3.37906097e+02
      5.10625381e+01 1.50160431e+02 2.61009155e+02 1.52261215e+02
      4.93221092e+01 1.57124207e+02 2.68430298e+02 1.55139755e+02
      3.52854492e+02 3.73373138e+02 3.94934204e+02 3.74162903e+02
      3.53953583e+02 3.76559875e+02 3.98376282e+02 3.75785797e+02
      3.11761261e+02 3.14768433e+02 3.18088440e+02 3.15009430e+02
      3.12100311e+02 3.15822815e+02 3.19243317e+02 3.15583954e+02</_>
    <_>
      1.04365280e+02 2.11171692e+02 1.78384811e+02 1.65932556e+02
      5.88357048e+01 1.71802658e+02 1.27795998e+02 1.83640533e+02
      2.10154272e+03 6.48335022e+02 6.12532692e+01 6.20170288e+02
      2.05794727e+03 5.73031738e+02 1.92165451e+01 5.92597839e+02
      1.70674438e+01 1.20259087e+02 3.45413879e+02 1.22545547e+02
      1.75498314e+01 1.28508728e+02 3.68287354e+02 1.25569801e+02
      6.19552979e+02 6.91961304e+02 7.74046997e+02 6.95542542e+02
      6.24372437e+02 7.09388184e+02 7.95023499e+02 7.05776917e+02
      4.84374939e+02 4.93131104e+02 5.03440674e+02 4.94071716e+02
      4.85693024e+02 4.98105347e+02 5.09218842e+02 4.97163300e+02
      1.14737000e+02 1.71887039e+02 1.50966232e+02 1.60000809e+02
      9.70305481e+01 1.67807007e+02 1.34519989e+02 1.71793869e+02
      6.29048828e+02 3.36925415e+02 8.90784988e+01 3.34544647e+02
      6.24963989e+02 3.27563263e+02 4.54757118e+01 3.31616302e+02
      4.94054642e+01 1.43562088e+02 2.51419556e+02 1.45429245e+02
      4.96541290e+01 1.53986099e+02 2.63870148e+02 1.51762650e+02
      3.44213593e+02 3.63594147e+02 3.84403198e+02 3.64338379e+02
      3.45302643e+02 3.68257202e+02 3.89957184e+02 3.67455322e+02
      3.04522125e+02 3.07227600e+02 3.10378448e+02 3.07458954e+02
      3.04854919e+02 3.08754333e+02 3.12208618e+02 3.08514862e+02</_>
    <_>
      1.11307594e+02 1.69511292e+02 9.57663574e+01 1.82241913e+02
      8.94719620e+01 1.45622879e+02 1.04419022e+02 1.75036896e+02
      1.94235925e+03 5.44869080e+02 1.98858604e+01 5.98333374e+02
      2.02028577e+03 5.88332275e+02 2.76396561e+01 5.74279907e+02
      2.95580254e+01 1.36072617e+02 3.63326080e+02 1.32081589e+02
      2.53743916e+01 1.18504440e+02 3.40419708e+02 1.32744629e+02
      6.10585754e+02 6.90062561e+02 7.69419006e+02 6.82213501e+02
      5.99262268e+02 6.69805115e+02 7.51606689e+02 6.78945740e+02
      4.69930359e+02 4.81316437e+02 4.91256592e+02 4.79201935e+02
      4.66893036e+02 4.75713928e+02 4.86339539e+02 4.77942505e+02
      1.19316116e+02 1.58830872e+02 1.24447807e+02 1.65241425e+02
      1.04721466e+02 1.54323456e+02 1.26972664e+02 1.59199753e+02
      6.01596008e+02 3.15336487e+02 4.54866638e+01 3.26472565e+02
      6.14841309e+02 3.28089935e+02 4.93518906e+01 3.18527649e+02
      6.16212883e+01 1.54412430e+02 2.58998474e+02 1.48106003e+02
      5.65725174e+01 1.42334839e+02 2.49989655e+02 1.48315247e+02
      3.40766602e+02 3.62449402e+02 3.82690491e+02 3.60141205e+02
      3.37553192e+02 3.57159637e+02 3.78380554e+02 3.59414093e+02
      2.99601105e+02 3.03196381e+02 3.06288971e+02 3.02501831e+02
      2.98625275e+02 3.01473633e+02 3.04825165e+02 3.02160492e+02</_>
    <_>
      9.23909988e+01 2.29773209e+02 2.61651489e+02 2.48537781e+02
      1.06631294e+02 2.03143478e+02 1.69098755e+02 2.00985321e+02
      2.58090137e+03 7.73274658e+02 9.58928375e+01 8.01803223e+02
      2.61552710e+03 7.43255737e+02 2.70600719e+01 7.41807068e+02
      2.36941605e+01 1.61216400e+02 4.56946716e+02 1.76739548e+02
      3.93187180e+01 1.54968979e+02 4.35746216e+02 1.48822296e+02
      7.64841919e+02 8.63170044e+02 9.69202637e+02 8.67724243e+02
      7.70324768e+02 8.65796936e+02 9.67765076e+02 8.62550720e+02
      5.97703796e+02 6.10841003e+02 6.24492920e+02 6.11730530e+02
      5.98873352e+02 6.11877136e+02 6.24806702e+02 6.11108459e+02
      1.10983330e+02 1.79691223e+02 1.85338165e+02 1.84041229e+02
      1.16590195e+02 1.84557556e+02 1.55369797e+02 1.82059311e+02
      6.98941467e+02 3.70383575e+02 1.01883942e+02 3.69584625e+02
      6.98879272e+02 3.71292450e+02 5.57326546e+01 3.71695068e+02
      5.08361130e+01 1.62531143e+02 2.84072479e+02 1.63306946e+02
      6.24206581e+01 1.64481918e+02 2.86068146e+02 1.63795868e+02
      3.81788635e+02 4.05039734e+02 4.28751282e+02 4.05369354e+02
      3.82237701e+02 4.06174927e+02 4.29925262e+02 4.05860291e+02
      3.38027161e+02 3.41580200e+02 3.45256561e+02 3.41685425e+02
      3.38174194e+02 3.41984100e+02 3.45682373e+02 3.41881012e+02</_>
    <_>
      7.22561722e+01 1.80641602e+02 1.20292992e+02 1.97313156e+02
      8.78379517e+01 1.87185837e+02 1.35227524e+02 1.77795181e+02
      2.30991528e+03 6.56862305e+02 7.54445839e+00 6.55674988e+02
      2.31420776e+03 6.57567871e+02 1.10643682e+01 6.54559875e+02
      1.40072489e+01 1.35042877e+02 3.98733124e+02 1.37684433e+02
      1.58553982e+01 1.34668945e+02 3.93642242e+02 1.32807465e+02
      7.01027100e+02 7.90877441e+02 8.86674072e+02 7.92751038e+02
      7.03358948e+02 7.90438110e+02 8.83408325e+02 7.88809021e+02
      5.46946899e+02 5.59235413e+02 5.71650269e+02 5.59709839e+02
      5.47590515e+02 5.59099792e+02 5.70798401e+02 5.58653564e+02
      1.00401222e+02 1.73231476e+02 1.36014938e+02 1.74316544e+02
      1.10206688e+02 1.72851883e+02 1.40648666e+02 1.68255325e+02
      6.62512268e+02 3.52163849e+02 3.04589443e+01 3.51744843e+02
      6.63867310e+02 3.51497131e+02 3.71237831e+01 3.50411652e+02
      4.57243156e+01 1.57956467e+02 2.73668945e+02 1.58448639e+02
      4.80145912e+01 1.58322418e+02 2.73656799e+02 1.58152008e+02
      3.65530823e+02 3.88000732e+02 4.10663940e+02 3.88221313e+02
      3.65797974e+02 3.88130127e+02 4.10566956e+02 3.87962097e+02
      3.22985199e+02 3.26509705e+02 3.30053986e+02 3.26581604e+02
      3.23081390e+02 3.26547455e+02 3.30010559e+02 3.26482971e+02</_>
    <_>
      1.19860817e+02 1.96591904e+02 1.29009888e+02 1.68952698e+02
      6.82114639e+01 1.80569702e+02 1.49903152e+02 2.32608719e+02
      2.24591821e+03 6.47870178e+02 9.39445877e+00 6.35019958e+02
      2.20656592e+03 6.19445984e+02 1.65784626e+01 6.31199768e+02
      1.74095936e+01 1.24848579e+02 3.64631592e+02 1.22669395e+02
      1.42599487e+01 1.38457031e+02 3.98695221e+02 1.38456375e+02
      6.73786072e+02 7.51551331e+02 8.38162659e+02 7.51134216e+02
      6.73391785e+02 7.65465027e+02 8.59449951e+02 7.65531311e+02
      5.24541504e+02 5.33998291e+02 5.44659302e+02 5.33911011e+02
      5.24440552e+02 5.37808960e+02 5.50215637e+02 5.37863220e+02
      1.22802765e+02 1.68026199e+02 1.36738419e+02 1.66228317e+02
      9.99993439e+01 1.70391479e+02 1.41232468e+02 1.80146423e+02
      6.49878906e+02 3.46622101e+02 3.48481026e+01 3.46710754e+02
      6.48436584e+02 3.40915985e+02 4.60083160e+01 3.41304230e+02
      4.93129272e+01 1.51928375e+02 2.62937744e+02 1.51426880e+02
      4.54525375e+01 1.58122681e+02 2.72857788e+02 1.58602539e+02
      3.57976379e+02 3.78292969e+02 3.99530060e+02 3.78029114e+02
      3.57611389e+02 3.81110992e+02 4.03932617e+02 3.81377899e+02
      3.16046234e+02 3.18933350e+02 3.22096436e+02 3.18842041e+02
      3.15917236e+02 3.19865387e+02 3.23547363e+02 3.19957672e+02</_>
    <_>
      8.18920517e+01 1.66337738e+02 9.31919708e+01 1.32786987e+02
      5.11057014e+01 1.32266052e+02 8.54555206e+01 1.42983505e+02
      1.85831653e+03 5.30367310e+02 1.07985144e+01 5.26793640e+02
      1.86534741e+03 5.31904724e+02 6.82854843e+00 5.26464111e+02
      1.96159649e+01 1.22284805e+02 3.38429596e+02 1.19787743e+02
      1.67563190e+01 1.16221909e+02 3.30056122e+02 1.18794373e+02
      5.85080261e+02 6.58903320e+02 7.36194763e+02 6.57634644e+02
      5.83215210e+02 6.53971741e+02 7.30784851e+02 6.55397583e+02
      4.52026093e+02 4.62167633e+02 4.72059845e+02 4.61872253e+02
      4.51595612e+02 4.60856110e+02 4.70618713e+02 4.61171844e+02
      9.93958664e+01 1.56549149e+02 1.20149879e+02 1.55814682e+02
      8.88413162e+01 1.55044830e+02 1.20618835e+02 1.51601257e+02
      5.91876831e+02 3.13158447e+02 3.80122910e+01 3.15607239e+02
      5.96165955e+02 3.16298157e+02 3.00701523e+01 3.12653290e+02
      5.10376167e+01 1.48340469e+02 2.51599625e+02 1.46813889e+02
      4.67855110e+01 1.45555115e+02 2.49832336e+02 1.47297409e+02
      3.33849457e+02 3.54174622e+02 3.74282196e+02 3.53610535e+02
      3.33029358e+02 3.52978638e+02 3.73398560e+02 3.53574768e+02
      2.93735046e+02 2.96949493e+02 3.00057495e+02 2.96780090e+02
      2.93492096e+02 2.96563232e+02 2.99753204e+02 2.96737183e+02</_>
    <_>
      5.66219826e+01 1.22465408e+02 1.07193092e+02 1.18612053e+02
      7.85329590e+01 1.77385590e+02 1.07139168e+02 1.61810135e+02
      1.78270667e+03 5.35893005e+02 2.59675159e+01 5.59159790e+02
      1.83757495e+03 5.26270447e+02 3.07361603e+01 4.86642151e+02
      1.55431738e+01 8.95093994e+01 2.65162079e+02 9.46702499e+01
      2.79506397e+01 1.34877228e+02 3.53853363e+02 1.25021538e+02
      5.32544373e+02 5.81382080e+02 6.43872803e+02 5.81307739e+02
      5.33002258e+02 6.19835388e+02 7.01366455e+02 6.19288940e+02
      4.15549896e+02 4.19376892e+02 4.26252991e+02 4.19227020e+02
      4.15383270e+02 4.29827515e+02 4.41388916e+02 4.29921387e+02
      9.31351089e+01 1.37557739e+02 1.25858536e+02 1.38471085e+02
      1.01398247e+02 1.65845581e+02 1.27620735e+02 1.64203003e+02
      5.81914062e+02 3.16280914e+02 5.43077965e+01 3.17545654e+02
      5.83659912e+02 3.01332458e+02 5.37030144e+01 3.00431244e+02
      4.38749619e+01 1.25128380e+02 2.20824860e+02 1.24597374e+02
      5.99674950e+01 1.46643143e+02 2.53633194e+02 1.47106964e+02
      3.17921417e+02 3.32393646e+02 3.49874023e+02 3.32215759e+02
      3.17675201e+02 3.42566345e+02 3.64655121e+02 3.42734253e+02
      2.81394653e+02 2.82726990e+02 2.85054749e+02 2.82676788e+02
      2.81324646e+02 2.86133820e+02 2.89953949e+02 2.86182495e+02</_>
    <_>
      1.85659256e+02 2.82196991e+02 2.06591675e+02 2.78501709e+02
      1.65595078e+02 2.65803253e+02 2.50314758e+02 3.06632965e+02
      3.62748389e+03 1.07250317e+03 2.70222301e+01 9.61989075e+02
      3.38225391e+03 1.01992163e+03 6.52293777e+01 1.11715332e+03
      1.03523132e+02 2.16196869e+02 5.52743530e+02 2.09491928e+02
      7.23315201e+01 2.37992844e+02 5.91686829e+02 2.47283447e+02
      9.80401794e+02 1.09911072e+03 1.23267969e+03 1.10769678e+03
      9.90461426e+02 1.11697290e+03 1.24637244e+03 1.10930164e+03
      7.64927124e+02 7.81082031e+02 7.98874573e+02 7.83652222e+02
      7.68417175e+02 7.85658752e+02 8.01790649e+02 7.83198547e+02
      1.48553696e+02 2.03484421e+02 1.73852325e+02 2.03786514e+02
      1.42323807e+02 2.04508499e+02 1.85540619e+02 2.08996140e+02
      8.04499939e+02 4.25981293e+02 5.62722015e+01 4.18818115e+02
      7.96845947e+02 4.26853912e+02 8.63796387e+01 4.30463379e+02
      1.19143959e+02 1.77385834e+02 3.18225800e+02 1.83519577e+02
      1.00271622e+02 1.80981079e+02 3.15179779e+02 1.75819656e+02
      4.26811401e+02 4.54274780e+02 4.82073456e+02 4.55355347e+02
      4.28232849e+02 4.54689423e+02 4.81259033e+02 4.53760010e+02
      3.80119690e+02 3.84456848e+02 3.88856628e+02 3.84764801e+02
      3.80539551e+02 3.84617096e+02 3.88664642e+02 3.84331177e+02</_>
    <_>
      5.59285011e+01 1.26580605e+02 1.07607826e+02 2.20146393e+02
      1.63097794e+02 2.30924622e+02 9.88619843e+01 1.52120605e+02
      1.70755725e+03 4.99572632e+02 2.07181797e+01 5.58231873e+02
      1.85559448e+03 5.43915955e+02 2.76373386e+01 4.79838348e+02
      2.70956268e+01 1.20825356e+02 3.08932617e+02 1.17318008e+02
      4.27307587e+01 1.43128021e+02 3.53131653e+02 1.35905258e+02
      5.61994751e+02 6.21039185e+02 6.85701294e+02 6.14136353e+02
      5.54633606e+02 6.32759033e+02 7.12063416e+02 6.37624939e+02
      4.29467072e+02 4.35956940e+02 4.43270325e+02 4.34123322e+02
      4.27068481e+02 4.38964691e+02 4.50045319e+02 4.40586853e+02
      8.24181137e+01 1.39973190e+02 1.23847557e+02 1.65635422e+02
      1.32430481e+02 1.71538925e+02 1.18057304e+02 1.51429901e+02
      5.64404297e+02 2.99394165e+02 4.86785355e+01 3.13980988e+02
      5.82402344e+02 3.06915558e+02 5.71299667e+01 2.95103760e+02
      5.01554871e+01 1.40000656e+02 2.34286713e+02 1.32381012e+02
      6.05335007e+01 1.40239883e+02 2.45507919e+02 1.47246613e+02
      3.21658752e+02 3.38780945e+02 3.56191681e+02 3.36086334e+02
      3.17926300e+02 3.39669617e+02 3.61236176e+02 3.42263062e+02
      2.82484436e+02 2.84763947e+02 2.87151764e+02 2.83966309e+02
      2.81367157e+02 2.85151825e+02 2.88821594e+02 2.85934937e+02</_>
    <_>
      4.70731354e+01 8.10057220e+01 5.43170624e+01 7.79755707e+01
      3.03293667e+01 8.65046997e+01 5.53973732e+01 1.08691544e+02
      1.16113989e+03 3.44592316e+02 8.86347485e+00 3.41733368e+02
      1.14582019e+03 3.10940430e+02 5.55748892e+00 3.23969086e+02
      1.53202248e+01 6.84366531e+01 1.85226257e+02 6.42082367e+01
      1.05249043e+01 7.68362427e+01 2.16864182e+02 7.87633972e+01
      3.51289703e+02 3.87706085e+02 4.30021210e+02 3.86556396e+02
      3.50114716e+02 4.01667847e+02 4.52391571e+02 4.02146057e+02
      2.72283386e+02 2.76069855e+02 2.81032532e+02 2.75877563e+02
      2.72065033e+02 2.80106110e+02 2.87036407e+02 2.80221252e+02
      8.02586746e+01 1.13292801e+02 9.56099243e+01 1.17263641e+02
      7.02832794e+01 1.24835815e+02 9.71572571e+01 1.30953857e+02
      4.67062531e+02 2.50411621e+02 3.17505341e+01 2.52977921e+02
      4.67015503e+02 2.42021332e+02 2.56071606e+01 2.44173660e+02
      4.32091599e+01 1.07144066e+02 1.85276505e+02 1.06250969e+02
      3.67797546e+01 1.18033524e+02 2.01977219e+02 1.17847878e+02
      2.58514557e+02 2.71692871e+02 2.86317200e+02 2.71440918e+02
      2.58288818e+02 2.76770905e+02 2.93799255e+02 2.76842438e+02
      2.28125153e+02 2.29710999e+02 2.31780014e+02 2.29645111e+02
      2.28050323e+02 2.31403168e+02 2.34253174e+02 2.31443130e+02</_>
    <_>
      5.83632317e+01 1.49014236e+02 1.08883934e+02 1.32967545e+02
      5.30822983e+01 1.12628685e+02 9.18593597e+01 1.29100937e+02
      1.69334778e+03 4.90607025e+02 3.17920189e+01 4.76538666e+02
      1.65723694e+03 4.71182770e+02 1.47869701e+01 4.93288574e+02
      1.45263920e+01 1.07810501e+02 3.05086029e+02 1.07653297e+02
      1.26048775e+01 9.78159637e+01 2.81934692e+02 9.61799850e+01
      5.05844299e+02 5.75031982e+02 6.46678528e+02 5.76758606e+02
      5.08463623e+02 5.68320679e+02 6.33556763e+02 5.66018066e+02
      3.94762451e+02 4.04718781e+02 4.14238403e+02 4.05229675e+02
      3.95522339e+02 4.02897736e+02 4.10850464e+02 4.02318634e+02
      9.35780258e+01 1.49712433e+02 1.23428574e+02 1.49752121e+02
      8.58233109e+01 1.39303604e+02 1.16269920e+02 1.45940826e+02
      5.66055969e+02 2.97861206e+02 6.20939903e+01 2.96781219e+02
      5.61600952e+02 2.97705994e+02 4.18224525e+01 3.03387878e+02
      4.29799232e+01 1.36061844e+02 2.36180481e+02 1.37481873e+02
      4.22979431e+01 1.33270706e+02 2.29087708e+02 1.30787292e+02
      3.10520691e+02 3.30920319e+02 3.50902283e+02 3.31547577e+02
      3.11531189e+02 3.29378174e+02 3.47673553e+02 3.28572418e+02
      2.74690552e+02 2.78098328e+02 2.81339020e+02 2.78301056e+02
      2.74995605e+02 2.77555542e+02 2.80263916e+02 2.77326813e+02</_>
    <_>
      4.06828156e+01 1.05844398e+02 6.54460297e+01 9.75533752e+01
      3.60319023e+01 9.12489624e+01 6.44049988e+01 1.01391113e+02
      1.33894385e+03 3.75491486e+02 3.43759370e+00 3.73416016e+02
      1.32727954e+03 3.74985321e+02 3.08083439e+00 3.81513977e+02
      9.67049313e+00 8.23231735e+01 2.36503448e+02 8.16463699e+01
      9.12664509e+00 7.97862701e+01 2.30827759e+02 7.92000427e+01
      4.12700775e+02 4.65546448e+02 5.21025269e+02 4.65491486e+02
      4.12866211e+02 4.63359833e+02 5.17557739e+02 4.63045166e+02
      3.20536652e+02 3.27788727e+02 3.34934113e+02 3.27794861e+02
      3.20575348e+02 3.27196838e+02 3.34048279e+02 3.27147644e+02
      7.89105377e+01 1.32702759e+02 1.03012466e+02 1.32195358e+02
      7.39386673e+01 1.28664505e+02 1.03153397e+02 1.32748535e+02
      5.05681091e+02 2.66177246e+02 1.96761169e+01 2.66390625e+02
      5.03850891e+02 2.67123047e+02 2.02420921e+01 2.69323700e+02
      3.83237572e+01 1.24037987e+02 2.12412064e+02 1.23999535e+02
      3.75330772e+01 1.22531944e+02 2.09861969e+02 1.21987549e+02
      2.81231293e+02 2.98730347e+02 3.16068665e+02 2.98729187e+02
      2.81303986e+02 2.98029877e+02 3.15003815e+02 2.97931458e+02
      2.47962158e+02 2.50754242e+02 2.53474640e+02 2.50755692e+02
      2.47974762e+02 2.50522507e+02 2.53134125e+02 2.50506470e+02</_>
    <_>
      3.17060452e+01 6.39056816e+01 5.06006927e+01 6.14253654e+01
      2.64285316e+01 7.36398544e+01 5.55112724e+01 7.57665024e+01
      8.73296021e+02 2.59910645e+02 6.51998329e+00 2.53240814e+02
      8.66845154e+02 2.42034241e+02 7.94743919e+00 2.43432220e+02
      1.05497007e+01 4.88492165e+01 1.36108200e+02 4.56108589e+01
      6.26780558e+00 5.41329117e+01 1.57846756e+02 5.68450890e+01
      2.59005310e+02 2.86598114e+02 3.18519318e+02 2.85783264e+02
      2.57822632e+02 2.95576233e+02 3.33365173e+02 2.96427612e+02
      2.01741043e+02 2.04728180e+02 2.08514221e+02 2.04579834e+02
      2.01524933e+02 2.07345154e+02 2.12482697e+02 2.07502228e+02
      6.71111145e+01 9.96951752e+01 8.72623825e+01 9.89148331e+01
      6.21826935e+01 1.10469147e+02 9.04419022e+01 1.09483681e+02
      4.04286285e+02 2.17517929e+02 2.75154686e+01 2.17419815e+02
      4.05046417e+02 2.12168610e+02 2.92304611e+01 2.10895035e+02
      3.49672890e+01 9.07334442e+01 1.58960022e+02 9.06128235e+01
      2.88162117e+01 9.89934311e+01 1.71742081e+02 9.94764709e+01
      2.21466507e+02 2.33068680e+02 2.45904037e+02 2.32995667e+02
      2.21318207e+02 2.37017654e+02 2.51697815e+02 2.37154922e+02
      1.95910324e+02 1.97355072e+02 1.99193619e+02 1.97328827e+02
      1.95866714e+02 1.98682114e+02 2.01118484e+02 1.98717773e+02</_>
    <_>
      6.19118576e+01 1.30740463e+02 9.73374100e+01 1.32113068e+02
      5.20579453e+01 1.33307907e+02 8.89423370e+01 1.44511459e+02
      1.85258069e+03 5.34813538e+02 1.39285278e+01 5.17947876e+02
      1.81547119e+03 5.09793762e+02 7.62144184e+00 5.34196106e+02
      2.17244167e+01 1.14835129e+02 3.13966705e+02 1.08118782e+02
      1.31240931e+01 1.10218338e+02 3.18164490e+02 1.11551682e+02
      5.56331543e+02 6.24448547e+02 6.97651428e+02 6.24525757e+02
      5.57080688e+02 6.28902710e+02 7.03525513e+02 6.27579712e+02
      4.32580383e+02 4.41420288e+02 4.50755371e+02 4.41668793e+02
      4.33016663e+02 4.42990784e+02 4.52559509e+02 4.42605469e+02
      9.14927216e+01 1.46118835e+02 1.22728439e+02 1.51672714e+02
      9.10719299e+01 1.54254425e+02 1.19549583e+02 1.60654007e+02
      5.89852356e+02 3.10600433e+02 4.17548332e+01 3.12163177e+02
      5.88424622e+02 3.10590363e+02 3.22338676e+01 3.15051300e+02
      5.49417725e+01 1.40692017e+02 2.42830063e+02 1.41041962e+02
      4.41375275e+01 1.43889572e+02 2.46284988e+02 1.42172989e+02
      3.26080688e+02 3.45484528e+02 3.65372711e+02 3.45777496e+02
      3.26651184e+02 3.47207031e+02 3.67268524e+02 3.46686340e+02
      2.87962891e+02 2.90868469e+02 2.93936432e+02 2.90978241e+02
      2.88140961e+02 2.91468964e+02 2.94609833e+02 2.91326416e+02</_>
    <_>
      9.81094666e+01 1.80570602e+02 9.61556473e+01 1.78194275e+02
      9.44462891e+01 1.20263412e+02 9.77893372e+01 1.26800659e+02
      1.87659424e+03 5.27057495e+02 2.20392132e+01 4.55140137e+02
      1.72540381e+03 5.11885773e+02 1.73341522e+01 5.83452515e+02
      3.81365967e+01 1.47461334e+02 3.84297668e+02 1.48470932e+02
      2.60859146e+01 1.15278137e+02 2.89508514e+02 1.08497269e+02
      5.62702698e+02 6.55621460e+02 7.46229065e+02 6.66951599e+02
      5.78128784e+02 6.24752625e+02 6.81454346e+02 6.12217468e+02
      4.34960297e+02 4.51009857e+02 4.64694000e+02 4.54292999e+02
      4.39623901e+02 4.42268097e+02 4.47370178e+02 4.38854889e+02
      1.06332664e+02 1.62167511e+02 1.19609818e+02 1.64360611e+02
      1.00854874e+02 1.31360748e+02 1.17712791e+02 1.32023575e+02
      5.74810181e+02 2.95921478e+02 4.92626190e+01 2.82486359e+02
      5.56960510e+02 3.02112762e+02 4.50659485e+01 3.19335876e+02
      6.91473618e+01 1.44788391e+02 2.54301712e+02 1.53541168e+02
      4.84823418e+01 1.25061295e+02 2.11234131e+02 1.16104958e+02
      3.08591400e+02 3.35316467e+02 3.59350769e+02 3.39119171e+02
      3.14046417e+02 3.25655701e+02 3.40007477e+02 3.21695557e+02
      2.74345398e+02 2.79839752e+02 2.84361237e+02 2.81020813e+02
      2.76029541e+02 2.76515869e+02 2.77959656e+02 2.75311859e+02</_>
    <_>
      4.10705376e+01 1.24719460e+02 9.89588776e+01 1.31395615e+02
      4.94450340e+01 1.29599030e+02 8.76367569e+01 1.17381920e+02
      1.55373474e+03 4.53484283e+02 1.21761446e+01 4.49109863e+02
      1.54611047e+03 4.31154999e+02 9.76459503e+00 4.31770233e+02
      1.12602568e+01 9.15307617e+01 2.65925903e+02 9.42118378e+01
      1.38852482e+01 1.00783073e+02 2.83688507e+02 9.83678665e+01
      4.80902252e+02 5.37389893e+02 6.00222717e+02 5.38983154e+02
      4.82996216e+02 5.46648438e+02 6.11881592e+02 5.45174561e+02
      3.73536285e+02 3.80612000e+02 3.88503265e+02 3.80982910e+02
      3.74047302e+02 3.83100220e+02 3.91545471e+02 3.82743591e+02
      8.08754120e+01 1.40629105e+02 1.17394852e+02 1.42154175e+02
      8.56665878e+01 1.44706985e+02 1.16546997e+02 1.42188248e+02
      5.44458435e+02 2.91286774e+02 3.59974251e+01 2.89265686e+02
      5.42290894e+02 2.83772736e+02 2.84655933e+01 2.85177734e+02
      4.12631187e+01 1.30348740e+02 2.24542877e+02 1.31407745e+02
      4.29472122e+01 1.36623444e+02 2.32291046e+02 1.35715576e+02
      3.03620758e+02 3.20972260e+02 3.39203430e+02 3.21346588e+02
      3.04129578e+02 3.23622528e+02 3.42463959e+02 3.23274261e+02
      2.67687103e+02 2.70213806e+02 2.72994080e+02 2.70324341e+02
      2.67840881e+02 2.71063782e+02 2.74044220e+02 2.70956848e+02</_>
    <_>
      1.41112320e+02 1.91924774e+02 1.17460640e+02 1.49890305e+02
      6.62795868e+01 1.66600922e+02 1.12558952e+02 1.98869781e+02
      2.16886060e+03 6.36299561e+02 1.94347954e+01 6.06858398e+02
      2.12454956e+03 5.97121033e+02 9.93170357e+00 6.16390808e+02
      2.03274689e+01 1.28436935e+02 3.64194092e+02 1.27700562e+02
      1.74853268e+01 1.32951080e+02 3.79202698e+02 1.31303696e+02
      6.51032410e+02 7.29205505e+02 8.15488770e+02 7.31646484e+02
      6.54419495e+02 7.40266479e+02 8.28399231e+02 7.37498474e+02
      5.07164764e+02 5.17072693e+02 5.28032837e+02 5.17786438e+02
      5.08181458e+02 5.20326660e+02 5.31654724e+02 5.19581543e+02
      1.35701172e+02 1.67642639e+02 1.32864517e+02 1.60052689e+02
      9.68447495e+01 1.69202759e+02 1.32162949e+02 1.69048080e+02
      6.39273254e+02 3.40970306e+02 4.84153137e+01 3.37402740e+02
      6.35481628e+02 3.35073029e+02 3.44000435e+01 3.37906097e+02
      5.10625381e+01 1.50160431e+02 2.61009155e+02 1.52261215e+02
      4.93221092e+01 1.57124207e+02 2.68430298e+02 1.55139755e+02
      3.52854492e+02 3.73373138e+02 3.94934204e+02 3.74162903e+02
      3.53953583e+02 3.76559875e+02 3.98376282e+02 3.75785797e+02
      3.11761261e+02 3.14768433e+02 3.18088440e+02 3.15009430e+02
      3.12100311e+02 3.15822815e+02 3.19243317e+02 3.15583954e+02</_>
    <_>
      1.04365280e+02 2.11171692e+02 1.78384811e+02 1.65932556e+02
      5.88357048e+01 1.71802658e+02 1.27795998e+02 1.83640533e+02
      2.10154272e+03 6.48335022e+02 6.12532692e+01 6.20170288e+02
      2.05794727e+03 5.73031738e+02 1.92165451e+01 5.92597839e+02
      1.70674438e+01 1.20259087e+02 3.45413879e+02 1.22545547e+02
      1.75498314e+01 1.28508728e+02 3.68287354e+02 1.25569801e+02
      6.19552979e+02 6.91961304e+02 7.74046997e+02 6.95542542e+02
      6.24372437e+02 7.09388184e+02 7.95023499e+02 7.05776917e+02
      4.84374939e+02 4.93131104e+02 5.03440674e+02 4.94071716e+02
      4.85693024e+02 4.98105347e+02 5.09218842e+02 4.97163300e+02
      1.14737000e+02 1.71887039e+02 1.50966232e+02 1.60000809e+02
      9.70305481e+01 1.67807007e+02 1.34519989e+02 1.71793869e+02
      6.29048828e+02 3.36925415e+02 8.90784988e+01 3.34544647e+02
      6.24963989e+02 3.27563263e+02 4.54757118e+01 3.31616302e+02
      4.94054642e+01 1.43562088e+02 2.51419556e+02 1.45429245e+02
      4.96541290e+01 1.53986099e+02 2.63870148e+02 1.51762650e+02
      3.44213593e+02 3.63594147e+02 3.84403198e+02 3.64338379e+02
      3.45302643e+02 3.68257202e+02 3.89957184e+02 3.67455322e+02
      3.04522125e+02 3.07227600e+02 3.10378448e+02 3.07458954e+02
      3.04854919e+02 3.08754333e+02 3.12208618e+02 3.08514862e+02</_>
    <_>
      1.40535370e+02 2.84964844e+02 2.15998199e+02 2.84932404e+02
      2.45650558e+02 2.45891434e+02 2.34009567e+02 2.27623001e+02
      2.31833130e+03 7.20248474e+02 5.11755219e+01 8.04690186e+02
      2.58322266e+03 7.37773193e+02 4.05270805e+01 6.32723389e+02
      3.63452492e+01 1.46228012e+02 3.85436401e+02 1.55226822e+02
      6.46712799e+01 1.65913605e+02 4.32197083e+02 1.63782455e+02
      7.02456360e+02 7.77195984e+02 8.61390320e+02 7.71003357e+02
      6.93699463e+02 7.92394836e+02 8.95318542e+02 8.00505066e+02
      5.42990173e+02 5.51160522e+02 5.60724304e+02 5.49137085e+02
      5.40033386e+02 5.55349976e+02 5.69785522e+02 5.57594727e+02
      1.33599503e+02 1.84873764e+02 1.59901352e+02 1.88143585e+02
      1.70760635e+02 1.91680725e+02 1.67514465e+02 1.74324936e+02
      6.40706726e+02 3.47020996e+02 7.94990005e+01 3.56980225e+02
      6.59692749e+02 3.46089508e+02 7.02338562e+01 3.28187469e+02
      6.70430222e+01 1.47418365e+02 2.52635513e+02 1.40814743e+02
      8.21776352e+01 1.55893936e+02 2.76771698e+02 1.64174286e+02
      3.56080780e+02 3.73684662e+02 3.92988495e+02 3.71385101e+02
      3.52574524e+02 3.78618500e+02 4.03562836e+02 3.81279724e+02
      3.14084656e+02 3.16116699e+02 3.18676849e+02 3.15410339e+02
      3.13048859e+02 3.17827057e+02 3.22138397e+02 3.18585907e+02</_>
    <_>
      1.11307594e+02 1.69511292e+02 9.57663574e+01 1.82241913e+02
      8.94719620e+01 1.45622879e+02 1.04419022e+02 1.75036896e+02
      1.94235925e+03 5.44869080e+02 1.98858604e+01 5.98333374e+02
      2.02028577e+03 5.88332275e+02 2.76396561e+01 5.74279907e+02
      2.95580254e+01 1.36072617e+02 3.63326080e+02 1.32081589e+02
      2.53743916e+01 1.18504440e+02 3.40419708e+02 1.32744629e+02
      6.10585754e+02 6.90062561e+02 7.69419006e+02 6.82213501e+02
      5.99262268e+02 6.69805115e+02 7.51606689e+02 6.78945740e+02
      4.69930359e+02 4.81316437e+02 4.91256592e+02 4.79201935e+02
      4.66893036e+02 4.75713928e+02 4.86339539e+02 4.77942505e+02
      1.19316116e+02 1.58830872e+02 1.24447807e+02 1.65241425e+02
      1.04721466e+02 1.54323456e+02 1.26972664e+02 1.59199753e+02
      6.01596008e+02 3.15336487e+02 4.54866638e+01 3.26472565e+02
      6.14841309e+02 3.28089935e+02 4.93518906e+01 3.18527649e+02
      6.16212883e+01 1.54412430e+02 2.58998474e+02 1.48106003e+02
      5.65725174e+01 1.42334839e+02 2.49989655e+02 1.48315247e+02
      3.40766602e+02 3.62449402e+02 3.82690491e+02 3.60141205e+02
      3.37553192e+02 3.57159637e+02 3.78380554e+02 3.59414093e+02
      2.99601105e+02 3.03196381e+02 3.06288971e+02 3.02501831e+02
      2.98625275e+02 3.01473633e+02 3.04825165e+02 3.02160492e+02</_>
    <_>
      9.23909988e+01 2.29773209e+02 2.61651489e+02 2.48537781e+02
      1.06631294e+02 2.03143478e+02 1.69098755e+02 2.00985321e+02
      2.58090137e+03 7.73274658e+02 9.58928375e+01 8.01803223e+02
      2.61552710e+03 7.43255737e+02 2.70600719e+01 7.41807068e+02
      2.36941605e+01 1.61216400e+02 4.56946716e+02 1.76739548e+02
      3.93187180e+01 1.54968979e+02 4.35746216e+02 1.48822296e+02
      7.64841919e+02 8.63170044e+02 9.69202637e+02 8.67724243e+02
      7.70324768e+02 8.65796936e+02 9.67765076e+02 8.62550720e+02
      5.97703796e+02 6.10841003e+02 6.24492920e+02 6.11730530e+02
      5.98873352e+02 6.11877136e+02 6.24806702e+02 6.11108459e+02
      1.10983330e+02 1.79691223e+02 1.85338165e+02 1.84041229e+02
      1.16590195e+02 1.84557556e+02 1.55369797e+02 1.82059311e+02
      6.98941467e+02 3.70383575e+02 1.01883942e+02 3.69584625e+02
      6.98879272e+02 3.71292450e+02 5.57326546e+01 3.71695068e+02
      5.08361130e+01 1.62531143e+02 2.84072479e+02 1.63306946e+02
      6.24206581e+01 1.64481918e+02 2.86068146e+02 1.63795868e+02
      3.81788635e+02 4.05039734e+02 4.28751282e+02 4.05369354e+02
      3.82237701e+02 4.06174927e+02 4.29925262e+02 4.05860291e+02
      3.38027161e+02 3.41580200e+02 3.45256561e+02 3.41685425e+02
      3.38174194e+02 3.41984100e+02 3.45682373e+02 3.41881012e+02</_>
    <_>
      9.79312744e+01 1.56066452e+02 1.07736099e+02 1.21268158e+02
      4.62211838e+01 1.30507782e+02 8.88027344e+01 1.36390045e+02
      1.55795935e+03 4.98138336e+02 4.55085449e+01 4.65020599e+02
      1.54825891e+03 4.37311798e+02 2.17097836e+01 4.37794006e+02
      3.47474594e+01 1.05744453e+02 2.55808655e+02 8.49038391e+01
      1.33499689e+01 1.01156479e+02 2.87223053e+02 1.13095596e+02
      4.63867981e+02 5.13470825e+02 5.68536560e+02 5.07686401e+02
      4.56584564e+02 5.23476196e+02 5.91424377e+02 5.28127869e+02
      3.58132019e+02 3.63639740e+02 3.70098297e+02 3.62578033e+02
      3.56705353e+02 3.66861694e+02 3.76156342e+02 3.67822784e+02
      1.06264969e+02 1.48662399e+02 1.19418137e+02 1.38014023e+02
      8.52163696e+01 1.44593079e+02 1.14768089e+02 1.45450623e+02
      5.34213135e+02 2.88922424e+02 7.53394470e+01 2.91442352e+02
      5.40666260e+02 2.82424561e+02 5.06255112e+01 2.78870270e+02
      5.79277687e+01 1.26754837e+02 2.13994522e+02 1.21742516e+02
      4.18597641e+01 1.31503479e+02 2.28386749e+02 1.34890411e+02
      2.96173553e+02 3.12000275e+02 3.28986328e+02 3.11319153e+02
      2.95210968e+02 3.15718048e+02 3.35257996e+02 3.16392822e+02
      2.61476868e+02 2.63547241e+02 2.65985443e+02 2.63351471e+02
      2.61200317e+02 2.64799042e+02 2.68036285e+02 2.64993866e+02</_>
    <_>
      7.22561722e+01 1.80641602e+02 1.20292992e+02 1.97313156e+02
      8.78379517e+01 1.87185837e+02 1.35227524e+02 1.77795181e+02
      2.30991528e+03 6.56862305e+02 7.54445839e+00 6.55674988e+02
      2.31420776e+03 6.57567871e+02 1.10643682e+01 6.54559875e+02
      1.40072489e+01 1.35042877e+02 3.98733124e+02 1.37684433e+02
      1.58553982e+01 1.34668945e+02 3.93642242e+02 1.32807465e+02
      7.01027100e+02 7.90877441e+02 8.86674072e+02 7.92751038e+02
      7.03358948e+02 7.90438110e+02 8.83408325e+02 7.88809021e+02
      5.46946899e+02 5.59235413e+02 5.71650269e+02 5.59709839e+02
      5.47590515e+02 5.59099792e+02 5.70798401e+02 5.58653564e+02
      1.00401222e+02 1.73231476e+02 1.36014938e+02 1.74316544e+02
      1.10206688e+02 1.72851883e+02 1.40648666e+02 1.68255325e+02
      6.62512268e+02 3.52163849e+02 3.04589443e+01 3.51744843e+02
      6.63867310e+02 3.51497131e+02 3.71237831e+01 3.50411652e+02
      4.57243156e+01 1.57956467e+02 2.73668945e+02 1.58448639e+02
      4.80145912e+01 1.58322418e+02 2.73656799e+02 1.58152008e+02
      3.65530823e+02 3.88000732e+02 4.10663940e+02 3.88221313e+02
      3.65797974e+02 3.88130127e+02 4.10566956e+02 3.87962097e+02
      3.22985199e+02 3.26509705e+02 3.30053986e+02 3.26581604e+02
      3.23081390e+02 3.26547455e+02 3.30010559e+02 3.26482971e+02</_>
    <_>
      5.10632973e+01 1.11013878e+02 6.62628632e+01 1.03177155e+02
      3.67364120e+01 9.86140976e+01 6.69268341e+01 1.00360352e+02
      1.46107654e+03 4.07412384e+02 2.63287044e+00 4.07123932e+02
      1.45915674e+03 4.14586365e+02 2.66199851e+00 4.17744507e+02
      9.08673382e+00 8.82624359e+01 2.58092163e+02 8.77500458e+01
      8.01834202e+00 8.28257675e+01 2.45892593e+02 8.35117416e+01
      4.47695740e+02 5.06642303e+02 5.67921387e+02 5.06584106e+02
      4.47649841e+02 5.01320282e+02 5.59918884e+02 5.01290863e+02
      3.48629974e+02 3.56933960e+02 3.64911865e+02 3.56944031e+02
      3.48652649e+02 3.55485657e+02 3.62813477e+02 3.55461639e+02
      8.61055984e+01 1.38962540e+02 1.08187889e+02 1.39195648e+02
      7.91361237e+01 1.34937164e+02 1.07971054e+02 1.34691345e+02
      5.28688599e+02 2.78330383e+02 1.74869633e+01 2.78863129e+02
      5.28869324e+02 2.81564819e+02 1.84009418e+01 2.82051025e+02
      3.77489281e+01 1.29280685e+02 2.22219208e+02 1.29179672e+02
      3.76065063e+01 1.25714294e+02 2.16881287e+02 1.25501724e+02
      2.93025604e+02 3.11749817e+02 3.30086060e+02 3.11751862e+02
      2.93068390e+02 3.10155914e+02 3.27768951e+02 3.10095428e+02
      2.58656067e+02 2.61718628e+02 2.64628326e+02 2.61725128e+02
      2.58671417e+02 2.61196869e+02 2.63873596e+02 2.61181458e+02</_>
    <_>
      3.53052368e+01 9.41747971e+01 6.00528297e+01 8.98293457e+01
      3.47106209e+01 9.50050888e+01 5.95477676e+01 9.30940933e+01
      1.33178674e+03 3.78573395e+02 1.35334682e+00 3.72358459e+02
      1.32700891e+03 3.73157806e+02 2.44761014e+00 3.73130768e+02
      8.04344177e+00 7.66024933e+01 2.27017242e+02 7.70692062e+01
      7.35649872e+00 7.88755112e+01 2.32204483e+02 7.92311325e+01
      4.07255066e+02 4.57471039e+02 5.11916504e+02 4.58188324e+02
      4.07979950e+02 4.60173920e+02 5.15138794e+02 4.59764587e+02
      3.17344666e+02 3.23965851e+02 3.30905762e+02 3.24149780e+02
      3.17574860e+02 3.24718872e+02 3.31747223e+02 3.24572052e+02
      7.47062683e+01 1.30886475e+02 1.03408295e+02 1.28853760e+02
      7.66132355e+01 1.32874146e+02 1.03710449e+02 1.29903458e+02
      5.04979095e+02 2.68811859e+02 1.27810602e+01 2.66936310e+02
      5.04373810e+02 2.67050415e+02 1.63811378e+01 2.66529388e+02
      3.55255280e+01 1.20404877e+02 2.08426010e+02 1.21240875e+02
      3.61354713e+01 1.22363007e+02 2.10510239e+02 1.22082092e+02
      2.79388977e+02 2.96162720e+02 3.13331787e+02 2.96438324e+02
      2.79709503e+02 2.97043823e+02 3.14263489e+02 2.96861603e+02
      2.46716705e+02 2.49284317e+02 2.51946564e+02 2.49363144e+02
      2.46818710e+02 2.49573837e+02 2.52254608e+02 2.49508377e+02</_>
    <_>
      2.32985554e+01 4.13674965e+01 2.75573158e+01 3.80652542e+01
      1.49796352e+01 4.26366768e+01 2.83902016e+01 4.69293365e+01
      6.02381714e+02 1.73344162e+02 2.37839580e+00 1.64412582e+02
      5.81512634e+02 1.63905807e+02 2.02973604e+00 1.70818863e+02
      4.74247456e+00 3.31601524e+01 9.74398346e+01 3.33109703e+01
      3.73262000e+00 3.53001518e+01 1.01927498e+02 3.42341881e+01
      1.76071960e+02 1.97520767e+02 2.21316559e+02 1.98577286e+02
      1.77531189e+02 2.00929306e+02 2.24789459e+02 1.99731506e+02
      1.37862671e+02 1.40604187e+02 1.43657288e+02 1.40899155e+02
      1.38283249e+02 1.41578659e+02 1.44622131e+02 1.41270035e+02
      5.70825577e+01 8.52620544e+01 6.98429642e+01 8.37766571e+01
      5.02322044e+01 8.80118103e+01 6.94418335e+01 9.04042206e+01
      3.37634979e+02 1.79489655e+02 1.75118980e+01 1.76655685e+02
      3.33355927e+02 1.75848877e+02 1.59023685e+01 1.79197433e+02
      2.30504074e+01 7.73146896e+01 1.35892517e+02 7.89073868e+01
      2.36450424e+01 8.11796112e+01 1.39276657e+02 7.94631042e+01
      1.83627792e+02 1.94511856e+02 2.05946106e+02 1.95092850e+02
      1.84463150e+02 1.96252029e+02 2.07593628e+02 1.95649933e+02
      1.62616196e+02 1.64222839e+02 1.65997223e+02 1.64397278e+02
      1.62864929e+02 1.64795685e+02 1.66560165e+02 1.64618210e+02</_>
    <_>
      6.46049118e+01 1.45639786e+02 9.68939056e+01 1.44240616e+02
      1.05594467e+02 1.19840744e+02 9.31282578e+01 1.38802078e+02
      1.44783911e+03 4.26112457e+02 3.12744160e+01 4.75683960e+02
      1.56792859e+03 4.59843140e+02 3.21532021e+01 4.22757843e+02
      4.11207695e+01 1.26303062e+02 2.84242584e+02 1.05301933e+02
      3.41361961e+01 1.16680847e+02 2.94848877e+02 1.24719582e+02
      4.82284576e+02 5.36592773e+02 5.89994690e+02 5.22712463e+02
      4.65778137e+02 5.28127441e+02 5.95880371e+02 5.39046570e+02
      3.64106201e+02 3.70774109e+02 3.76721436e+02 3.67474243e+02
      3.59719482e+02 3.68667236e+02 3.78194672e+02 3.71641327e+02
      8.97514572e+01 1.39960037e+02 1.12854263e+02 1.47855118e+02
      1.06840034e+02 1.34344147e+02 1.12765289e+02 1.34769989e+02
      5.10672211e+02 2.64964264e+02 6.00923691e+01 2.85148743e+02
      5.30129395e+02 2.81052490e+02 6.21755180e+01 2.71381012e+02
      6.95925751e+01 1.31608597e+02 2.17161377e+02 1.21065201e+02
      6.16167755e+01 1.20316376e+02 2.14157181e+02 1.29640884e+02
      2.90122498e+02 3.07666565e+02 3.23869446e+02 3.04255249e+02
      2.85625183e+02 3.03516602e+02 3.22501495e+02 3.06487122e+02
      2.54856613e+02 2.57581146e+02 2.59901489e+02 2.56586945e+02
      2.53497299e+02 2.56299713e+02 2.59449066e+02 2.57229614e+02</_>
    <_>
      3.68371353e+01 8.91986313e+01 5.01917877e+01 8.80492935e+01
      3.40551529e+01 7.08717728e+01 4.71386757e+01 7.09652710e+01
      1.08825842e+03 2.94154602e+02 4.69967794e+00 2.89936157e+02
      1.07814282e+03 3.17744171e+02 3.39784980e+00 3.26066925e+02
      1.44651041e+01 7.92499313e+01 2.14288635e+02 7.59312439e+01
      8.80255508e+00 6.03051567e+01 1.73184708e+02 6.31879272e+01
      3.37828308e+02 3.88640808e+02 4.37604218e+02 3.88256195e+02
      3.37314606e+02 3.70212738e+02 4.10175598e+02 3.70387207e+02
      2.60967743e+02 2.69121735e+02 2.75900818e+02 2.69130280e+02
      2.60992371e+02 2.64073364e+02 2.68637665e+02 2.64038361e+02
      6.90753555e+01 1.23738014e+02 9.34881363e+01 1.24699905e+02
      7.13725891e+01 1.10318512e+02 9.09781647e+01 1.10870338e+02
      4.51759491e+02 2.34184662e+02 2.18523445e+01 2.32844666e+02
      4.49480896e+02 2.42480026e+02 1.95317993e+01 2.45430344e+02
      3.40724487e+01 1.14407211e+02 1.96575623e+02 1.15706718e+02
      3.38320961e+01 1.03160515e+02 1.77648468e+02 1.01425446e+02
      2.49250107e+02 2.67553711e+02 2.84400024e+02 2.68113678e+02
      2.50090347e+02 2.62281921e+02 2.76019501e+02 2.61644073e+02
      2.20187469e+02 2.23577362e+02 2.26452332e+02 2.23757721e+02
      2.20450195e+02 2.21818024e+02 2.23695282e+02 2.21626160e+02</_>
    <_>
      1.19860817e+02 1.96591904e+02 1.29009888e+02 1.68952698e+02
      6.82114639e+01 1.80569702e+02 1.49903152e+02 2.32608719e+02
      2.24591821e+03 6.47870178e+02 9.39445877e+00 6.35019958e+02
      2.20656592e+03 6.19445984e+02 1.65784626e+01 6.31199768e+02
      1.74095936e+01 1.24848579e+02 3.64631592e+02 1.22669395e+02
      1.42599487e+01 1.38457031e+02 3.98695221e+02 1.38456375e+02
      6.73786072e+02 7.51551331e+02 8.38162659e+02 7.51134216e+02
      6.73391785e+02 7.65465027e+02 8.59449951e+02 7.65531311e+02
      5.24541504e+02 5.33998291e+02 5.44659302e+02 5.33911011e+02
      5.24440552e+02 5.37808960e+02 5.50215637e+02 5.37863220e+02
      1.22802765e+02 1.68026199e+02 1.36738419e+02 1.66228317e+02
      9.99993439e+01 1.70391479e+02 1.41232468e+02 1.80146423e+02
      6.49878906e+02 3.46622101e+02 3.48481026e+01 3.46710754e+02
      6.48436584e+02 3.40915985e+02 4.60083160e+01 3.41304230e+02
      4.93129272e+01 1.51928375e+02 2.62937744e+02 1.51426880e+02
      4.54525375e+01 1.58122681e+02 2.72857788e+02 1.58602539e+02
      3.57976379e+02 3.78292969e+02 3.99530060e+02 3.78029114e+02
      3.57611389e+02 3.81110992e+02 4.03932617e+02 3.81377899e+02
      3.16046234e+02 3.18933350e+02 3.22096436e+02 3.18842041e+02
      3.15917236e+02 3.19865387e+02 3.23547363e+02 3.19957672e+02</_>
    <_>
      8.18920517e+01 1.66337738e+02 9.31919708e+01 1.32786987e+02
      5.11057014e+01 1.32266052e+02 8.54555206e+01 1.42983505e+02
      1.85831653e+03 5.30367310e+02 1.07985144e+01 5.26793640e+02
      1.86534741e+03 5.31904724e+02 6.82854843e+00 5.26464111e+02
      1.96159649e+01 1.22284805e+02 3.38429596e+02 1.19787743e+02
      1.67563190e+01 1.16221909e+02 3.30056122e+02 1.18794373e+02
      5.85080261e+02 6.58903320e+02 7.36194763e+02 6.57634644e+02
      5.83215210e+02 6.53971741e+02 7.30784851e+02 6.55397583e+02
      4.52026093e+02 4.62167633e+02 4.72059845e+02 4.61872253e+02
      4.51595612e+02 4.60856110e+02 4.70618713e+02 4.61171844e+02
      9.93958664e+01 1.56549149e+02 1.20149879e+02 1.55814682e+02
      8.88413162e+01 1.55044830e+02 1.20618835e+02 1.51601257e+02
      5.91876831e+02 3.13158447e+02 3.80122910e+01 3.15607239e+02
      5.96165955e+02 3.16298157e+02 3.00701523e+01 3.12653290e+02
      5.10376167e+01 1.48340469e+02 2.51599625e+02 1.46813889e+02
      4.67855110e+01 1.45555115e+02 2.49832336e+02 1.47297409e+02
      3.33849457e+02 3.54174622e+02 3.74282196e+02 3.53610535e+02
      3.33029358e+02 3.52978638e+02 3.73398560e+02 3.53574768e+02
      2.93735046e+02 2.96949493e+02 3.00057495e+02 2.96780090e+02
      2.93492096e+02 2.96563232e+02 2.99753204e+02 2.96737183e+02</_>
    <_>
      3.45356865e+01 9.59965820e+01 6.01934586e+01 9.70877533e+01
      3.53523941e+01 9.08487930e+01 6.29706421e+01 9.56811523e+01
      1.34623767e+03 3.76095734e+02 2.52825618e+00 3.80685883e+02
      1.34740601e+03 3.79478485e+02 2.66668248e+00 3.82884979e+02
      6.99631596e+00 7.93960037e+01 2.35505646e+02 8.09809799e+01
      8.70288658e+00 7.75232849e+01 2.28278168e+02 7.67598343e+01
      4.11523102e+02 4.65073669e+02 5.21333008e+02 4.65490662e+02
      4.12124023e+02 4.62275574e+02 5.16481018e+02 4.61846954e+02
      3.20796326e+02 3.28237000e+02 3.35526855e+02 3.28319489e+02
      3.20918182e+02 3.27419830e+02 3.34233673e+02 3.27330627e+02
      7.63146973e+01 1.32205978e+02 1.04019913e+02 1.34152100e+02
      7.65227737e+01 1.28911774e+02 1.04301346e+02 1.30882370e+02
      5.08079742e+02 2.68294617e+02 1.82247601e+01 2.69037689e+02
      5.07790558e+02 2.69074310e+02 1.77725582e+01 2.70195221e+02
      3.56116447e+01 1.22997932e+02 2.11917435e+02 1.22899025e+02
      3.61594353e+01 1.21158478e+02 2.08971512e+02 1.20829475e+02
      2.80967682e+02 2.98656189e+02 3.16141205e+02 2.98663239e+02
      2.81028534e+02 2.97735718e+02 3.14762604e+02 2.97656982e+02
      2.48093994e+02 2.50943558e+02 2.53699905e+02 2.50951385e+02
      2.48112350e+02 2.50629425e+02 2.53236115e+02 2.50611206e+02</_>
    <_>
      5.82359123e+01 1.25727249e+02 8.62094803e+01 1.29256409e+02
      6.56234970e+01 1.44285858e+02 9.12729187e+01 1.38698792e+02
      1.82203296e+03 5.23628296e+02 6.09141397e+00 5.22197205e+02
      1.81640125e+03 5.03723114e+02 9.42022705e+00 5.11865265e+02
      1.23332815e+01 1.02520500e+02 3.01672455e+02 1.02974129e+02
      1.13893414e+01 1.12558105e+02 3.27113556e+02 1.12453346e+02
      5.53573792e+02 6.18008179e+02 6.90101257e+02 6.19130920e+02
      5.55087708e+02 6.30412842e+02 7.07112427e+02 6.29203247e+02
      4.31420013e+02 4.39295837e+02 4.48277313e+02 4.39629059e+02
      4.31894073e+02 4.42798431e+02 4.52808990e+02 4.42450989e+02
      9.13363647e+01 1.47808838e+02 1.20930618e+02 1.50567947e+02
      9.74785080e+01 1.57345032e+02 1.21954277e+02 1.56864273e+02
      5.89112915e+02 3.14507233e+02 2.54949055e+01 3.14599121e+02
      5.89163208e+02 3.09176361e+02 3.14866390e+01 3.10260803e+02
      4.10783997e+01 1.37392319e+02 2.38561050e+02 1.37954254e+02
      4.17905464e+01 1.44785614e+02 2.48531662e+02 1.43947311e+02
      3.25034790e+02 3.43437500e+02 3.62921753e+02 3.43730103e+02
      3.25474762e+02 3.46903687e+02 3.67422455e+02 3.46564575e+02
      2.87151001e+02 2.89752777e+02 2.92692261e+02 2.89852356e+02
      2.87296387e+02 2.90908905e+02 2.94184875e+02 2.90802429e+02</_>
    <_>
      4.98747177e+01 1.42846344e+02 1.12216263e+02 1.35203552e+02
      4.93937607e+01 1.37236694e+02 8.63487854e+01 1.30477890e+02
      1.85895618e+03 5.38118958e+02 1.56276770e+01 5.19868164e+02
      1.84023987e+03 5.20618958e+02 5.76303673e+00 5.21559814e+02
      1.43426046e+01 1.14200447e+02 3.27439606e+02 1.15516479e+02
      1.41256237e+01 1.12002663e+02 3.23129791e+02 1.10813683e+02
      5.70163818e+02 6.42246765e+02 7.19558716e+02 6.44264832e+02
      5.72561279e+02 6.43289734e+02 7.18510559e+02 6.41682617e+02
      4.43408661e+02 4.53159302e+02 4.63160187e+02 4.53671143e+02
      4.44085266e+02 4.53513824e+02 4.62978607e+02 4.53057343e+02
      8.70070343e+01 1.55862656e+02 1.25231995e+02 1.51530731e+02
      8.97811584e+01 1.57019592e+02 1.20521835e+02 1.52394623e+02
      5.95154785e+02 3.17011871e+02 4.10237274e+01 3.13033478e+02
      5.93093445e+02 3.14536011e+02 2.71857929e+01 3.14231384e+02
      4.47592468e+01 1.43471298e+02 2.47806122e+02 1.45189850e+02
      4.44860649e+01 1.45188416e+02 2.48496017e+02 1.44451508e+02
      3.30451263e+02 3.50528687e+02 3.70993561e+02 3.51085144e+02
      3.31117218e+02 3.51186523e+02 3.71252838e+02 3.50794678e+02
      2.91603943e+02 2.94739441e+02 2.97949463e+02 2.94897064e+02
      2.91809998e+02 2.94940094e+02 2.98027161e+02 2.94806152e+02</_>
    <_>
      5.66219826e+01 1.22465408e+02 1.07193092e+02 1.18612053e+02
      7.85329590e+01 1.77385590e+02 1.07139168e+02 1.61810135e+02
      1.78270667e+03 5.35893005e+02 2.59675159e+01 5.59159790e+02
      1.83757495e+03 5.26270447e+02 3.07361603e+01 4.86642151e+02
      1.55431738e+01 8.95093994e+01 2.65162079e+02 9.46702499e+01
      2.79506397e+01 1.34877228e+02 3.53853363e+02 1.25021538e+02
      5.32544373e+02 5.81382080e+02 6.43872803e+02 5.81307739e+02
      5.33002258e+02 6.19835388e+02 7.01366455e+02 6.19288940e+02
      4.15549896e+02 4.19376892e+02 4.26252991e+02 4.19227020e+02
      4.15383270e+02 4.29827515e+02 4.41388916e+02 4.29921387e+02
      9.31351089e+01 1.37557739e+02 1.25858536e+02 1.38471085e+02
      1.01398247e+02 1.65845581e+02 1.27620735e+02 1.64203003e+02
      5.81914062e+02 3.16280914e+02 5.43077965e+01 3.17545654e+02
      5.83659912e+02 3.01332458e+02 5.37030144e+01 3.00431244e+02
      4.38749619e+01 1.25128380e+02 2.20824860e+02 1.24597374e+02
      5.99674950e+01 1.46643143e+02 2.53633194e+02 1.47106964e+02
      3.17921417e+02 3.32393646e+02 3.49874023e+02 3.32215759e+02
      3.17675201e+02 3.42566345e+02 3.64655121e+02 3.42734253e+02
      2.81394653e+02 2.82726990e+02 2.85054749e+02 2.82676788e+02
      2.81324646e+02 2.86133820e+02 2.89953949e+02 2.86182495e+02</_>
    <_>
      1.85659256e+02 2.82196991e+02 2.06591675e+02 2.78501709e+02
      1.65595078e+02 2.65803253e+02 2.50314758e+02 3.06632965e+02
      3.62748389e+03 1.07250317e+03 2.70222301e+01 9.61989075e+02
      3.38225391e+03 1.01992163e+03 6.52293777e+01 1.11715332e+03
      1.03523132e+02 2.16196869e+02 5.52743530e+02 2.09491928e+02
      7.23315201e+01 2.37992844e+02 5.91686829e+02 2.47283447e+02
      9.80401794e+02 1.09911072e+03 1.23267969e+03 1.10769678e+03
      9.90461426e+02 1.11697290e+03 1.24637244e+03 1.10930164e+03
      7.64927124e+02 7.81082031e+02 7.98874573e+02 7.83652222e+02
      7.68417175e+02 7.85658752e+02 8.01790649e+02 7.83198547e+02
      1.48553696e+02 2.03484421e+02 1.73852325e+02 2.03786514e+02
      1.42323807e+02 2.04508499e+02 1.85540619e+02 2.08996140e+02
      8.04499939e+02 4.25981293e+02 5.62722015e+01 4.18818115e+02
      7.96845947e+02 4.26853912e+02 8.63796387e+01 4.30463379e+02
      1.19143959e+02 1.77385834e+02 3.18225800e+02 1.83519577e+02
      1.00271622e+02 1.80981079e+02 3.15179779e+02 1.75819656e+02
      4.26811401e+02 4.54274780e+02 4.82073456e+02 4.55355347e+02
      4.28232849e+02 4.54689423e+02 4.81259033e+02 4.53760010e+02
      3.80119690e+02 3.84456848e+02 3.88856628e+02 3.84764801e+02
      3.80539551e+02 3.84617096e+02 3.88664642e+02 3.84331177e+02</_>
    <_>
      5.05790100e+01 1.07515335e+02 6.35120392e+01 9.70954742e+01
      3.36363220e+01 9.22149658e+01 6.13063431e+01 9.71482544e+01
      1.37280225e+03 3.88324982e+02 7.01781273e+00 3.76474579e+02
      1.34719678e+03 3.83411102e+02 2.30247521e+00 3.90269989e+02
      8.91556454e+00 8.31643753e+01 2.41233963e+02 8.26189728e+01
      7.63479280e+00 7.63380508e+01 2.26260330e+02 7.60067902e+01
      4.12900909e+02 4.68136047e+02 5.25433899e+02 4.68619537e+02
      4.13587402e+02 4.62689697e+02 5.16468445e+02 4.62130859e+02
      3.21937195e+02 3.29783569e+02 3.37291443e+02 3.29913910e+02
      3.22122925e+02 3.28295837e+02 3.34971649e+02 3.28160645e+02
      8.48145905e+01 1.36824387e+02 1.05016861e+02 1.33727325e+02
      7.51373749e+01 1.28743546e+02 1.04718536e+02 1.31471970e+02
      5.11681061e+02 2.69872192e+02 2.68614044e+01 2.67698547e+02
      5.08030029e+02 2.70477081e+02 1.65703430e+01 2.72581635e+02
      3.60104790e+01 1.23450760e+02 2.13461288e+02 1.24229256e+02
      3.60409088e+01 1.20487656e+02 2.07897812e+02 1.19718079e+02
      2.81225891e+02 2.99365906e+02 3.17164276e+02 2.99586029e+02
      2.81541809e+02 2.97843201e+02 3.14675568e+02 2.97624023e+02
      2.48446503e+02 2.51435196e+02 2.54275162e+02 2.51492599e+02
      2.48527924e+02 2.50912766e+02 2.53453415e+02 2.50855560e+02</_>
    <_>
      1.39536991e+01 3.26170120e+01 2.40001965e+01 3.52644882e+01
      1.59676828e+01 3.15936527e+01 2.38711300e+01 3.21402931e+01
      4.31736694e+02 1.20824097e+02 2.36241150e+00 1.23060669e+02
      4.34294403e+02 1.23798035e+02 3.26434040e+00 1.24620872e+02
      3.00797772e+00 2.65846424e+01 7.68321762e+01 2.62607098e+01
      3.05786872e+00 2.55358391e+01 7.37334137e+01 2.52814388e+01
      1.32451645e+02 1.49963470e+02 1.68076279e+02 1.49841309e+02
      1.32420959e+02 1.48348145e+02 1.65654160e+02 1.48273010e+02
      1.03080315e+02 1.05559288e+02 1.07920258e+02 1.05544037e+02
      1.03075539e+02 1.05088753e+02 1.07250183e+02 1.05080185e+02
      4.40854073e+01 7.43571091e+01 5.98054810e+01 7.68202744e+01
      4.53650093e+01 7.22538452e+01 5.95142555e+01 7.35157471e+01
      2.86638336e+02 1.50937225e+02 1.69476604e+01 1.52156662e+02
      2.86987183e+02 1.51951309e+02 2.01798687e+01 1.53098434e+02
      2.05658207e+01 6.98724823e+01 1.20261536e+02 6.97005997e+01
      2.18447800e+01 6.80050201e+01 1.17244492e+02 6.75863113e+01
      1.58584122e+02 1.68822067e+02 1.78800186e+02 1.68836334e+02
      1.58674393e+02 1.67893250e+02 1.77375931e+02 1.67776581e+02
      1.40066635e+02 1.41758911e+02 1.43353439e+02 1.41773788e+02
      1.40098221e+02 1.41441681e+02 1.42871704e+02 1.41411682e+02</_>
    <_>
      3.72918587e+01 8.99703445e+01 5.88583412e+01 8.45439606e+01
      3.24996185e+01 9.05397110e+01 5.55936813e+01 9.07593079e+01
      1.22319409e+03 3.47288361e+02 2.41224599e+00 3.48709015e+02
      1.23060693e+03 3.45864960e+02 2.44477153e+00 3.43942749e+02
      7.64060163e+00 7.12294159e+01 2.07461197e+02 6.95802231e+01
      6.94005919e+00 7.28204193e+01 2.15056198e+02 7.34884262e+01
      3.75442749e+02 4.20763977e+02 4.69675537e+02 4.19885468e+02
      3.74410706e+02 4.23608124e+02 4.75174957e+02 4.24281586e+02
      2.92227722e+02 2.98017761e+02 3.04113007e+02 2.97818329e+02
      2.91964294e+02 2.98876556e+02 3.05614380e+02 2.99053802e+02
      7.40933990e+01 1.22313568e+02 9.96224899e+01 1.23639137e+02
      7.32173691e+01 1.28043472e+02 9.90526276e+01 1.27761871e+02
